{"learner":{"attributes":{"scikit_learn":"{\"_estimator_type\": \"regressor\"}"},"feature_names":[],"feature_types":[],"gradient_booster":{"model":{"gbtree_model_param":{"num_parallel_tree":"1","num_trees":"362"},"iteration_indptr":[0,1,2,3,4,5,6,7,8,9,10,11,12,13,14,15,16,17,18,19,20,21,22,23,24,25,26,27,28,29,30,31,32,33,34,35,36,37,38,39,40,41,42,43,44,45,46,47,48,49,50,51,52,53,54,55,56,57,58,59,60,61,62,63,64,65,66,67,68,69,70,71,72,73,74,75,76,77,78,79,80,81,82,83,84,85,86,87,88,89,90,91,92,93,94,95,96,97,98,99,100,101,102,103,104,105,106,107,108,109,110,111,112,113,114,115,116,117,118,119,120,121,122,123,124,125,126,127,128,129,130,131,132,133,134,135,136,137,138,139,140,141,142,143,144,145,146,147,148,149,150,151,152,153,154,155,156,157,158,159,160,161,162,163,164,165,166,167,168,169,170,171,172,173,174,175,176,177,178,179,180,181,182,183,184,185,186,187,188,189,190,191,192,193,194,195,196,197,198,199,200,201,202,203,204,205,206,207,208,209,210,211,212,213,214,215,216,217,218,219,220,221,222,223,224,225,226,227,228,229,230,231,232,233,234,235,236,237,238,239,240,241,242,243,244,245,246,247,248,249,250,251,252,253,254,255,256,257,258,259,260,261,262,263,264,265,266,267,268,269,270,271,272,273,274,275,276,277,278,279,280,281,282,283,284,285,286,287,288,289,290,291,292,293,294,295,296,297,298,299,300,301,302,303,304,305,306,307,308,309,310,311,312,313,314,315,316,317,318,319,320,321,322,323,324,325,326,327,328,329,330,331,332,333,334,335,336,337,338,339,340,341,342,343,344,345,346,347,348,349,350,351,352,353,354,355,356,357,358,359,360,361,362],"tree_info":[0,0,0,0,0,0,0,0,0,0,0,0,0,0,0,0,0,0,0,0,0,0,0,0,0,0,0,0,0,0,0,0,0,0,0,0,0,0,0,0,0,0,0,0,0,0,0,0,0,0,0,0,0,0,0,0,0,0,0,0,0,0,0,0,0,0,0,0,0,0,0,0,0,0,0,0,0,0,0,0,0,0,0,0,0,0,0,0,0,0,0,0,0,0,0,0,0,0,0,0,0,0,0,0,0,0,0,0,0,0,0,0,0,0,0,0,0,0,0,0,0,0,0,0,0,0,0,0,0,0,0,0,0,0,0,0,0,0,0,0,0,0,0,0,0,0,0,0,0,0,0,0,0,0,0,0,0,0,0,0,0,0,0,0,0,0,0,0,0,0,0,0,0,0,0,0,0,0,0,0,0,0,0,0,0,0,0,0,0,0,0,0,0,0,0,0,0,0,0,0,0,0,0,0,0,0,0,0,0,0,0,0,0,0,0,0,0,0,0,0,0,0,0,0,0,0,0,0,0,0,0,0,0,0,0,0,0,0,0,0,0,0,0,0,0,0,0,0,0,0,0,0,0,0,0,0,0,0,0,0,0,0,0,0,0,0,0,0,0,0,0,0,0,0,0,0,0,0,0,0,0,0,0,0,0,0,0,0,0,0,0,0,0,0,0,0,0,0,0,0,0,0,0,0,0,0,0,0,0,0,0,0,0,0,0,0,0,0,0,0,0,0,0,0,0,0,0,0,0,0,0,0,0,0,0,0,0,0,0,0,0,0,0,0,0,0,0,0,0,0,0,0,0,0,0,0,0,0,0,0,0,0],"trees":[{"base_weights":[1.4117531E-3,-1.3485833E-1,6.0151753E0,-1.843981E-1,3.766393E-2,6.3111913E-1,1.3375564E0,-2.5763255E-2,-4.052019E-2,2.1974685E-2,1.4741064E0,1.4587331E0,6.157005E-3,9.2217016E-1,-0E0,-0E0,9.2358947E-1,-5.942567E-3,1.1230932E-2],"categories":[],"categories_nodes":[],"categories_segments":[],"categories_sizes":[],"default_left":[0,0,0,0,0,0,0,0,0,0,0,0,0,0,0,0,0,0,0],"id":0,"left_children":[1,3,5,7,9,-1,-1,-1,-1,11,13,15,17,-1,-1,-1,-1,-1,-1],"loss_changes":[1.7521045E3,1.7945553E1,1.1632788E2,2.0197258E0,9.076945E0,0E0,0E0,0E0,0E0,9.109569E0,2.3239122E1,2.353735E1,9.324828E-1,0E0,0E0,0E0,0E0,0E0,0E0],"parents":[2147483647,0,0,1,1,2,2,3,3,4,4,9,9,10,10,11,11,12,12],"right_children":[2,4,6,8,10,-1,-1,-1,-1,12,14,16,18,-1,-1,-1,-1,-1,-1],"split_conditions":[2.5794217E-2,4.2137626E-1,3.0363747E-1,1.5757544E-1,9.6177995E-1,6.3111913E-1,1.3375564E0,-2.5763255E-2,-4.052019E-2,4.1338973E-2,1.254388E0,2.6959875E-1,3.2144204E-2,9.2217016E-1,-0E0,-0E0,9.2358947E-1,-5.942567E-3,1.1230932E-2],"split_indices":[6,28,6,29,30,0,0,0,0,26,5,10,31,0,0,0,0,0,0],"split_type":[0,0,0,0,0,0,0,0,0,0,0,0,0,0,0,0,0,0,0],"sum_hessian":[2.131E3,2.084E3,4.7E1,1.623E3,4.61E2,1.4E1,3.3E1,6.34E2,9.89E2,4.57E2,4E0,4E0,4.53E2,1E0,3E0,3E0,1E0,2.56E2,1.97E2],"tree_param":{"num_deleted":"0","num_feature":"32","num_nodes":"19","size_leaf_vector":"1"}},{"base_weights":[1.4597527E-4,-1.0993861E-1,4.961783E0,-1.5267585E-1,3.1062374E-2,5.443707E-1,1.1091324E0,-2.6448818E-2,-2.433827E-1,1.81503E-2,1.2634078E0,-2.2000025E-1,-3.2511643E-1,1.2477101E0,5.166515E-3,7.9552317E-1,-0E0,-1.2432262E0,-3.71671E-2,-0E0,7.967477E-1,-8.098484E-3,7.5039356E-3,-0E0,-3.2000527E-1],"categories":[],"categories_nodes":[],"categories_segments":[],"categories_sizes":[],"default_left":[0,0,0,0,0,0,0,0,0,0,0,0,0,0,0,0,0,0,0,0,0,0,0,0,0],"id":1,"left_children":[1,3,5,7,9,-1,-1,-1,11,13,15,17,-1,19,21,-1,-1,23,-1,-1,-1,-1,-1,-1,-1],"loss_changes":[1.1920939E3,1.2927734E1,7.5218506E1,1.5514107E0,6.6732044E0,0E0,0E0,0E0,4.8353596E0,6.666249E0,1.738586E1,3.235633E0,0E0,1.7633469E1,7.97183E-1,0E0,0E0,1.5890775E0,0E0,0E0,0E0,0E0,0E0,0E0,0E0],"parents":[2147483647,0,0,1,1,2,2,3,3,4,4,8,8,9,9,10,10,11,11,13,13,14,14,17,17],"right_children":[2,4,6,8,10,-1,-1,-1,12,14,16,18,-1,20,22,-1,-1,24,-1,-1,-1,-1,-1,-1,-1],"split_conditions":[2.5794217E-2,4.175429E-1,1.0281117E0,1.5954759E-2,9.6177995E-1,5.443707E-1,1.1091324E0,-2.6448818E-2,1.1487571E-1,4.1338973E-2,4.0618038E-1,1.3851106E-1,-3.2511643E-1,2.6959875E-1,4.1265973E-1,7.9552317E-1,-0E0,3.274076E-1,-3.71671E-2,-0E0,7.967477E-1,-8.098484E-3,7.5039356E-3,-0E0,-3.2000527E-1],"split_indices":[6,28,6,4,30,0,0,0,26,26,3,11,0,10,3,0,0,3,0,0,0,0,0,0,0],"split_type":[0,0,0,0,0,0,0,0,0,0,0,0,0,0,0,0,0,0,0,0,0,0,0,0,0],"sum_hessian":[2.174E3,2.127E3,4.7E1,1.637E3,4.9E2,1.5E1,3.2E1,1.444E3,1.93E2,4.86E2,4E0,1.91E2,2E0,4E0,4.82E2,1E0,3E0,3E0,1.88E2,3E0,1E0,1.91E2,2.91E2,1E0,2E0],"tree_param":{"num_deleted":"0","num_feature":"32","num_nodes":"25","size_leaf_vector":"1"}},{"base_weights":[-1.1512232E-4,-9.069647E-2,4.041185E0,-1.23970605E-1,2.3223456E-2,4.4330978E-1,9.02427E-1,-2.8903205E-2,-1.7395014E-2,1.149676E-2,1.0816456E0,8.647635E-1,-0E0,6.8626934E-1,-0E0,-0E0,6.873256E-1],"categories":[],"categories_nodes":[],"categories_segments":[],"categories_sizes":[],"default_left":[0,0,0,0,0,0,0,0,0,0,0,0,0,0,0,0,0],"id":2,"left_children":[1,3,5,7,9,-1,-1,-1,-1,11,13,15,-1,-1,-1,-1,-1],"loss_changes":[7.9118427E2,8.138065E0,4.8369568E1,1.304205E0,4.926909E0,0E0,0E0,0E0,0E0,3.9586284E0,1.3016795E1,1.417245E1,0E0,0E0,0E0,0E0,0E0],"parents":[2147483647,0,0,1,1,2,2,3,3,4,4,9,9,10,10,11,11],"right_children":[2,4,6,8,10,-1,-1,-1,-1,12,14,16,-1,-1,-1,-1,-1],"split_conditions":[2.5794217E-2,1.1634947E0,4.0283844E-1,3.367895E-1,9.6177995E-1,4.4330978E-1,9.02427E-1,-2.8903205E-2,-1.7395014E-2,4.1338973E-2,4.0618038E-1,2.6959875E-1,-0E0,6.8626934E-1,-0E0,-0E0,6.873256E-1],"split_indices":[6,5,2,28,30,0,0,0,0,26,3,10,0,0,0,0,0],"split_type":[0,0,0,0,0,0,0,0,0,0,0,0,0,0,0,0,0],"sum_hessian":[2.17E3,2.123E3,4.7E1,1.649E3,4.74E2,1.5E1,3.2E1,8.51E2,7.98E2,4.7E2,4E0,5E0,4.65E2,1E0,3E0,4E0,1E0],"tree_param":{"num_deleted":"0","num_feature":"32","num_nodes":"17","size_leaf_vector":"1"}},{"base_weights":[5.155164E-3,-7.18756E-2,3.3182716E0,2.0753542E-2,-1.03931285E-1,3.3039904E-1,7.2556806E-1,1.2021148E-2,1.138714E0,-1.7543284E-2,-1.7160341E-1,4.3372148E-1,6.8515853E-4,5.9202003E-1,-0E0,-2.8914489E-2,-2.6879036E-1,-0E0,5.929312E-1],"categories":[],"categories_nodes":[],"categories_segments":[],"categories_sizes":[],"default_left":[0,0,0,0,0,0,0,0,0,0,0,0,0,0,0,0,0,0,0],"id":3,"left_children":[1,3,5,7,9,-1,-1,11,13,-1,15,17,-1,-1,-1,-1,-1,-1,-1],"loss_changes":[5.545389E2,6.3458357E0,3.2859314E1,4.224551E0,9.517174E-1,0E0,0E0,1.5056039E0,9.11915E0,0E0,3.475419E0,1.1963446E1,0E0,0E0,0E0,0E0,0E0,0E0,0E0],"parents":[2147483647,0,0,1,1,2,2,3,3,4,4,7,7,8,8,10,10,11,11],"right_children":[2,4,6,8,10,-1,-1,12,14,-1,16,18,-1,-1,-1,-1,-1,-1,-1],"split_conditions":[8.47557E-1,7.484741E-2,1.1280092E0,9.6177995E-1,1.653213E-2,3.3039904E-1,7.2556806E-1,4.1338973E-2,1.254388E0,-1.7543284E-2,1.1176407E-1,2.6959875E-1,6.8515853E-4,5.9202003E-1,-0E0,-2.8914489E-2,-2.6879036E-1,-0E0,5.929312E-1],"split_indices":[8,29,9,30,18,0,0,26,5,0,26,10,0,0,0,0,0,0,0],"split_type":[0,0,0,0,0,0,0,0,0,0,0,0,0,0,0,0,0,0,0],"sum_hessian":[2.161E3,2.112E3,4.9E1,5.36E2,1.576E3,1.3E1,3.6E1,5.33E2,3E0,1.365E3,2.11E2,8E0,5.25E2,1E0,2E0,2.09E2,2E0,7E0,1E0],"tree_param":{"num_deleted":"0","num_feature":"32","num_nodes":"19","size_leaf_vector":"1"}},{"base_weights":[3.6733972E-3,-5.9693266E-2,2.6805923E0,-7.99905E-2,3.4216866E-2,1.5414917E0,5.990657E-1,-1.1856012E-2,-1.1543972E-1,1.0361571E0,2.2527672E-2,3.0364877E-1,-0E0,-8.647764E-1,-2.0646188E-2,5.1150054E-1,-0E0,1.8326207E-3,7.185222E-1,-0E0,-2.2602466E-1,5.107145E-1,-0E0],"categories":[],"categories_nodes":[],"categories_segments":[],"categories_sizes":[],"default_left":[0,0,0,0,0,0,0,0,0,0,0,0,0,0,0,0,0,0,0,0,0,0,0],"id":4,"left_children":[1,3,5,7,9,11,-1,-1,13,15,17,-1,-1,19,-1,-1,-1,-1,21,-1,-1,-1,-1],"loss_changes":[3.6949066E2,4.0713215E0,2.2033691E1,9.1148853E-1,3.379459E0,7.449608E-1,0E0,0E0,1.710588E0,6.450426E0,2.6242936E0,0E0,0E0,8.712325E-1,0E0,0E0,0E0,0E0,7.268943E0,0E0,0E0,0E0,0E0],"parents":[2147483647,0,0,1,1,2,2,3,3,4,4,5,5,8,8,9,9,10,10,13,13,18,18],"right_children":[2,4,6,8,10,12,-1,-1,14,16,18,-1,-1,20,-1,-1,-1,-1,22,-1,-1,-1,-1],"split_conditions":[8.47557E-1,4.0575674E-1,4.0283844E-1,1.7964248E-1,4.1338973E-2,8.5826166E-2,5.990657E-1,-1.1856012E-2,1.3449463E-1,4.0959802E-1,6.3867104E-1,3.0364877E-1,-0E0,3.2564697E-1,-2.0646188E-2,5.1150054E-1,-0E0,1.8326207E-3,4.0618038E-1,-0E0,-2.2602466E-1,5.107145E-1,-0E0],"split_indices":[8,3,2,29,26,2,0,0,10,3,10,0,0,3,0,0,0,0,3,0,0,0,0],"split_type":[0,0,0,0,0,0,0,0,0,0,0,0,0,0,0,0,0,0,0,0,0,0,0],"sum_hessian":[2.164E3,2.114E3,5E1,1.746E3,3.68E2,1.6E1,3.4E1,1.191E3,5.55E2,3E0,3.65E2,1.5E1,1E0,3E0,5.52E2,1E0,2E0,3.6E2,5E0,1E0,2E0,1E0,4E0],"tree_param":{"num_deleted":"0","num_feature":"32","num_nodes":"23","size_leaf_vector":"1"}},{"base_weights":[1.6866234E-3,-4.4837665E-2,2.2380848E0,-4.7262523E-2,7.4691564E-1,2.1554369E-1,4.8419973E-1,-1.1912862E-2,3.5236154E-2,3.4039676E-1,-0E0,3.839003E-1,4.208699E-3,-0E0,4.4125316E-1],"categories":[],"categories_nodes":[],"categories_segments":[],"categories_sizes":[],"default_left":[0,0,0,0,0,0,0,0,0,0,0,0,0,0,0],"id":5,"left_children":[1,3,5,7,9,-1,-1,-1,11,-1,-1,13,-1,-1,-1],"loss_changes":[2.2652872E2,3.460618E0,1.1393539E1,2.7649012E0,4.7039113E0,0E0,0E0,0E0,1.13173E0,0E0,0E0,6.1163306E0,0E0,0E0,0E0],"parents":[2147483647,0,0,1,1,2,2,3,3,4,4,8,8,11,11],"right_children":[2,4,6,8,10,-1,-1,-1,12,-1,-1,14,-1,-1,-1],"split_conditions":[8.751898E-2,9.6177995E-1,3.0363747E-1,4.0873396E-1,4.0618038E-1,2.1554369E-1,4.8419973E-1,-1.1912862E-2,4.0959802E-1,3.4039676E-1,-0E0,1.2121936E0,4.208699E-3,-0E0,4.4125316E-1],"split_indices":[6,30,6,3,3,0,0,0,3,0,0,5,0,0,0],"split_type":[0,0,0,0,0,0,0,0,0,0,0,0,0,0,0],"sum_hessian":[2.158E3,2.114E3,4.4E1,2.109E3,5E0,1.1E1,3.3E1,1.78E3,3.29E2,2E0,3E0,9E0,3.2E2,8E0,1E0],"tree_param":{"num_deleted":"0","num_feature":"32","num_nodes":"15","size_leaf_vector":"1"}},{"base_weights":[2.653606E-3,-3.7235156E-2,1.8752949E0,-3.9389685E-2,6.455268E-1,1.7685293E-1,4.0468562E-1,-0E0,-1.2144433E-2,3.9382643E-1,-0E0],"categories":[],"categories_nodes":[],"categories_segments":[],"categories_sizes":[],"default_left":[0,0,0,0,0,0,0,0,0,0,0],"id":6,"left_children":[1,3,5,7,9,-1,-1,-1,-1,-1,-1],"loss_changes":[1.6248573E2,2.5808227E0,7.860443E0,2.1137884E0,3.7325268E0,0E0,0E0,0E0,0E0,0E0,0E0],"parents":[2147483647,0,0,1,1,2,2,3,3,4,4],"right_children":[2,4,6,8,10,-1,-1,-1,-1,-1,-1],"split_conditions":[1.3421027E-1,9.6177995E-1,3.0363747E-1,1.2983325E-1,1.254388E0,1.7685293E-1,4.0468562E-1,-0E0,-1.2144433E-2,3.9382643E-1,-0E0],"split_indices":[6,30,6,29,5,0,0,0,0,0,0],"split_type":[0,0,0,0,0,0,0,0,0,0,0],"sum_hessian":[2.153E3,2.108E3,4.5E1,2.103E3,5E0,1.1E1,3.4E1,8E2,1.303E3,1E0,4E0],"tree_param":{"num_deleted":"0","num_feature":"32","num_nodes":"11","size_leaf_vector":"1"}},{"base_weights":[8.259279E-4,-3.2448262E-2,1.3872252E0,-9.317128E-3,1.9963717E-3,3.2710096E-1,6.885846E-1,8.400282E-1,-0E0,1.7433345E-1,-0E0],"categories":[],"categories_nodes":[],"categories_segments":[],"categories_sizes":[],"default_left":[0,0,0,0,0,0,0,0,0,0,0],"id":7,"left_children":[1,3,5,-1,-1,-1,7,9,-1,-1,-1],"loss_changes":[1.01093765E2,1.5644236E0,9.739639E0,0E0,0E0,0E0,2.1372442E0,1.3719378E0,0E0,0E0,0E0],"parents":[2147483647,0,0,1,1,2,2,6,6,7,7],"right_children":[2,4,6,-1,-1,-1,8,10,-1,-1,-1],"split_conditions":[9.6177995E-1,1.1499093E0,8.744875E-2,-9.317128E-3,1.9963717E-3,3.2710096E-1,3.1516775E-1,8.5826166E-2,-0E0,1.7433345E-1,-0E0],"split_indices":[30,5,26,0,0,0,3,2,0,0,0],"split_type":[0,0,0,0,0,0,0,0,0,0,0],"sum_hessian":[2.165E3,2.114E3,5.1E1,1.534E3,5.8E2,3.3E1,1.8E1,1.5E1,3E0,1.4E1,1E0],"tree_param":{"num_deleted":"0","num_feature":"32","num_nodes":"11","size_leaf_vector":"1"}},{"base_weights":[2.9176346E-3,-2.3394838E-2,1.1846013E0,-4.944195E-3,2.8560415E-2,1.15725674E-1,2.5784856E-1],"categories":[],"categories_nodes":[],"categories_segments":[],"categories_sizes":[],"default_left":[0,0,0,0,0,0,0],"id":8,"left_children":[1,3,5,-1,-1,-1,-1],"loss_changes":[6.90384E1,9.203236E-1,2.9189682E0,0E0,0E0,0E0,0E0],"parents":[2147483647,0,0,1,1,2,2],"right_children":[2,4,6,-1,-1,-1,-1],"split_conditions":[8.751898E-2,5.549004E-1,3.0363747E-1,-4.944195E-3,2.8560415E-2,1.15725674E-1,2.5784856E-1],"split_indices":[6,3,6,0,0,0,0],"split_type":[0,0,0,0,0,0,0],"sum_hessian":[2.187E3,2.139E3,4.8E1,2.111E3,2.8E1,1.3E1,3.5E1],"tree_param":{"num_deleted":"0","num_feature":"32","num_nodes":"7","size_leaf_vector":"1"}},{"base_weights":[4.6541987E-4,-2.2384558E-2,9.295523E-1,3.4114555E-1,-2.4086757E-2,2.2117239E-1,4.5255706E-1,-0E0,3.8105816E-1,-9.344831E-4,-8.891379E-3,-0E0,1.2095842E-1],"categories":[],"categories_nodes":[],"categories_segments":[],"categories_sizes":[],"default_left":[0,0,0,0,0,0,0,0,0,0,0,0,0],"id":9,"left_children":[1,3,5,7,9,-1,11,-1,-1,-1,-1,-1,-1],"loss_changes":[4.6304485E1,1.0198791E0,4.3827972E0,4.7335033E0,8.698188E-1,0E0,1.09692E0,0E0,0E0,0E0,0E0,0E0,0E0],"parents":[2147483647,0,0,1,1,2,2,3,3,4,4,6,6],"right_children":[2,4,6,8,10,-1,12,-1,-1,-1,-1,-1,-1],"split_conditions":[9.6177995E-1,4.1338973E-2,8.744875E-2,1.2020403E0,6.0726646E-2,2.2117239E-1,2.5928962E-1,-0E0,3.8105816E-1,-9.344831E-4,-8.891379E-3,-0E0,1.2095842E-1],"split_indices":[30,26,26,5,20,0,22,0,0,0,0,0,0],"split_type":[0,0,0,0,0,0,0,0,0,0,0,0,0],"sum_hessian":[2.143E3,2.091E3,5.2E1,7E0,2.084E3,3.3E1,1.9E1,6E0,1E0,1.157E3,9.27E2,7E0,1.2E1],"tree_param":{"num_deleted":"0","num_feature":"32","num_nodes":"13","size_leaf_vector":"1"}},{"base_weights":[1.8017088E-3,-3.063492E-3,7.3407066E-1,1.7961863E-1,3.5318023E-1,4.6197838E-1,-0E0,1.0036778E-1,-0E0],"categories":[],"categories_nodes":[],"categories_segments":[],"categories_sizes":[],"default_left":[0,0,0,0,0,0,0,0,0],"id":10,"left_children":[1,-1,3,-1,5,7,-1,-1,-1],"loss_changes":[2.9312687E1,0E0,3.1234417E0,0E0,8.287337E-1,8.378308E-1,0E0,0E0,0E0],"parents":[2147483647,0,0,2,2,4,4,5,5],"right_children":[2,-1,4,-1,6,8,-1,-1,-1],"split_conditions":[1.2623405E0,-3.063492E-3,8.744875E-2,1.7961863E-1,3.1516775E-1,8.5826166E-2,-0E0,1.0036778E-1,-0E0],"split_indices":[24,0,26,0,3,2,0,0,0],"split_type":[0,0,0,0,0,0,0,0,0],"sum_hessian":[2.175E3,2.122E3,5.3E1,3.2E1,2.1E1,1.6E1,5E0,1.5E1,1E0],"tree_param":{"num_deleted":"0","num_feature":"32","num_nodes":"9","size_leaf_vector":"1"}},{"base_weights":[3.955997E-4,-2.7567423E-3,6.366566E-1,1.2880957E-1,-0E0],"categories":[],"categories_nodes":[],"categories_segments":[],"categories_sizes":[],"default_left":[0,0,0,0,0],"id":11,"left_children":[1,-1,3,-1,-1],"loss_changes":[2.1275877E1,0E0,1.6282005E0,0E0,0E0],"parents":[2147483647,0,0,2,2],"right_children":[2,-1,4,-1,-1],"split_conditions":[9.6177995E-1,-2.7567423E-3,4.0618038E-1,1.2880957E-1,-0E0],"split_indices":[30,0,3,0,0],"split_type":[0,0,0,0,0],"sum_hessian":[2.175E3,2.124E3,5.1E1,4.8E1,3E0],"tree_param":{"num_deleted":"0","num_feature":"32","num_nodes":"5","size_leaf_vector":"1"}},{"base_weights":[4.0132308E-4,-1.0894895E-2,4.932257E-1,-1.0687285E-3,-8.479376E-2,1.21851325E-1,3.6602434E-2,-5.4087967E-1,-2.064075E-3,-0E0,-1.3671583E0,-0E0,-3.084335E-1],"categories":[],"categories_nodes":[],"categories_segments":[],"categories_sizes":[],"default_left":[0,0,0,0,0,0,0,0,0,0,0,0,0],"id":12,"left_children":[1,3,5,-1,7,-1,-1,9,-1,-1,11,-1,-1],"loss_changes":[1.2506561E1,7.421551E-1,1.5027943E0,0E0,3.87432E0,0E0,0E0,7.127851E0,0E0,0E0,2.389124E0,0E0,0E0],"parents":[2147483647,0,0,1,1,2,2,4,4,7,7,10,10],"right_children":[2,4,6,-1,8,-1,-1,10,-1,-1,12,-1,-1],"split_conditions":[9.6177995E-1,1.8689275E-2,8.744875E-2,-1.0687285E-3,1.4640224E-1,1.21851325E-1,3.6602434E-2,3.3143246E-1,-2.064075E-3,-0E0,8.8231444E-2,-0E0,-3.084335E-1],"split_indices":[30,4,26,0,11,0,0,3,0,0,26,0,0],"split_type":[0,0,0,0,0,0,0,0,0,0,0,0,0],"sum_hessian":[2.17E3,2.12E3,5E1,1.991E3,1.29E2,3.1E1,1.9E1,1.6E1,1.13E2,1E1,6E0,1E0,5E0],"tree_param":{"num_deleted":"0","num_feature":"32","num_nodes":"13","size_leaf_vector":"1"}},{"base_weights":[-0E0,-1.7317482E-3,7.901148E-2],"categories":[],"categories_nodes":[],"categories_segments":[],"categories_sizes":[],"default_left":[0,0,0],"id":13,"left_children":[1,-1,-1],"loss_changes":[8.449672E0,0E0,0E0],"parents":[2147483647,0,0],"right_children":[2,-1,-1],"split_conditions":[9.6177995E-1,-1.7317482E-3,7.901148E-2],"split_indices":[30,0,0],"split_type":[0,0,0],"sum_hessian":[2.148E3,2.101E3,4.7E1],"tree_param":{"num_deleted":"0","num_feature":"32","num_nodes":"3","size_leaf_vector":"1"}},{"base_weights":[8.1459054E-4,-1.4576546E-3,6.7184344E-2],"categories":[],"categories_nodes":[],"categories_segments":[],"categories_sizes":[],"default_left":[0,0,0],"id":14,"left_children":[1,-1,-1],"loss_changes":[6.863883E0,0E0,0E0],"parents":[2147483647,0,0],"right_children":[2,-1,-1],"split_conditions":[9.6177995E-1,-1.4576546E-3,6.7184344E-2],"split_indices":[30,0,0],"split_type":[0,0,0],"sum_hessian":[2.17E3,2.117E3,5.3E1],"tree_param":{"num_deleted":"0","num_feature":"32","num_nodes":"3","size_leaf_vector":"1"}},{"base_weights":[-1.6409076E-4,3.0626827E-1,-1.1800979E-3,-0E0,4.0935588E-1,3.3010942E-1,5.954027E-2],"categories":[],"categories_nodes":[],"categories_segments":[],"categories_sizes":[],"default_left":[0,0,0,0,0,0,0],"id":15,"left_children":[1,3,-1,-1,5,-1,-1],"loss_changes":[3.7764409E0,1.5643206E0,0E0,0E0,1.9510822E0,0E0,0E0],"parents":[2147483647,0,0,1,1,4,4],"right_children":[2,4,-1,-1,6,-1,-1],"split_conditions":[4.1338973E-2,2.6959875E-1,-1.1800979E-3,-0E0,8.5826166E-2,3.3010942E-1,5.954027E-2],"split_indices":[26,10,0,0,2,0,0],"split_type":[0,0,0,0,0,0,0],"sum_hessian":[2.168E3,3.9E1,2.129E3,8E0,3.1E1,1E0,3E1],"tree_param":{"num_deleted":"0","num_feature":"32","num_nodes":"7","size_leaf_vector":"1"}},{"base_weights":[-0E0,2.6831257E-1,-9.5389E-4,2.019368E-1,2.8477356E-1,5.2195862E-2,-0E0],"categories":[],"categories_nodes":[],"categories_segments":[],"categories_sizes":[],"default_left":[0,0,0,0,0,0,0],"id":16,"left_children":[1,3,-1,5,-1,-1,-1],"loss_changes":[3.0330532E0,1.790813E0,0E0,8.2091916E-1,0E0,0E0,0E0],"parents":[2147483647,0,0,1,1,3,3],"right_children":[2,4,-1,6,-1,-1,-1],"split_conditions":[4.1338973E-2,4.6257234E-1,-9.5389E-4,3.1516775E-1,2.8477356E-1,5.2195862E-2,-0E0],"split_indices":[26,28,0,3,0,0,0],"split_type":[0,0,0,0,0,0,0],"sum_hessian":[2.173E3,4.1E1,2.132E3,4E1,1E0,3.2E1,8E0],"tree_param":{"num_deleted":"0","num_feature":"32","num_nodes":"7","size_leaf_vector":"1"}},{"base_weights":[6.057888E-4,-1.2764133E-3,1.4698751E-1,2.722227E-1,1.8332541E-3,3.5234198E-2,6.9123536E-1,3.1977555E-1,7.1935537E-3],"categories":[],"categories_nodes":[],"categories_segments":[],"categories_sizes":[],"default_left":[0,0,0,0,0,0,0,0,0],"id":17,"left_children":[1,-1,3,5,-1,-1,7,-1,-1],"loss_changes":[2.4785976E0,0E0,1.650173E0,1.1402974E0,0E0,0E0,3.2815487E0,0E0,0E0],"parents":[2147483647,0,0,2,2,3,3,6,6],"right_children":[2,-1,4,6,-1,-1,8,-1,-1],"split_conditions":[2.4051933E-1,-1.2764133E-3,1.2677408E0,1.1391298E0,1.8332541E-3,3.5234198E-2,4.0959802E-1,3.1977555E-1,7.1935537E-3],"split_indices":[30,0,5,5,0,0,3,0,0],"split_type":[0,0,0,0,0,0,0,0,0],"sum_hessian":[2.187E3,2.077E3,1.1E2,5.4E1,5.6E1,4.7E1,7E0,2E0,5E0],"tree_param":{"num_deleted":"0","num_feature":"32","num_nodes":"9","size_leaf_vector":"1"}},{"base_weights":[1.6618216E-3,-9.081902E-4,1.2571177E-1,4.4017952E-2,1.3984606E-2,-1.2565088E-2,3.032524E-2],"categories":[],"categories_nodes":[],"categories_segments":[],"categories_sizes":[],"default_left":[0,0,0,0,0,0,0],"id":18,"left_children":[1,-1,3,-1,5,-1,-1],"loss_changes":[1.8490595E0,0E0,1.1514683E0,0E0,7.9723305E-1,0E0,0E0],"parents":[2147483647,0,0,2,2,4,4],"right_children":[2,-1,4,-1,6,-1,-1],"split_conditions":[2.348825E-1,-9.081902E-4,1.2677408E0,4.4017952E-2,5.549004E-1,-1.2565088E-2,3.032524E-2],"split_indices":[30,0,5,0,3,0,0],"split_type":[0,0,0,0,0,0,0],"sum_hessian":[2.173E3,2.059E3,1.14E2,5.4E1,6E1,3.5E1,2.5E1],"tree_param":{"num_deleted":"0","num_feature":"32","num_nodes":"7","size_leaf_vector":"1"}},{"base_weights":[-0E0,-1.0160777E-3,9.498574E-2,3.4405127E-2,-0E0],"categories":[],"categories_nodes":[],"categories_segments":[],"categories_sizes":[],"default_left":[0,0,0,0,0],"id":19,"left_children":[1,-1,3,-1,-1],"loss_changes":[1.0818142E0,0E0,8.107116E-1,0E0,0E0],"parents":[2147483647,0,0,2,2],"right_children":[2,-1,4,-1,-1],"split_conditions":[2.7953973E-1,-1.0160777E-3,8.744875E-2,3.4405127E-2,-0E0],"split_indices":[10,0,26,0,0],"split_type":[0,0,0,0,0],"sum_hessian":[2.152E3,2.039E3,1.13E2,5.5E1,5.8E1],"tree_param":{"num_deleted":"0","num_feature":"32","num_nodes":"5","size_leaf_vector":"1"}},{"base_weights":[7.499605E-4,-2.0116789E-3,6.598492E-3],"categories":[],"categories_nodes":[],"categories_segments":[],"categories_sizes":[],"default_left":[0,0,0],"id":20,"left_children":[1,-1,-1],"loss_changes":[8.627968E-1,0E0,0E0],"parents":[2147483647,0,0],"right_children":[2,-1,-1],"split_conditions":[4.9749205E-1,-2.0116789E-3,6.598492E-3],"split_indices":[24,0,0],"split_type":[0,0,0],"sum_hessian":[2.163E3,1.603E3,5.6E2],"tree_param":{"num_deleted":"0","num_feature":"32","num_nodes":"3","size_leaf_vector":"1"}},{"base_weights":[-0E0],"categories":[],"categories_nodes":[],"categories_segments":[],"categories_sizes":[],"default_left":[0],"id":21,"left_children":[-1],"loss_changes":[0E0],"parents":[2147483647],"right_children":[-1],"split_conditions":[-0E0],"split_indices":[0],"split_type":[0],"sum_hessian":[2.149E3],"tree_param":{"num_deleted":"0","num_feature":"32","num_nodes":"1","size_leaf_vector":"1"}},{"base_weights":[-7.7574083E-4,-7.030839E-4,2.9250037E-2],"categories":[],"categories_nodes":[],"categories_segments":[],"categories_sizes":[],"default_left":[0,0,0],"id":22,"left_children":[1,-1,-1],"loss_changes":[8.5065734E-1,0E0,0E0],"parents":[2147483647,0,0],"right_children":[2,-1,-1],"split_conditions":[3.0363747E-1,-7.030839E-4,2.9250037E-2],"split_indices":[6,0,0],"split_type":[0,0,0],"sum_hessian":[2.147E3,2.113E3,3.4E1],"tree_param":{"num_deleted":"0","num_feature":"32","num_nodes":"3","size_leaf_vector":"1"}},{"base_weights":[4.384275E-4],"categories":[],"categories_nodes":[],"categories_segments":[],"categories_sizes":[],"default_left":[0],"id":23,"left_children":[-1],"loss_changes":[0E0],"parents":[2147483647],"right_children":[-1],"split_conditions":[8.289509E-5],"split_indices":[0],"split_type":[0],"sum_hessian":[2.159E3],"tree_param":{"num_deleted":"0","num_feature":"32","num_nodes":"1","size_leaf_vector":"1"}},{"base_weights":[-2.137764E-4],"categories":[],"categories_nodes":[],"categories_segments":[],"categories_sizes":[],"default_left":[0],"id":24,"left_children":[-1],"loss_changes":[0E0],"parents":[2147483647],"right_children":[-1],"split_conditions":[-4.0419483E-5],"split_indices":[0],"split_type":[0],"sum_hessian":[2.175E3],"tree_param":{"num_deleted":"0","num_feature":"32","num_nodes":"1","size_leaf_vector":"1"}},{"base_weights":[3.5755814E-4],"categories":[],"categories_nodes":[],"categories_segments":[],"categories_sizes":[],"default_left":[0],"id":25,"left_children":[-1],"loss_changes":[0E0],"parents":[2147483647],"right_children":[-1],"split_conditions":[6.760482E-5],"split_indices":[0],"split_type":[0],"sum_hessian":[2.169E3],"tree_param":{"num_deleted":"0","num_feature":"32","num_nodes":"1","size_leaf_vector":"1"}},{"base_weights":[-1.0837372E-4],"categories":[],"categories_nodes":[],"categories_segments":[],"categories_sizes":[],"default_left":[0],"id":26,"left_children":[-1],"loss_changes":[0E0],"parents":[2147483647],"right_children":[-1],"split_conditions":[-2.0490615E-5],"split_indices":[0],"split_type":[0],"sum_hessian":[2.136E3],"tree_param":{"num_deleted":"0","num_feature":"32","num_nodes":"1","size_leaf_vector":"1"}},{"base_weights":[1.3870831E-3],"categories":[],"categories_nodes":[],"categories_segments":[],"categories_sizes":[],"default_left":[0],"id":27,"left_children":[-1],"loss_changes":[0E0],"parents":[2147483647],"right_children":[-1],"split_conditions":[2.6226087E-4],"split_indices":[0],"split_type":[0],"sum_hessian":[2.16E3],"tree_param":{"num_deleted":"0","num_feature":"32","num_nodes":"1","size_leaf_vector":"1"}},{"base_weights":[-1.7068515E-3],"categories":[],"categories_nodes":[],"categories_segments":[],"categories_sizes":[],"default_left":[0],"id":28,"left_children":[-1],"loss_changes":[0E0],"parents":[2147483647],"right_children":[-1],"split_conditions":[-3.2272065E-4],"split_indices":[0],"split_type":[0],"sum_hessian":[2.168E3],"tree_param":{"num_deleted":"0","num_feature":"32","num_nodes":"1","size_leaf_vector":"1"}},{"base_weights":[1.1788128E-3],"categories":[],"categories_nodes":[],"categories_segments":[],"categories_sizes":[],"default_left":[0],"id":29,"left_children":[-1],"loss_changes":[0E0],"parents":[2147483647],"right_children":[-1],"split_conditions":[2.2288245E-4],"split_indices":[0],"split_type":[0],"sum_hessian":[2.155E3],"tree_param":{"num_deleted":"0","num_feature":"32","num_nodes":"1","size_leaf_vector":"1"}},{"base_weights":[-0E0],"categories":[],"categories_nodes":[],"categories_segments":[],"categories_sizes":[],"default_left":[0],"id":30,"left_children":[-1],"loss_changes":[0E0],"parents":[2147483647],"right_children":[-1],"split_conditions":[-0E0],"split_indices":[0],"split_type":[0],"sum_hessian":[2.156E3],"tree_param":{"num_deleted":"0","num_feature":"32","num_nodes":"1","size_leaf_vector":"1"}},{"base_weights":[-4.667158E-4],"categories":[],"categories_nodes":[],"categories_segments":[],"categories_sizes":[],"default_left":[0],"id":31,"left_children":[-1],"loss_changes":[0E0],"parents":[2147483647],"right_children":[-1],"split_conditions":[-8.8243665E-5],"split_indices":[0],"split_type":[0],"sum_hessian":[2.146E3],"tree_param":{"num_deleted":"0","num_feature":"32","num_nodes":"1","size_leaf_vector":"1"}},{"base_weights":[-0E0],"categories":[],"categories_nodes":[],"categories_segments":[],"categories_sizes":[],"default_left":[0],"id":32,"left_children":[-1],"loss_changes":[0E0],"parents":[2147483647],"right_children":[-1],"split_conditions":[-0E0],"split_indices":[0],"split_type":[0],"sum_hessian":[2.193E3],"tree_param":{"num_deleted":"0","num_feature":"32","num_nodes":"1","size_leaf_vector":"1"}},{"base_weights":[-1.2417583E-3],"categories":[],"categories_nodes":[],"categories_segments":[],"categories_sizes":[],"default_left":[0],"id":33,"left_children":[-1],"loss_changes":[0E0],"parents":[2147483647],"right_children":[-1],"split_conditions":[-2.3478379E-4],"split_indices":[0],"split_type":[0],"sum_hessian":[2.157E3],"tree_param":{"num_deleted":"0","num_feature":"32","num_nodes":"1","size_leaf_vector":"1"}},{"base_weights":[-0E0],"categories":[],"categories_nodes":[],"categories_segments":[],"categories_sizes":[],"default_left":[0],"id":34,"left_children":[-1],"loss_changes":[0E0],"parents":[2147483647],"right_children":[-1],"split_conditions":[-0E0],"split_indices":[0],"split_type":[0],"sum_hessian":[2.156E3],"tree_param":{"num_deleted":"0","num_feature":"32","num_nodes":"1","size_leaf_vector":"1"}},{"base_weights":[1.7949824E-3],"categories":[],"categories_nodes":[],"categories_segments":[],"categories_sizes":[],"default_left":[0],"id":35,"left_children":[-1],"loss_changes":[0E0],"parents":[2147483647],"right_children":[-1],"split_conditions":[3.3938387E-4],"split_indices":[0],"split_type":[0],"sum_hessian":[2.164E3],"tree_param":{"num_deleted":"0","num_feature":"32","num_nodes":"1","size_leaf_vector":"1"}},{"base_weights":[-1.7821822E-4],"categories":[],"categories_nodes":[],"categories_segments":[],"categories_sizes":[],"default_left":[0],"id":36,"left_children":[-1],"loss_changes":[0E0],"parents":[2147483647],"right_children":[-1],"split_conditions":[-3.369637E-5],"split_indices":[0],"split_type":[0],"sum_hessian":[2.166E3],"tree_param":{"num_deleted":"0","num_feature":"32","num_nodes":"1","size_leaf_vector":"1"}},{"base_weights":[-2.9540647E-4],"categories":[],"categories_nodes":[],"categories_segments":[],"categories_sizes":[],"default_left":[0],"id":37,"left_children":[-1],"loss_changes":[0E0],"parents":[2147483647],"right_children":[-1],"split_conditions":[-5.585358E-5],"split_indices":[0],"split_type":[0],"sum_hessian":[2.167E3],"tree_param":{"num_deleted":"0","num_feature":"32","num_nodes":"1","size_leaf_vector":"1"}},{"base_weights":[-4.0568866E-5],"categories":[],"categories_nodes":[],"categories_segments":[],"categories_sizes":[],"default_left":[0],"id":38,"left_children":[-1],"loss_changes":[0E0],"parents":[2147483647],"right_children":[-1],"split_conditions":[-7.670504E-6],"split_indices":[0],"split_type":[0],"sum_hessian":[2.172E3],"tree_param":{"num_deleted":"0","num_feature":"32","num_nodes":"1","size_leaf_vector":"1"}},{"base_weights":[-0E0],"categories":[],"categories_nodes":[],"categories_segments":[],"categories_sizes":[],"default_left":[0],"id":39,"left_children":[-1],"loss_changes":[0E0],"parents":[2147483647],"right_children":[-1],"split_conditions":[-0E0],"split_indices":[0],"split_type":[0],"sum_hessian":[2.166E3],"tree_param":{"num_deleted":"0","num_feature":"32","num_nodes":"1","size_leaf_vector":"1"}},{"base_weights":[-0E0],"categories":[],"categories_nodes":[],"categories_segments":[],"categories_sizes":[],"default_left":[0],"id":40,"left_children":[-1],"loss_changes":[0E0],"parents":[2147483647],"right_children":[-1],"split_conditions":[-0E0],"split_indices":[0],"split_type":[0],"sum_hessian":[2.147E3],"tree_param":{"num_deleted":"0","num_feature":"32","num_nodes":"1","size_leaf_vector":"1"}},{"base_weights":[2.897204E-4],"categories":[],"categories_nodes":[],"categories_segments":[],"categories_sizes":[],"default_left":[0],"id":41,"left_children":[-1],"loss_changes":[0E0],"parents":[2147483647],"right_children":[-1],"split_conditions":[5.4778495E-5],"split_indices":[0],"split_type":[0],"sum_hessian":[2.167E3],"tree_param":{"num_deleted":"0","num_feature":"32","num_nodes":"1","size_leaf_vector":"1"}},{"base_weights":[-1.460693E-3],"categories":[],"categories_nodes":[],"categories_segments":[],"categories_sizes":[],"default_left":[0],"id":42,"left_children":[-1],"loss_changes":[0E0],"parents":[2147483647],"right_children":[-1],"split_conditions":[-2.7617856E-4],"split_indices":[0],"split_type":[0],"sum_hessian":[2.16E3],"tree_param":{"num_deleted":"0","num_feature":"32","num_nodes":"1","size_leaf_vector":"1"}},{"base_weights":[1.0607074E-3],"categories":[],"categories_nodes":[],"categories_segments":[],"categories_sizes":[],"default_left":[0],"id":43,"left_children":[-1],"loss_changes":[0E0],"parents":[2147483647],"right_children":[-1],"split_conditions":[2.0055182E-4],"split_indices":[0],"split_type":[0],"sum_hessian":[2.152E3],"tree_param":{"num_deleted":"0","num_feature":"32","num_nodes":"1","size_leaf_vector":"1"}},{"base_weights":[2.850309E-4],"categories":[],"categories_nodes":[],"categories_segments":[],"categories_sizes":[],"default_left":[0],"id":44,"left_children":[-1],"loss_changes":[0E0],"parents":[2147483647],"right_children":[-1],"split_conditions":[5.3891832E-5],"split_indices":[0],"split_type":[0],"sum_hessian":[2.16E3],"tree_param":{"num_deleted":"0","num_feature":"32","num_nodes":"1","size_leaf_vector":"1"}},{"base_weights":[-8.305045E-4],"categories":[],"categories_nodes":[],"categories_segments":[],"categories_sizes":[],"default_left":[0],"id":45,"left_children":[-1],"loss_changes":[0E0],"parents":[2147483647],"right_children":[-1],"split_conditions":[-1.5702652E-4],"split_indices":[0],"split_type":[0],"sum_hessian":[2.162E3],"tree_param":{"num_deleted":"0","num_feature":"32","num_nodes":"1","size_leaf_vector":"1"}},{"base_weights":[-0E0],"categories":[],"categories_nodes":[],"categories_segments":[],"categories_sizes":[],"default_left":[0],"id":46,"left_children":[-1],"loss_changes":[0E0],"parents":[2147483647],"right_children":[-1],"split_conditions":[-0E0],"split_indices":[0],"split_type":[0],"sum_hessian":[2.162E3],"tree_param":{"num_deleted":"0","num_feature":"32","num_nodes":"1","size_leaf_vector":"1"}},{"base_weights":[-0E0],"categories":[],"categories_nodes":[],"categories_segments":[],"categories_sizes":[],"default_left":[0],"id":47,"left_children":[-1],"loss_changes":[0E0],"parents":[2147483647],"right_children":[-1],"split_conditions":[-0E0],"split_indices":[0],"split_type":[0],"sum_hessian":[2.198E3],"tree_param":{"num_deleted":"0","num_feature":"32","num_nodes":"1","size_leaf_vector":"1"}},{"base_weights":[-7.144802E-6],"categories":[],"categories_nodes":[],"categories_segments":[],"categories_sizes":[],"default_left":[0],"id":48,"left_children":[-1],"loss_changes":[0E0],"parents":[2147483647],"right_children":[-1],"split_conditions":[-1.3508939E-6],"split_indices":[0],"split_type":[0],"sum_hessian":[2.162E3],"tree_param":{"num_deleted":"0","num_feature":"32","num_nodes":"1","size_leaf_vector":"1"}},{"base_weights":[-2.4075968E-4],"categories":[],"categories_nodes":[],"categories_segments":[],"categories_sizes":[],"default_left":[0],"id":49,"left_children":[-1],"loss_changes":[0E0],"parents":[2147483647],"right_children":[-1],"split_conditions":[-4.5521312E-5],"split_indices":[0],"split_type":[0],"sum_hessian":[2.175E3],"tree_param":{"num_deleted":"0","num_feature":"32","num_nodes":"1","size_leaf_vector":"1"}},{"base_weights":[3.913771E-4],"categories":[],"categories_nodes":[],"categories_segments":[],"categories_sizes":[],"default_left":[0],"id":50,"left_children":[-1],"loss_changes":[0E0],"parents":[2147483647],"right_children":[-1],"split_conditions":[7.39991E-5],"split_indices":[0],"split_type":[0],"sum_hessian":[2.155E3],"tree_param":{"num_deleted":"0","num_feature":"32","num_nodes":"1","size_leaf_vector":"1"}},{"base_weights":[2.11244E-3],"categories":[],"categories_nodes":[],"categories_segments":[],"categories_sizes":[],"default_left":[0],"id":51,"left_children":[-1],"loss_changes":[0E0],"parents":[2147483647],"right_children":[-1],"split_conditions":[3.9940677E-4],"split_indices":[0],"split_type":[0],"sum_hessian":[2.185E3],"tree_param":{"num_deleted":"0","num_feature":"32","num_nodes":"1","size_leaf_vector":"1"}},{"base_weights":[2.7183734E-4],"categories":[],"categories_nodes":[],"categories_segments":[],"categories_sizes":[],"default_left":[0],"id":52,"left_children":[-1],"loss_changes":[0E0],"parents":[2147483647],"right_children":[-1],"split_conditions":[5.139728E-5],"split_indices":[0],"split_type":[0],"sum_hessian":[2.182E3],"tree_param":{"num_deleted":"0","num_feature":"32","num_nodes":"1","size_leaf_vector":"1"}},{"base_weights":[-6.1955437E-4],"categories":[],"categories_nodes":[],"categories_segments":[],"categories_sizes":[],"default_left":[0],"id":53,"left_children":[-1],"loss_changes":[0E0],"parents":[2147483647],"right_children":[-1],"split_conditions":[-1.17141404E-4],"split_indices":[0],"split_type":[0],"sum_hessian":[2.179E3],"tree_param":{"num_deleted":"0","num_feature":"32","num_nodes":"1","size_leaf_vector":"1"}},{"base_weights":[-1.779167E-3],"categories":[],"categories_nodes":[],"categories_segments":[],"categories_sizes":[],"default_left":[0],"id":54,"left_children":[-1],"loss_changes":[0E0],"parents":[2147483647],"right_children":[-1],"split_conditions":[-3.363936E-4],"split_indices":[0],"split_type":[0],"sum_hessian":[2.155E3],"tree_param":{"num_deleted":"0","num_feature":"32","num_nodes":"1","size_leaf_vector":"1"}},{"base_weights":[-7.955895E-5],"categories":[],"categories_nodes":[],"categories_segments":[],"categories_sizes":[],"default_left":[0],"id":55,"left_children":[-1],"loss_changes":[0E0],"parents":[2147483647],"right_children":[-1],"split_conditions":[-1.5042501E-5],"split_indices":[0],"split_type":[0],"sum_hessian":[2.161E3],"tree_param":{"num_deleted":"0","num_feature":"32","num_nodes":"1","size_leaf_vector":"1"}},{"base_weights":[-0E0],"categories":[],"categories_nodes":[],"categories_segments":[],"categories_sizes":[],"default_left":[0],"id":56,"left_children":[-1],"loss_changes":[0E0],"parents":[2147483647],"right_children":[-1],"split_conditions":[-0E0],"split_indices":[0],"split_type":[0],"sum_hessian":[2.152E3],"tree_param":{"num_deleted":"0","num_feature":"32","num_nodes":"1","size_leaf_vector":"1"}},{"base_weights":[-2.3295326E-4],"categories":[],"categories_nodes":[],"categories_segments":[],"categories_sizes":[],"default_left":[0],"id":57,"left_children":[-1],"loss_changes":[0E0],"parents":[2147483647],"right_children":[-1],"split_conditions":[-4.4045322E-5],"split_indices":[0],"split_type":[0],"sum_hessian":[2.145E3],"tree_param":{"num_deleted":"0","num_feature":"32","num_nodes":"1","size_leaf_vector":"1"}},{"base_weights":[1.5310929E-3],"categories":[],"categories_nodes":[],"categories_segments":[],"categories_sizes":[],"default_left":[0],"id":58,"left_children":[-1],"loss_changes":[0E0],"parents":[2147483647],"right_children":[-1],"split_conditions":[2.8948934E-4],"split_indices":[0],"split_type":[0],"sum_hessian":[2.148E3],"tree_param":{"num_deleted":"0","num_feature":"32","num_nodes":"1","size_leaf_vector":"1"}},{"base_weights":[-5.4856593E-4],"categories":[],"categories_nodes":[],"categories_segments":[],"categories_sizes":[],"default_left":[0],"id":59,"left_children":[-1],"loss_changes":[0E0],"parents":[2147483647],"right_children":[-1],"split_conditions":[-1.03719365E-4],"split_indices":[0],"split_type":[0],"sum_hessian":[2.189E3],"tree_param":{"num_deleted":"0","num_feature":"32","num_nodes":"1","size_leaf_vector":"1"}},{"base_weights":[1.2588322E-4],"categories":[],"categories_nodes":[],"categories_segments":[],"categories_sizes":[],"default_left":[0],"id":60,"left_children":[-1],"loss_changes":[0E0],"parents":[2147483647],"right_children":[-1],"split_conditions":[2.38012E-5],"split_indices":[0],"split_type":[0],"sum_hessian":[2.18E3],"tree_param":{"num_deleted":"0","num_feature":"32","num_nodes":"1","size_leaf_vector":"1"}},{"base_weights":[1.1219555E-3],"categories":[],"categories_nodes":[],"categories_segments":[],"categories_sizes":[],"default_left":[0],"id":61,"left_children":[-1],"loss_changes":[0E0],"parents":[2147483647],"right_children":[-1],"split_conditions":[2.1213222E-4],"split_indices":[0],"split_type":[0],"sum_hessian":[2.161E3],"tree_param":{"num_deleted":"0","num_feature":"32","num_nodes":"1","size_leaf_vector":"1"}},{"base_weights":[-0E0],"categories":[],"categories_nodes":[],"categories_segments":[],"categories_sizes":[],"default_left":[0],"id":62,"left_children":[-1],"loss_changes":[0E0],"parents":[2147483647],"right_children":[-1],"split_conditions":[-0E0],"split_indices":[0],"split_type":[0],"sum_hessian":[2.159E3],"tree_param":{"num_deleted":"0","num_feature":"32","num_nodes":"1","size_leaf_vector":"1"}},{"base_weights":[-2.2329355E-3],"categories":[],"categories_nodes":[],"categories_segments":[],"categories_sizes":[],"default_left":[0],"id":63,"left_children":[-1],"loss_changes":[0E0],"parents":[2147483647],"right_children":[-1],"split_conditions":[-4.2218927E-4],"split_indices":[0],"split_type":[0],"sum_hessian":[2.135E3],"tree_param":{"num_deleted":"0","num_feature":"32","num_nodes":"1","size_leaf_vector":"1"}},{"base_weights":[7.5516524E-4],"categories":[],"categories_nodes":[],"categories_segments":[],"categories_sizes":[],"default_left":[0],"id":64,"left_children":[-1],"loss_changes":[0E0],"parents":[2147483647],"right_children":[-1],"split_conditions":[1.4278185E-4],"split_indices":[0],"split_type":[0],"sum_hessian":[2.131E3],"tree_param":{"num_deleted":"0","num_feature":"32","num_nodes":"1","size_leaf_vector":"1"}},{"base_weights":[7.205192E-4],"categories":[],"categories_nodes":[],"categories_segments":[],"categories_sizes":[],"default_left":[0],"id":65,"left_children":[-1],"loss_changes":[0E0],"parents":[2147483647],"right_children":[-1],"split_conditions":[1.362312E-4],"split_indices":[0],"split_type":[0],"sum_hessian":[2.179E3],"tree_param":{"num_deleted":"0","num_feature":"32","num_nodes":"1","size_leaf_vector":"1"}},{"base_weights":[2.674204E-4],"categories":[],"categories_nodes":[],"categories_segments":[],"categories_sizes":[],"default_left":[0],"id":66,"left_children":[-1],"loss_changes":[0E0],"parents":[2147483647],"right_children":[-1],"split_conditions":[5.056215E-5],"split_indices":[0],"split_type":[0],"sum_hessian":[2.177E3],"tree_param":{"num_deleted":"0","num_feature":"32","num_nodes":"1","size_leaf_vector":"1"}},{"base_weights":[-0E0],"categories":[],"categories_nodes":[],"categories_segments":[],"categories_sizes":[],"default_left":[0],"id":67,"left_children":[-1],"loss_changes":[0E0],"parents":[2147483647],"right_children":[-1],"split_conditions":[-0E0],"split_indices":[0],"split_type":[0],"sum_hessian":[2.163E3],"tree_param":{"num_deleted":"0","num_feature":"32","num_nodes":"1","size_leaf_vector":"1"}},{"base_weights":[1.2625287E-3],"categories":[],"categories_nodes":[],"categories_segments":[],"categories_sizes":[],"default_left":[0],"id":68,"left_children":[-1],"loss_changes":[0E0],"parents":[2147483647],"right_children":[-1],"split_conditions":[2.3871091E-4],"split_indices":[0],"split_type":[0],"sum_hessian":[2.169E3],"tree_param":{"num_deleted":"0","num_feature":"32","num_nodes":"1","size_leaf_vector":"1"}},{"base_weights":[6.281159E-4],"categories":[],"categories_nodes":[],"categories_segments":[],"categories_sizes":[],"default_left":[0],"id":69,"left_children":[-1],"loss_changes":[0E0],"parents":[2147483647],"right_children":[-1],"split_conditions":[1.1876017E-4],"split_indices":[0],"split_type":[0],"sum_hessian":[2.172E3],"tree_param":{"num_deleted":"0","num_feature":"32","num_nodes":"1","size_leaf_vector":"1"}},{"base_weights":[-5.7696603E-4],"categories":[],"categories_nodes":[],"categories_segments":[],"categories_sizes":[],"default_left":[0],"id":70,"left_children":[-1],"loss_changes":[0E0],"parents":[2147483647],"right_children":[-1],"split_conditions":[-1.0908907E-4],"split_indices":[0],"split_type":[0],"sum_hessian":[2.129E3],"tree_param":{"num_deleted":"0","num_feature":"32","num_nodes":"1","size_leaf_vector":"1"}},{"base_weights":[-0E0],"categories":[],"categories_nodes":[],"categories_segments":[],"categories_sizes":[],"default_left":[0],"id":71,"left_children":[-1],"loss_changes":[0E0],"parents":[2147483647],"right_children":[-1],"split_conditions":[-0E0],"split_indices":[0],"split_type":[0],"sum_hessian":[2.156E3],"tree_param":{"num_deleted":"0","num_feature":"32","num_nodes":"1","size_leaf_vector":"1"}},{"base_weights":[-6.044571E-4],"categories":[],"categories_nodes":[],"categories_segments":[],"categories_sizes":[],"default_left":[0],"id":72,"left_children":[-1],"loss_changes":[0E0],"parents":[2147483647],"right_children":[-1],"split_conditions":[-1.14286915E-4],"split_indices":[0],"split_type":[0],"sum_hessian":[2.159E3],"tree_param":{"num_deleted":"0","num_feature":"32","num_nodes":"1","size_leaf_vector":"1"}},{"base_weights":[-0E0],"categories":[],"categories_nodes":[],"categories_segments":[],"categories_sizes":[],"default_left":[0],"id":73,"left_children":[-1],"loss_changes":[0E0],"parents":[2147483647],"right_children":[-1],"split_conditions":[-0E0],"split_indices":[0],"split_type":[0],"sum_hessian":[2.191E3],"tree_param":{"num_deleted":"0","num_feature":"32","num_nodes":"1","size_leaf_vector":"1"}},{"base_weights":[2.8284127E-3],"categories":[],"categories_nodes":[],"categories_segments":[],"categories_sizes":[],"default_left":[0],"id":74,"left_children":[-1],"loss_changes":[0E0],"parents":[2147483647],"right_children":[-1],"split_conditions":[5.3477834E-4],"split_indices":[0],"split_type":[0],"sum_hessian":[2.171E3],"tree_param":{"num_deleted":"0","num_feature":"32","num_nodes":"1","size_leaf_vector":"1"}},{"base_weights":[-2.7474638E-3],"categories":[],"categories_nodes":[],"categories_segments":[],"categories_sizes":[],"default_left":[0],"id":75,"left_children":[-1],"loss_changes":[0E0],"parents":[2147483647],"right_children":[-1],"split_conditions":[-5.19473E-4],"split_indices":[0],"split_type":[0],"sum_hessian":[2.166E3],"tree_param":{"num_deleted":"0","num_feature":"32","num_nodes":"1","size_leaf_vector":"1"}},{"base_weights":[-9.21915E-4],"categories":[],"categories_nodes":[],"categories_segments":[],"categories_sizes":[],"default_left":[0],"id":76,"left_children":[-1],"loss_changes":[0E0],"parents":[2147483647],"right_children":[-1],"split_conditions":[-1.7430984E-4],"split_indices":[0],"split_type":[0],"sum_hessian":[2.181E3],"tree_param":{"num_deleted":"0","num_feature":"32","num_nodes":"1","size_leaf_vector":"1"}},{"base_weights":[4.943138E-4],"categories":[],"categories_nodes":[],"categories_segments":[],"categories_sizes":[],"default_left":[0],"id":77,"left_children":[-1],"loss_changes":[0E0],"parents":[2147483647],"right_children":[-1],"split_conditions":[9.346171E-5],"split_indices":[0],"split_type":[0],"sum_hessian":[2.162E3],"tree_param":{"num_deleted":"0","num_feature":"32","num_nodes":"1","size_leaf_vector":"1"}},{"base_weights":[-6.5856054E-4],"categories":[],"categories_nodes":[],"categories_segments":[],"categories_sizes":[],"default_left":[0],"id":78,"left_children":[-1],"loss_changes":[0E0],"parents":[2147483647],"right_children":[-1],"split_conditions":[-1.2451645E-4],"split_indices":[0],"split_type":[0],"sum_hessian":[2.14E3],"tree_param":{"num_deleted":"0","num_feature":"32","num_nodes":"1","size_leaf_vector":"1"}},{"base_weights":[-3.4272915E-4],"categories":[],"categories_nodes":[],"categories_segments":[],"categories_sizes":[],"default_left":[0],"id":79,"left_children":[-1],"loss_changes":[0E0],"parents":[2147483647],"right_children":[-1],"split_conditions":[-6.4801054E-5],"split_indices":[0],"split_type":[0],"sum_hessian":[2.148E3],"tree_param":{"num_deleted":"0","num_feature":"32","num_nodes":"1","size_leaf_vector":"1"}},{"base_weights":[4.9399876E-4],"categories":[],"categories_nodes":[],"categories_segments":[],"categories_sizes":[],"default_left":[0],"id":80,"left_children":[-1],"loss_changes":[0E0],"parents":[2147483647],"right_children":[-1],"split_conditions":[9.340215E-5],"split_indices":[0],"split_type":[0],"sum_hessian":[2.163E3],"tree_param":{"num_deleted":"0","num_feature":"32","num_nodes":"1","size_leaf_vector":"1"}},{"base_weights":[9.1692235E-4],"categories":[],"categories_nodes":[],"categories_segments":[],"categories_sizes":[],"default_left":[0],"id":81,"left_children":[-1],"loss_changes":[0E0],"parents":[2147483647],"right_children":[-1],"split_conditions":[1.7336586E-4],"split_indices":[0],"split_type":[0],"sum_hessian":[2.182E3],"tree_param":{"num_deleted":"0","num_feature":"32","num_nodes":"1","size_leaf_vector":"1"}},{"base_weights":[-1.4847526E-3],"categories":[],"categories_nodes":[],"categories_segments":[],"categories_sizes":[],"default_left":[0],"id":82,"left_children":[-1],"loss_changes":[0E0],"parents":[2147483647],"right_children":[-1],"split_conditions":[-2.807276E-4],"split_indices":[0],"split_type":[0],"sum_hessian":[2.144E3],"tree_param":{"num_deleted":"0","num_feature":"32","num_nodes":"1","size_leaf_vector":"1"}},{"base_weights":[7.944949E-4],"categories":[],"categories_nodes":[],"categories_segments":[],"categories_sizes":[],"default_left":[0],"id":83,"left_children":[-1],"loss_changes":[0E0],"parents":[2147483647],"right_children":[-1],"split_conditions":[1.5021805E-4],"split_indices":[0],"split_type":[0],"sum_hessian":[2.159E3],"tree_param":{"num_deleted":"0","num_feature":"32","num_nodes":"1","size_leaf_vector":"1"}},{"base_weights":[6.721198E-4],"categories":[],"categories_nodes":[],"categories_segments":[],"categories_sizes":[],"default_left":[0],"id":84,"left_children":[-1],"loss_changes":[0E0],"parents":[2147483647],"right_children":[-1],"split_conditions":[1.2708014E-4],"split_indices":[0],"split_type":[0],"sum_hessian":[2.183E3],"tree_param":{"num_deleted":"0","num_feature":"32","num_nodes":"1","size_leaf_vector":"1"}},{"base_weights":[-0E0],"categories":[],"categories_nodes":[],"categories_segments":[],"categories_sizes":[],"default_left":[0],"id":85,"left_children":[-1],"loss_changes":[0E0],"parents":[2147483647],"right_children":[-1],"split_conditions":[-0E0],"split_indices":[0],"split_type":[0],"sum_hessian":[2.166E3],"tree_param":{"num_deleted":"0","num_feature":"32","num_nodes":"1","size_leaf_vector":"1"}},{"base_weights":[-6.50144E-4],"categories":[],"categories_nodes":[],"categories_segments":[],"categories_sizes":[],"default_left":[0],"id":86,"left_children":[-1],"loss_changes":[0E0],"parents":[2147483647],"right_children":[-1],"split_conditions":[-1.229251E-4],"split_indices":[0],"split_type":[0],"sum_hessian":[2.132E3],"tree_param":{"num_deleted":"0","num_feature":"32","num_nodes":"1","size_leaf_vector":"1"}},{"base_weights":[6.6780875E-4],"categories":[],"categories_nodes":[],"categories_segments":[],"categories_sizes":[],"default_left":[0],"id":87,"left_children":[-1],"loss_changes":[0E0],"parents":[2147483647],"right_children":[-1],"split_conditions":[1.2626503E-4],"split_indices":[0],"split_type":[0],"sum_hessian":[2.17E3],"tree_param":{"num_deleted":"0","num_feature":"32","num_nodes":"1","size_leaf_vector":"1"}},{"base_weights":[-0E0],"categories":[],"categories_nodes":[],"categories_segments":[],"categories_sizes":[],"default_left":[0],"id":88,"left_children":[-1],"loss_changes":[0E0],"parents":[2147483647],"right_children":[-1],"split_conditions":[-0E0],"split_indices":[0],"split_type":[0],"sum_hessian":[2.189E3],"tree_param":{"num_deleted":"0","num_feature":"32","num_nodes":"1","size_leaf_vector":"1"}},{"base_weights":[-0E0],"categories":[],"categories_nodes":[],"categories_segments":[],"categories_sizes":[],"default_left":[0],"id":89,"left_children":[-1],"loss_changes":[0E0],"parents":[2147483647],"right_children":[-1],"split_conditions":[-0E0],"split_indices":[0],"split_type":[0],"sum_hessian":[2.203E3],"tree_param":{"num_deleted":"0","num_feature":"32","num_nodes":"1","size_leaf_vector":"1"}},{"base_weights":[-6.2228955E-4],"categories":[],"categories_nodes":[],"categories_segments":[],"categories_sizes":[],"default_left":[0],"id":90,"left_children":[-1],"loss_changes":[0E0],"parents":[2147483647],"right_children":[-1],"split_conditions":[-1.1765856E-4],"split_indices":[0],"split_type":[0],"sum_hessian":[2.147E3],"tree_param":{"num_deleted":"0","num_feature":"32","num_nodes":"1","size_leaf_vector":"1"}},{"base_weights":[1.2155628E-3],"categories":[],"categories_nodes":[],"categories_segments":[],"categories_sizes":[],"default_left":[0],"id":91,"left_children":[-1],"loss_changes":[0E0],"parents":[2147483647],"right_children":[-1],"split_conditions":[2.298309E-4],"split_indices":[0],"split_type":[0],"sum_hessian":[2.148E3],"tree_param":{"num_deleted":"0","num_feature":"32","num_nodes":"1","size_leaf_vector":"1"}},{"base_weights":[1.6629342E-3],"categories":[],"categories_nodes":[],"categories_segments":[],"categories_sizes":[],"default_left":[0],"id":92,"left_children":[-1],"loss_changes":[0E0],"parents":[2147483647],"right_children":[-1],"split_conditions":[3.1441703E-4],"split_indices":[0],"split_type":[0],"sum_hessian":[2.165E3],"tree_param":{"num_deleted":"0","num_feature":"32","num_nodes":"1","size_leaf_vector":"1"}},{"base_weights":[-0E0],"categories":[],"categories_nodes":[],"categories_segments":[],"categories_sizes":[],"default_left":[0],"id":93,"left_children":[-1],"loss_changes":[0E0],"parents":[2147483647],"right_children":[-1],"split_conditions":[-0E0],"split_indices":[0],"split_type":[0],"sum_hessian":[2.166E3],"tree_param":{"num_deleted":"0","num_feature":"32","num_nodes":"1","size_leaf_vector":"1"}},{"base_weights":[-7.945821E-4],"categories":[],"categories_nodes":[],"categories_segments":[],"categories_sizes":[],"default_left":[0],"id":94,"left_children":[-1],"loss_changes":[0E0],"parents":[2147483647],"right_children":[-1],"split_conditions":[-1.5023454E-4],"split_indices":[0],"split_type":[0],"sum_hessian":[2.168E3],"tree_param":{"num_deleted":"0","num_feature":"32","num_nodes":"1","size_leaf_vector":"1"}},{"base_weights":[-0E0],"categories":[],"categories_nodes":[],"categories_segments":[],"categories_sizes":[],"default_left":[0],"id":95,"left_children":[-1],"loss_changes":[0E0],"parents":[2147483647],"right_children":[-1],"split_conditions":[-0E0],"split_indices":[0],"split_type":[0],"sum_hessian":[2.168E3],"tree_param":{"num_deleted":"0","num_feature":"32","num_nodes":"1","size_leaf_vector":"1"}},{"base_weights":[-0E0],"categories":[],"categories_nodes":[],"categories_segments":[],"categories_sizes":[],"default_left":[0],"id":96,"left_children":[-1],"loss_changes":[0E0],"parents":[2147483647],"right_children":[-1],"split_conditions":[-0E0],"split_indices":[0],"split_type":[0],"sum_hessian":[2.159E3],"tree_param":{"num_deleted":"0","num_feature":"32","num_nodes":"1","size_leaf_vector":"1"}},{"base_weights":[-2.4982714E-4],"categories":[],"categories_nodes":[],"categories_segments":[],"categories_sizes":[],"default_left":[0],"id":97,"left_children":[-1],"loss_changes":[0E0],"parents":[2147483647],"right_children":[-1],"split_conditions":[-4.7235728E-5],"split_indices":[0],"split_type":[0],"sum_hessian":[2.165E3],"tree_param":{"num_deleted":"0","num_feature":"32","num_nodes":"1","size_leaf_vector":"1"}},{"base_weights":[1.3005339E-3],"categories":[],"categories_nodes":[],"categories_segments":[],"categories_sizes":[],"default_left":[0],"id":98,"left_children":[-1],"loss_changes":[0E0],"parents":[2147483647],"right_children":[-1],"split_conditions":[2.458967E-4],"split_indices":[0],"split_type":[0],"sum_hessian":[2.158E3],"tree_param":{"num_deleted":"0","num_feature":"32","num_nodes":"1","size_leaf_vector":"1"}},{"base_weights":[1.4941763E-3],"categories":[],"categories_nodes":[],"categories_segments":[],"categories_sizes":[],"default_left":[0],"id":99,"left_children":[-1],"loss_changes":[0E0],"parents":[2147483647],"right_children":[-1],"split_conditions":[2.8250937E-4],"split_indices":[0],"split_type":[0],"sum_hessian":[2.172E3],"tree_param":{"num_deleted":"0","num_feature":"32","num_nodes":"1","size_leaf_vector":"1"}},{"base_weights":[-4.0481167E-4],"categories":[],"categories_nodes":[],"categories_segments":[],"categories_sizes":[],"default_left":[0],"id":100,"left_children":[-1],"loss_changes":[0E0],"parents":[2147483647],"right_children":[-1],"split_conditions":[-7.653922E-5],"split_indices":[0],"split_type":[0],"sum_hessian":[2.158E3],"tree_param":{"num_deleted":"0","num_feature":"32","num_nodes":"1","size_leaf_vector":"1"}},{"base_weights":[3.977224E-4],"categories":[],"categories_nodes":[],"categories_segments":[],"categories_sizes":[],"default_left":[0],"id":101,"left_children":[-1],"loss_changes":[0E0],"parents":[2147483647],"right_children":[-1],"split_conditions":[7.519883E-5],"split_indices":[0],"split_type":[0],"sum_hessian":[2.15E3],"tree_param":{"num_deleted":"0","num_feature":"32","num_nodes":"1","size_leaf_vector":"1"}},{"base_weights":[-5.534362E-4],"categories":[],"categories_nodes":[],"categories_segments":[],"categories_sizes":[],"default_left":[0],"id":102,"left_children":[-1],"loss_changes":[0E0],"parents":[2147483647],"right_children":[-1],"split_conditions":[-1.0464021E-4],"split_indices":[0],"split_type":[0],"sum_hessian":[2.174E3],"tree_param":{"num_deleted":"0","num_feature":"32","num_nodes":"1","size_leaf_vector":"1"}},{"base_weights":[-0E0],"categories":[],"categories_nodes":[],"categories_segments":[],"categories_sizes":[],"default_left":[0],"id":103,"left_children":[-1],"loss_changes":[0E0],"parents":[2147483647],"right_children":[-1],"split_conditions":[-0E0],"split_indices":[0],"split_type":[0],"sum_hessian":[2.177E3],"tree_param":{"num_deleted":"0","num_feature":"32","num_nodes":"1","size_leaf_vector":"1"}},{"base_weights":[-0E0],"categories":[],"categories_nodes":[],"categories_segments":[],"categories_sizes":[],"default_left":[0],"id":104,"left_children":[-1],"loss_changes":[0E0],"parents":[2147483647],"right_children":[-1],"split_conditions":[-0E0],"split_indices":[0],"split_type":[0],"sum_hessian":[2.143E3],"tree_param":{"num_deleted":"0","num_feature":"32","num_nodes":"1","size_leaf_vector":"1"}},{"base_weights":[-9.337876E-4],"categories":[],"categories_nodes":[],"categories_segments":[],"categories_sizes":[],"default_left":[0],"id":105,"left_children":[-1],"loss_changes":[0E0],"parents":[2147483647],"right_children":[-1],"split_conditions":[-1.7655463E-4],"split_indices":[0],"split_type":[0],"sum_hessian":[2.177E3],"tree_param":{"num_deleted":"0","num_feature":"32","num_nodes":"1","size_leaf_vector":"1"}},{"base_weights":[-2.2827974E-3],"categories":[],"categories_nodes":[],"categories_segments":[],"categories_sizes":[],"default_left":[0],"id":106,"left_children":[-1],"loss_changes":[0E0],"parents":[2147483647],"right_children":[-1],"split_conditions":[-4.3161682E-4],"split_indices":[0],"split_type":[0],"sum_hessian":[2.163E3],"tree_param":{"num_deleted":"0","num_feature":"32","num_nodes":"1","size_leaf_vector":"1"}},{"base_weights":[-7.530405E-4],"categories":[],"categories_nodes":[],"categories_segments":[],"categories_sizes":[],"default_left":[0],"id":107,"left_children":[-1],"loss_changes":[0E0],"parents":[2147483647],"right_children":[-1],"split_conditions":[-1.4238011E-4],"split_indices":[0],"split_type":[0],"sum_hessian":[2.151E3],"tree_param":{"num_deleted":"0","num_feature":"32","num_nodes":"1","size_leaf_vector":"1"}},{"base_weights":[1.2812078E-4],"categories":[],"categories_nodes":[],"categories_segments":[],"categories_sizes":[],"default_left":[0],"id":108,"left_children":[-1],"loss_changes":[0E0],"parents":[2147483647],"right_children":[-1],"split_conditions":[2.4224264E-5],"split_indices":[0],"split_type":[0],"sum_hessian":[2.154E3],"tree_param":{"num_deleted":"0","num_feature":"32","num_nodes":"1","size_leaf_vector":"1"}},{"base_weights":[-0E0],"categories":[],"categories_nodes":[],"categories_segments":[],"categories_sizes":[],"default_left":[0],"id":109,"left_children":[-1],"loss_changes":[0E0],"parents":[2147483647],"right_children":[-1],"split_conditions":[-0E0],"split_indices":[0],"split_type":[0],"sum_hessian":[2.145E3],"tree_param":{"num_deleted":"0","num_feature":"32","num_nodes":"1","size_leaf_vector":"1"}},{"base_weights":[8.3251763E-4],"categories":[],"categories_nodes":[],"categories_segments":[],"categories_sizes":[],"default_left":[0],"id":110,"left_children":[-1],"loss_changes":[0E0],"parents":[2147483647],"right_children":[-1],"split_conditions":[1.5740715E-4],"split_indices":[0],"split_type":[0],"sum_hessian":[2.156E3],"tree_param":{"num_deleted":"0","num_feature":"32","num_nodes":"1","size_leaf_vector":"1"}},{"base_weights":[-9.312993E-4],"categories":[],"categories_nodes":[],"categories_segments":[],"categories_sizes":[],"default_left":[0],"id":111,"left_children":[-1],"loss_changes":[0E0],"parents":[2147483647],"right_children":[-1],"split_conditions":[-1.7608416E-4],"split_indices":[0],"split_type":[0],"sum_hessian":[2.172E3],"tree_param":{"num_deleted":"0","num_feature":"32","num_nodes":"1","size_leaf_vector":"1"}},{"base_weights":[2.0837122E-4],"categories":[],"categories_nodes":[],"categories_segments":[],"categories_sizes":[],"default_left":[0],"id":112,"left_children":[-1],"loss_changes":[0E0],"parents":[2147483647],"right_children":[-1],"split_conditions":[3.9397506E-5],"split_indices":[0],"split_type":[0],"sum_hessian":[2.182E3],"tree_param":{"num_deleted":"0","num_feature":"32","num_nodes":"1","size_leaf_vector":"1"}},{"base_weights":[-0E0],"categories":[],"categories_nodes":[],"categories_segments":[],"categories_sizes":[],"default_left":[0],"id":113,"left_children":[-1],"loss_changes":[0E0],"parents":[2147483647],"right_children":[-1],"split_conditions":[-0E0],"split_indices":[0],"split_type":[0],"sum_hessian":[2.193E3],"tree_param":{"num_deleted":"0","num_feature":"32","num_nodes":"1","size_leaf_vector":"1"}},{"base_weights":[-4.3613816E-4],"categories":[],"categories_nodes":[],"categories_segments":[],"categories_sizes":[],"default_left":[0],"id":114,"left_children":[-1],"loss_changes":[0E0],"parents":[2147483647],"right_children":[-1],"split_conditions":[-8.246223E-5],"split_indices":[0],"split_type":[0],"sum_hessian":[2.161E3],"tree_param":{"num_deleted":"0","num_feature":"32","num_nodes":"1","size_leaf_vector":"1"}},{"base_weights":[-1.0481024E-4],"categories":[],"categories_nodes":[],"categories_segments":[],"categories_sizes":[],"default_left":[0],"id":115,"left_children":[-1],"loss_changes":[0E0],"parents":[2147483647],"right_children":[-1],"split_conditions":[-1.9816855E-5],"split_indices":[0],"split_type":[0],"sum_hessian":[2.181E3],"tree_param":{"num_deleted":"0","num_feature":"32","num_nodes":"1","size_leaf_vector":"1"}},{"base_weights":[4.4834064E-4],"categories":[],"categories_nodes":[],"categories_segments":[],"categories_sizes":[],"default_left":[0],"id":116,"left_children":[-1],"loss_changes":[0E0],"parents":[2147483647],"right_children":[-1],"split_conditions":[8.47694E-5],"split_indices":[0],"split_type":[0],"sum_hessian":[2.18E3],"tree_param":{"num_deleted":"0","num_feature":"32","num_nodes":"1","size_leaf_vector":"1"}},{"base_weights":[1.6198124E-4],"categories":[],"categories_nodes":[],"categories_segments":[],"categories_sizes":[],"default_left":[0],"id":117,"left_children":[-1],"loss_changes":[0E0],"parents":[2147483647],"right_children":[-1],"split_conditions":[3.0626383E-5],"split_indices":[0],"split_type":[0],"sum_hessian":[2.145E3],"tree_param":{"num_deleted":"0","num_feature":"32","num_nodes":"1","size_leaf_vector":"1"}},{"base_weights":[-0E0],"categories":[],"categories_nodes":[],"categories_segments":[],"categories_sizes":[],"default_left":[0],"id":118,"left_children":[-1],"loss_changes":[0E0],"parents":[2147483647],"right_children":[-1],"split_conditions":[-0E0],"split_indices":[0],"split_type":[0],"sum_hessian":[2.154E3],"tree_param":{"num_deleted":"0","num_feature":"32","num_nodes":"1","size_leaf_vector":"1"}},{"base_weights":[-3.7323651E-4],"categories":[],"categories_nodes":[],"categories_segments":[],"categories_sizes":[],"default_left":[0],"id":119,"left_children":[-1],"loss_changes":[0E0],"parents":[2147483647],"right_children":[-1],"split_conditions":[-7.056919E-5],"split_indices":[0],"split_type":[0],"sum_hessian":[2.16E3],"tree_param":{"num_deleted":"0","num_feature":"32","num_nodes":"1","size_leaf_vector":"1"}},{"base_weights":[9.339454E-4],"categories":[],"categories_nodes":[],"categories_segments":[],"categories_sizes":[],"default_left":[0],"id":120,"left_children":[-1],"loss_changes":[0E0],"parents":[2147483647],"right_children":[-1],"split_conditions":[1.7658446E-4],"split_indices":[0],"split_type":[0],"sum_hessian":[2.167E3],"tree_param":{"num_deleted":"0","num_feature":"32","num_nodes":"1","size_leaf_vector":"1"}},{"base_weights":[1.2976931E-3],"categories":[],"categories_nodes":[],"categories_segments":[],"categories_sizes":[],"default_left":[0],"id":121,"left_children":[-1],"loss_changes":[0E0],"parents":[2147483647],"right_children":[-1],"split_conditions":[2.4535958E-4],"split_indices":[0],"split_type":[0],"sum_hessian":[2.159E3],"tree_param":{"num_deleted":"0","num_feature":"32","num_nodes":"1","size_leaf_vector":"1"}},{"base_weights":[-0E0],"categories":[],"categories_nodes":[],"categories_segments":[],"categories_sizes":[],"default_left":[0],"id":122,"left_children":[-1],"loss_changes":[0E0],"parents":[2147483647],"right_children":[-1],"split_conditions":[-0E0],"split_indices":[0],"split_type":[0],"sum_hessian":[2.161E3],"tree_param":{"num_deleted":"0","num_feature":"32","num_nodes":"1","size_leaf_vector":"1"}},{"base_weights":[-9.61128E-4],"categories":[],"categories_nodes":[],"categories_segments":[],"categories_sizes":[],"default_left":[0],"id":123,"left_children":[-1],"loss_changes":[0E0],"parents":[2147483647],"right_children":[-1],"split_conditions":[-1.8172398E-4],"split_indices":[0],"split_type":[0],"sum_hessian":[2.17E3],"tree_param":{"num_deleted":"0","num_feature":"32","num_nodes":"1","size_leaf_vector":"1"}},{"base_weights":[-8.0159266E-4],"categories":[],"categories_nodes":[],"categories_segments":[],"categories_sizes":[],"default_left":[0],"id":124,"left_children":[-1],"loss_changes":[0E0],"parents":[2147483647],"right_children":[-1],"split_conditions":[-1.5156005E-4],"split_indices":[0],"split_type":[0],"sum_hessian":[2.163E3],"tree_param":{"num_deleted":"0","num_feature":"32","num_nodes":"1","size_leaf_vector":"1"}},{"base_weights":[-4.7274362E-4],"categories":[],"categories_nodes":[],"categories_segments":[],"categories_sizes":[],"default_left":[0],"id":125,"left_children":[-1],"loss_changes":[0E0],"parents":[2147483647],"right_children":[-1],"split_conditions":[-8.9383364E-5],"split_indices":[0],"split_type":[0],"sum_hessian":[2.141E3],"tree_param":{"num_deleted":"0","num_feature":"32","num_nodes":"1","size_leaf_vector":"1"}},{"base_weights":[7.410735E-4],"categories":[],"categories_nodes":[],"categories_segments":[],"categories_sizes":[],"default_left":[0],"id":126,"left_children":[-1],"loss_changes":[0E0],"parents":[2147483647],"right_children":[-1],"split_conditions":[1.4011748E-4],"split_indices":[0],"split_type":[0],"sum_hessian":[2.136E3],"tree_param":{"num_deleted":"0","num_feature":"32","num_nodes":"1","size_leaf_vector":"1"}},{"base_weights":[-0E0],"categories":[],"categories_nodes":[],"categories_segments":[],"categories_sizes":[],"default_left":[0],"id":127,"left_children":[-1],"loss_changes":[0E0],"parents":[2147483647],"right_children":[-1],"split_conditions":[-0E0],"split_indices":[0],"split_type":[0],"sum_hessian":[2.15E3],"tree_param":{"num_deleted":"0","num_feature":"32","num_nodes":"1","size_leaf_vector":"1"}},{"base_weights":[-7.2060234E-4],"categories":[],"categories_nodes":[],"categories_segments":[],"categories_sizes":[],"default_left":[0],"id":128,"left_children":[-1],"loss_changes":[0E0],"parents":[2147483647],"right_children":[-1],"split_conditions":[-1.3624692E-4],"split_indices":[0],"split_type":[0],"sum_hessian":[2.145E3],"tree_param":{"num_deleted":"0","num_feature":"32","num_nodes":"1","size_leaf_vector":"1"}},{"base_weights":[-1.4148531E-3],"categories":[],"categories_nodes":[],"categories_segments":[],"categories_sizes":[],"default_left":[0],"id":129,"left_children":[-1],"loss_changes":[0E0],"parents":[2147483647],"right_children":[-1],"split_conditions":[-2.6751144E-4],"split_indices":[0],"split_type":[0],"sum_hessian":[2.171E3],"tree_param":{"num_deleted":"0","num_feature":"32","num_nodes":"1","size_leaf_vector":"1"}},{"base_weights":[-4.7100868E-4],"categories":[],"categories_nodes":[],"categories_segments":[],"categories_sizes":[],"default_left":[0],"id":130,"left_children":[-1],"loss_changes":[0E0],"parents":[2147483647],"right_children":[-1],"split_conditions":[-8.9055335E-5],"split_indices":[0],"split_type":[0],"sum_hessian":[2.173E3],"tree_param":{"num_deleted":"0","num_feature":"32","num_nodes":"1","size_leaf_vector":"1"}},{"base_weights":[-0E0],"categories":[],"categories_nodes":[],"categories_segments":[],"categories_sizes":[],"default_left":[0],"id":131,"left_children":[-1],"loss_changes":[0E0],"parents":[2147483647],"right_children":[-1],"split_conditions":[-0E0],"split_indices":[0],"split_type":[0],"sum_hessian":[2.166E3],"tree_param":{"num_deleted":"0","num_feature":"32","num_nodes":"1","size_leaf_vector":"1"}},{"base_weights":[-0E0],"categories":[],"categories_nodes":[],"categories_segments":[],"categories_sizes":[],"default_left":[0],"id":132,"left_children":[-1],"loss_changes":[0E0],"parents":[2147483647],"right_children":[-1],"split_conditions":[-0E0],"split_indices":[0],"split_type":[0],"sum_hessian":[2.165E3],"tree_param":{"num_deleted":"0","num_feature":"32","num_nodes":"1","size_leaf_vector":"1"}},{"base_weights":[-0E0],"categories":[],"categories_nodes":[],"categories_segments":[],"categories_sizes":[],"default_left":[0],"id":133,"left_children":[-1],"loss_changes":[0E0],"parents":[2147483647],"right_children":[-1],"split_conditions":[-0E0],"split_indices":[0],"split_type":[0],"sum_hessian":[2.169E3],"tree_param":{"num_deleted":"0","num_feature":"32","num_nodes":"1","size_leaf_vector":"1"}},{"base_weights":[-4.5065224E-4],"categories":[],"categories_nodes":[],"categories_segments":[],"categories_sizes":[],"default_left":[0],"id":134,"left_children":[-1],"loss_changes":[0E0],"parents":[2147483647],"right_children":[-1],"split_conditions":[-8.520646E-5],"split_indices":[0],"split_type":[0],"sum_hessian":[2.134E3],"tree_param":{"num_deleted":"0","num_feature":"32","num_nodes":"1","size_leaf_vector":"1"}},{"base_weights":[-0E0],"categories":[],"categories_nodes":[],"categories_segments":[],"categories_sizes":[],"default_left":[0],"id":135,"left_children":[-1],"loss_changes":[0E0],"parents":[2147483647],"right_children":[-1],"split_conditions":[-0E0],"split_indices":[0],"split_type":[0],"sum_hessian":[2.165E3],"tree_param":{"num_deleted":"0","num_feature":"32","num_nodes":"1","size_leaf_vector":"1"}},{"base_weights":[-0E0],"categories":[],"categories_nodes":[],"categories_segments":[],"categories_sizes":[],"default_left":[0],"id":136,"left_children":[-1],"loss_changes":[0E0],"parents":[2147483647],"right_children":[-1],"split_conditions":[-0E0],"split_indices":[0],"split_type":[0],"sum_hessian":[2.185E3],"tree_param":{"num_deleted":"0","num_feature":"32","num_nodes":"1","size_leaf_vector":"1"}},{"base_weights":[1.4970744E-3],"categories":[],"categories_nodes":[],"categories_segments":[],"categories_sizes":[],"default_left":[0],"id":137,"left_children":[-1],"loss_changes":[0E0],"parents":[2147483647],"right_children":[-1],"split_conditions":[2.830573E-4],"split_indices":[0],"split_type":[0],"sum_hessian":[2.162E3],"tree_param":{"num_deleted":"0","num_feature":"32","num_nodes":"1","size_leaf_vector":"1"}},{"base_weights":[-8.2059436E-5],"categories":[],"categories_nodes":[],"categories_segments":[],"categories_sizes":[],"default_left":[0],"id":138,"left_children":[-1],"loss_changes":[0E0],"parents":[2147483647],"right_children":[-1],"split_conditions":[-1.5515277E-5],"split_indices":[0],"split_type":[0],"sum_hessian":[2.167E3],"tree_param":{"num_deleted":"0","num_feature":"32","num_nodes":"1","size_leaf_vector":"1"}},{"base_weights":[2.6531474E-5],"categories":[],"categories_nodes":[],"categories_segments":[],"categories_sizes":[],"default_left":[0],"id":139,"left_children":[-1],"loss_changes":[0E0],"parents":[2147483647],"right_children":[-1],"split_conditions":[5.0164026E-6],"split_indices":[0],"split_type":[0],"sum_hessian":[2.159E3],"tree_param":{"num_deleted":"0","num_feature":"32","num_nodes":"1","size_leaf_vector":"1"}},{"base_weights":[-0E0],"categories":[],"categories_nodes":[],"categories_segments":[],"categories_sizes":[],"default_left":[0],"id":140,"left_children":[-1],"loss_changes":[0E0],"parents":[2147483647],"right_children":[-1],"split_conditions":[-0E0],"split_indices":[0],"split_type":[0],"sum_hessian":[2.146E3],"tree_param":{"num_deleted":"0","num_feature":"32","num_nodes":"1","size_leaf_vector":"1"}},{"base_weights":[1.4637873E-3],"categories":[],"categories_nodes":[],"categories_segments":[],"categories_sizes":[],"default_left":[0],"id":141,"left_children":[-1],"loss_changes":[0E0],"parents":[2147483647],"right_children":[-1],"split_conditions":[2.767636E-4],"split_indices":[0],"split_type":[0],"sum_hessian":[2.178E3],"tree_param":{"num_deleted":"0","num_feature":"32","num_nodes":"1","size_leaf_vector":"1"}},{"base_weights":[-1.3837981E-3],"categories":[],"categories_nodes":[],"categories_segments":[],"categories_sizes":[],"default_left":[0],"id":142,"left_children":[-1],"loss_changes":[0E0],"parents":[2147483647],"right_children":[-1],"split_conditions":[-2.6163977E-4],"split_indices":[0],"split_type":[0],"sum_hessian":[2.178E3],"tree_param":{"num_deleted":"0","num_feature":"32","num_nodes":"1","size_leaf_vector":"1"}},{"base_weights":[-1.4079192E-3],"categories":[],"categories_nodes":[],"categories_segments":[],"categories_sizes":[],"default_left":[0],"id":143,"left_children":[-1],"loss_changes":[0E0],"parents":[2147483647],"right_children":[-1],"split_conditions":[-2.6620043E-4],"split_indices":[0],"split_type":[0],"sum_hessian":[2.15E3],"tree_param":{"num_deleted":"0","num_feature":"32","num_nodes":"1","size_leaf_vector":"1"}},{"base_weights":[-3.5857628E-4],"categories":[],"categories_nodes":[],"categories_segments":[],"categories_sizes":[],"default_left":[0],"id":144,"left_children":[-1],"loss_changes":[0E0],"parents":[2147483647],"right_children":[-1],"split_conditions":[-6.779733E-5],"split_indices":[0],"split_type":[0],"sum_hessian":[2.151E3],"tree_param":{"num_deleted":"0","num_feature":"32","num_nodes":"1","size_leaf_vector":"1"}},{"base_weights":[-0E0],"categories":[],"categories_nodes":[],"categories_segments":[],"categories_sizes":[],"default_left":[0],"id":145,"left_children":[-1],"loss_changes":[0E0],"parents":[2147483647],"right_children":[-1],"split_conditions":[-0E0],"split_indices":[0],"split_type":[0],"sum_hessian":[2.15E3],"tree_param":{"num_deleted":"0","num_feature":"32","num_nodes":"1","size_leaf_vector":"1"}},{"base_weights":[1.1955157E-3],"categories":[],"categories_nodes":[],"categories_segments":[],"categories_sizes":[],"default_left":[0],"id":146,"left_children":[-1],"loss_changes":[0E0],"parents":[2147483647],"right_children":[-1],"split_conditions":[2.2604053E-4],"split_indices":[0],"split_type":[0],"sum_hessian":[2.156E3],"tree_param":{"num_deleted":"0","num_feature":"32","num_nodes":"1","size_leaf_vector":"1"}},{"base_weights":[-0E0],"categories":[],"categories_nodes":[],"categories_segments":[],"categories_sizes":[],"default_left":[0],"id":147,"left_children":[-1],"loss_changes":[0E0],"parents":[2147483647],"right_children":[-1],"split_conditions":[-0E0],"split_indices":[0],"split_type":[0],"sum_hessian":[2.168E3],"tree_param":{"num_deleted":"0","num_feature":"32","num_nodes":"1","size_leaf_vector":"1"}},{"base_weights":[-0E0,-5.99933E-4,2.2618482E-2],"categories":[],"categories_nodes":[],"categories_segments":[],"categories_sizes":[],"default_left":[0,0,0],"id":148,"left_children":[1,-1,-1],"loss_changes":[7.422708E-1,0E0,0E0],"parents":[2147483647,0,0],"right_children":[2,-1,-1],"split_conditions":[1.2623405E0,-5.99933E-4,2.2618482E-2],"split_indices":[24,0,0],"split_type":[0,0,0],"sum_hessian":[2.169E3,2.119E3,5E1],"tree_param":{"num_deleted":"0","num_feature":"32","num_nodes":"3","size_leaf_vector":"1"}},{"base_weights":[-0E0],"categories":[],"categories_nodes":[],"categories_segments":[],"categories_sizes":[],"default_left":[0],"id":149,"left_children":[-1],"loss_changes":[0E0],"parents":[2147483647],"right_children":[-1],"split_conditions":[-0E0],"split_indices":[0],"split_type":[0],"sum_hessian":[2.162E3],"tree_param":{"num_deleted":"0","num_feature":"32","num_nodes":"1","size_leaf_vector":"1"}},{"base_weights":[7.453096E-4],"categories":[],"categories_nodes":[],"categories_segments":[],"categories_sizes":[],"default_left":[0],"id":150,"left_children":[-1],"loss_changes":[0E0],"parents":[2147483647],"right_children":[-1],"split_conditions":[1.409184E-4],"split_indices":[0],"split_type":[0],"sum_hessian":[2.136E3],"tree_param":{"num_deleted":"0","num_feature":"32","num_nodes":"1","size_leaf_vector":"1"}},{"base_weights":[5.7317043E-4],"categories":[],"categories_nodes":[],"categories_segments":[],"categories_sizes":[],"default_left":[0],"id":151,"left_children":[-1],"loss_changes":[0E0],"parents":[2147483647],"right_children":[-1],"split_conditions":[1.0837142E-4],"split_indices":[0],"split_type":[0],"sum_hessian":[2.15E3],"tree_param":{"num_deleted":"0","num_feature":"32","num_nodes":"1","size_leaf_vector":"1"}},{"base_weights":[4.4667767E-4],"categories":[],"categories_nodes":[],"categories_segments":[],"categories_sizes":[],"default_left":[0],"id":152,"left_children":[-1],"loss_changes":[0E0],"parents":[2147483647],"right_children":[-1],"split_conditions":[8.445498E-5],"split_indices":[0],"split_type":[0],"sum_hessian":[2.136E3],"tree_param":{"num_deleted":"0","num_feature":"32","num_nodes":"1","size_leaf_vector":"1"}},{"base_weights":[-0E0],"categories":[],"categories_nodes":[],"categories_segments":[],"categories_sizes":[],"default_left":[0],"id":153,"left_children":[-1],"loss_changes":[0E0],"parents":[2147483647],"right_children":[-1],"split_conditions":[-0E0],"split_indices":[0],"split_type":[0],"sum_hessian":[2.159E3],"tree_param":{"num_deleted":"0","num_feature":"32","num_nodes":"1","size_leaf_vector":"1"}},{"base_weights":[-0E0],"categories":[],"categories_nodes":[],"categories_segments":[],"categories_sizes":[],"default_left":[0],"id":154,"left_children":[-1],"loss_changes":[0E0],"parents":[2147483647],"right_children":[-1],"split_conditions":[-0E0],"split_indices":[0],"split_type":[0],"sum_hessian":[2.173E3],"tree_param":{"num_deleted":"0","num_feature":"32","num_nodes":"1","size_leaf_vector":"1"}},{"base_weights":[1.0283389E-3],"categories":[],"categories_nodes":[],"categories_segments":[],"categories_sizes":[],"default_left":[0],"id":155,"left_children":[-1],"loss_changes":[0E0],"parents":[2147483647],"right_children":[-1],"split_conditions":[1.9443179E-4],"split_indices":[0],"split_type":[0],"sum_hessian":[2.17E3],"tree_param":{"num_deleted":"0","num_feature":"32","num_nodes":"1","size_leaf_vector":"1"}},{"base_weights":[8.4926566E-4],"categories":[],"categories_nodes":[],"categories_segments":[],"categories_sizes":[],"default_left":[0],"id":156,"left_children":[-1],"loss_changes":[0E0],"parents":[2147483647],"right_children":[-1],"split_conditions":[1.6057376E-4],"split_indices":[0],"split_type":[0],"sum_hessian":[2.15E3],"tree_param":{"num_deleted":"0","num_feature":"32","num_nodes":"1","size_leaf_vector":"1"}},{"base_weights":[-6.2634423E-4],"categories":[],"categories_nodes":[],"categories_segments":[],"categories_sizes":[],"default_left":[0],"id":157,"left_children":[-1],"loss_changes":[0E0],"parents":[2147483647],"right_children":[-1],"split_conditions":[-1.1842519E-4],"split_indices":[0],"split_type":[0],"sum_hessian":[2.148E3],"tree_param":{"num_deleted":"0","num_feature":"32","num_nodes":"1","size_leaf_vector":"1"}},{"base_weights":[-1.0736015E-3],"categories":[],"categories_nodes":[],"categories_segments":[],"categories_sizes":[],"default_left":[0],"id":158,"left_children":[-1],"loss_changes":[0E0],"parents":[2147483647],"right_children":[-1],"split_conditions":[-2.0298976E-4],"split_indices":[0],"split_type":[0],"sum_hessian":[2.173E3],"tree_param":{"num_deleted":"0","num_feature":"32","num_nodes":"1","size_leaf_vector":"1"}},{"base_weights":[-0E0],"categories":[],"categories_nodes":[],"categories_segments":[],"categories_sizes":[],"default_left":[0],"id":159,"left_children":[-1],"loss_changes":[0E0],"parents":[2147483647],"right_children":[-1],"split_conditions":[-0E0],"split_indices":[0],"split_type":[0],"sum_hessian":[2.168E3],"tree_param":{"num_deleted":"0","num_feature":"32","num_nodes":"1","size_leaf_vector":"1"}},{"base_weights":[1.82952E-3],"categories":[],"categories_nodes":[],"categories_segments":[],"categories_sizes":[],"default_left":[0],"id":160,"left_children":[-1],"loss_changes":[0E0],"parents":[2147483647],"right_children":[-1],"split_conditions":[3.45914E-4],"split_indices":[0],"split_type":[0],"sum_hessian":[2.192E3],"tree_param":{"num_deleted":"0","num_feature":"32","num_nodes":"1","size_leaf_vector":"1"}},{"base_weights":[8.488771E-5],"categories":[],"categories_nodes":[],"categories_segments":[],"categories_sizes":[],"default_left":[0],"id":161,"left_children":[-1],"loss_changes":[0E0],"parents":[2147483647],"right_children":[-1],"split_conditions":[1.605003E-5],"split_indices":[0],"split_type":[0],"sum_hessian":[2.181E3],"tree_param":{"num_deleted":"0","num_feature":"32","num_nodes":"1","size_leaf_vector":"1"}},{"base_weights":[1.0214334E-3],"categories":[],"categories_nodes":[],"categories_segments":[],"categories_sizes":[],"default_left":[0],"id":162,"left_children":[-1],"loss_changes":[0E0],"parents":[2147483647],"right_children":[-1],"split_conditions":[1.9312614E-4],"split_indices":[0],"split_type":[0],"sum_hessian":[2.16E3],"tree_param":{"num_deleted":"0","num_feature":"32","num_nodes":"1","size_leaf_vector":"1"}},{"base_weights":[-1.1017914E-3],"categories":[],"categories_nodes":[],"categories_segments":[],"categories_sizes":[],"default_left":[0],"id":163,"left_children":[-1],"loss_changes":[0E0],"parents":[2147483647],"right_children":[-1],"split_conditions":[-2.0831972E-4],"split_indices":[0],"split_type":[0],"sum_hessian":[2.182E3],"tree_param":{"num_deleted":"0","num_feature":"32","num_nodes":"1","size_leaf_vector":"1"}},{"base_weights":[-0E0],"categories":[],"categories_nodes":[],"categories_segments":[],"categories_sizes":[],"default_left":[0],"id":164,"left_children":[-1],"loss_changes":[0E0],"parents":[2147483647],"right_children":[-1],"split_conditions":[-0E0],"split_indices":[0],"split_type":[0],"sum_hessian":[2.174E3],"tree_param":{"num_deleted":"0","num_feature":"32","num_nodes":"1","size_leaf_vector":"1"}},{"base_weights":[-7.0083403E-4],"categories":[],"categories_nodes":[],"categories_segments":[],"categories_sizes":[],"default_left":[0],"id":165,"left_children":[-1],"loss_changes":[0E0],"parents":[2147483647],"right_children":[-1],"split_conditions":[-1.3250925E-4],"split_indices":[0],"split_type":[0],"sum_hessian":[2.189E3],"tree_param":{"num_deleted":"0","num_feature":"32","num_nodes":"1","size_leaf_vector":"1"}},{"base_weights":[-1.1374138E-3],"categories":[],"categories_nodes":[],"categories_segments":[],"categories_sizes":[],"default_left":[0],"id":166,"left_children":[-1],"loss_changes":[0E0],"parents":[2147483647],"right_children":[-1],"split_conditions":[-2.1505498E-4],"split_indices":[0],"split_type":[0],"sum_hessian":[2.154E3],"tree_param":{"num_deleted":"0","num_feature":"32","num_nodes":"1","size_leaf_vector":"1"}},{"base_weights":[-0E0],"categories":[],"categories_nodes":[],"categories_segments":[],"categories_sizes":[],"default_left":[0],"id":167,"left_children":[-1],"loss_changes":[0E0],"parents":[2147483647],"right_children":[-1],"split_conditions":[-0E0],"split_indices":[0],"split_type":[0],"sum_hessian":[2.183E3],"tree_param":{"num_deleted":"0","num_feature":"32","num_nodes":"1","size_leaf_vector":"1"}},{"base_weights":[-3.6471072E-4],"categories":[],"categories_nodes":[],"categories_segments":[],"categories_sizes":[],"default_left":[0],"id":168,"left_children":[-1],"loss_changes":[0E0],"parents":[2147483647],"right_children":[-1],"split_conditions":[-6.895719E-5],"split_indices":[0],"split_type":[0],"sum_hessian":[2.169E3],"tree_param":{"num_deleted":"0","num_feature":"32","num_nodes":"1","size_leaf_vector":"1"}},{"base_weights":[-1.8303856E-4],"categories":[],"categories_nodes":[],"categories_segments":[],"categories_sizes":[],"default_left":[0],"id":169,"left_children":[-1],"loss_changes":[0E0],"parents":[2147483647],"right_children":[-1],"split_conditions":[-3.460777E-5],"split_indices":[0],"split_type":[0],"sum_hessian":[2.176E3],"tree_param":{"num_deleted":"0","num_feature":"32","num_nodes":"1","size_leaf_vector":"1"}},{"base_weights":[1.207767E-3],"categories":[],"categories_nodes":[],"categories_segments":[],"categories_sizes":[],"default_left":[0],"id":170,"left_children":[-1],"loss_changes":[0E0],"parents":[2147483647],"right_children":[-1],"split_conditions":[2.2835693E-4],"split_indices":[0],"split_type":[0],"sum_hessian":[2.171E3],"tree_param":{"num_deleted":"0","num_feature":"32","num_nodes":"1","size_leaf_vector":"1"}},{"base_weights":[-5.6886417E-4],"categories":[],"categories_nodes":[],"categories_segments":[],"categories_sizes":[],"default_left":[0],"id":171,"left_children":[-1],"loss_changes":[0E0],"parents":[2147483647],"right_children":[-1],"split_conditions":[-1.0755723E-4],"split_indices":[0],"split_type":[0],"sum_hessian":[2.158E3],"tree_param":{"num_deleted":"0","num_feature":"32","num_nodes":"1","size_leaf_vector":"1"}},{"base_weights":[-0E0],"categories":[],"categories_nodes":[],"categories_segments":[],"categories_sizes":[],"default_left":[0],"id":172,"left_children":[-1],"loss_changes":[0E0],"parents":[2147483647],"right_children":[-1],"split_conditions":[-0E0],"split_indices":[0],"split_type":[0],"sum_hessian":[2.158E3],"tree_param":{"num_deleted":"0","num_feature":"32","num_nodes":"1","size_leaf_vector":"1"}},{"base_weights":[-1.2938686E-4],"categories":[],"categories_nodes":[],"categories_segments":[],"categories_sizes":[],"default_left":[0],"id":173,"left_children":[-1],"loss_changes":[0E0],"parents":[2147483647],"right_children":[-1],"split_conditions":[-2.4463645E-5],"split_indices":[0],"split_type":[0],"sum_hessian":[2.147E3],"tree_param":{"num_deleted":"0","num_feature":"32","num_nodes":"1","size_leaf_vector":"1"}},{"base_weights":[-0E0],"categories":[],"categories_nodes":[],"categories_segments":[],"categories_sizes":[],"default_left":[0],"id":174,"left_children":[-1],"loss_changes":[0E0],"parents":[2147483647],"right_children":[-1],"split_conditions":[-0E0],"split_indices":[0],"split_type":[0],"sum_hessian":[2.161E3],"tree_param":{"num_deleted":"0","num_feature":"32","num_nodes":"1","size_leaf_vector":"1"}},{"base_weights":[-0E0],"categories":[],"categories_nodes":[],"categories_segments":[],"categories_sizes":[],"default_left":[0],"id":175,"left_children":[-1],"loss_changes":[0E0],"parents":[2147483647],"right_children":[-1],"split_conditions":[-0E0],"split_indices":[0],"split_type":[0],"sum_hessian":[2.176E3],"tree_param":{"num_deleted":"0","num_feature":"32","num_nodes":"1","size_leaf_vector":"1"}},{"base_weights":[-4.2154576E-4],"categories":[],"categories_nodes":[],"categories_segments":[],"categories_sizes":[],"default_left":[0],"id":176,"left_children":[-1],"loss_changes":[0E0],"parents":[2147483647],"right_children":[-1],"split_conditions":[-7.97032E-5],"split_indices":[0],"split_type":[0],"sum_hessian":[2.148E3],"tree_param":{"num_deleted":"0","num_feature":"32","num_nodes":"1","size_leaf_vector":"1"}},{"base_weights":[-7.007107E-4],"categories":[],"categories_nodes":[],"categories_segments":[],"categories_sizes":[],"default_left":[0],"id":177,"left_children":[-1],"loss_changes":[0E0],"parents":[2147483647],"right_children":[-1],"split_conditions":[-1.3248593E-4],"split_indices":[0],"split_type":[0],"sum_hessian":[2.162E3],"tree_param":{"num_deleted":"0","num_feature":"32","num_nodes":"1","size_leaf_vector":"1"}},{"base_weights":[-0E0],"categories":[],"categories_nodes":[],"categories_segments":[],"categories_sizes":[],"default_left":[0],"id":178,"left_children":[-1],"loss_changes":[0E0],"parents":[2147483647],"right_children":[-1],"split_conditions":[-0E0],"split_indices":[0],"split_type":[0],"sum_hessian":[2.167E3],"tree_param":{"num_deleted":"0","num_feature":"32","num_nodes":"1","size_leaf_vector":"1"}},{"base_weights":[2.2262852E-3],"categories":[],"categories_nodes":[],"categories_segments":[],"categories_sizes":[],"default_left":[0],"id":179,"left_children":[-1],"loss_changes":[0E0],"parents":[2147483647],"right_children":[-1],"split_conditions":[4.2093187E-4],"split_indices":[0],"split_type":[0],"sum_hessian":[2.162E3],"tree_param":{"num_deleted":"0","num_feature":"32","num_nodes":"1","size_leaf_vector":"1"}},{"base_weights":[5.906211E-4],"categories":[],"categories_nodes":[],"categories_segments":[],"categories_sizes":[],"default_left":[0],"id":180,"left_children":[-1],"loss_changes":[0E0],"parents":[2147483647],"right_children":[-1],"split_conditions":[1.1167089E-4],"split_indices":[0],"split_type":[0],"sum_hessian":[2.162E3],"tree_param":{"num_deleted":"0","num_feature":"32","num_nodes":"1","size_leaf_vector":"1"}},{"base_weights":[-1.7608398E-3],"categories":[],"categories_nodes":[],"categories_segments":[],"categories_sizes":[],"default_left":[0],"id":181,"left_children":[-1],"loss_changes":[0E0],"parents":[2147483647],"right_children":[-1],"split_conditions":[-3.329284E-4],"split_indices":[0],"split_type":[0],"sum_hessian":[2.147E3],"tree_param":{"num_deleted":"0","num_feature":"32","num_nodes":"1","size_leaf_vector":"1"}},{"base_weights":[6.911276E-4],"categories":[],"categories_nodes":[],"categories_segments":[],"categories_sizes":[],"default_left":[0],"id":182,"left_children":[-1],"loss_changes":[0E0],"parents":[2147483647],"right_children":[-1],"split_conditions":[1.3067402E-4],"split_indices":[0],"split_type":[0],"sum_hessian":[2.162E3],"tree_param":{"num_deleted":"0","num_feature":"32","num_nodes":"1","size_leaf_vector":"1"}},{"base_weights":[1.0705385E-4],"categories":[],"categories_nodes":[],"categories_segments":[],"categories_sizes":[],"default_left":[0],"id":183,"left_children":[-1],"loss_changes":[0E0],"parents":[2147483647],"right_children":[-1],"split_conditions":[2.0241063E-5],"split_indices":[0],"split_type":[0],"sum_hessian":[2.151E3],"tree_param":{"num_deleted":"0","num_feature":"32","num_nodes":"1","size_leaf_vector":"1"}},{"base_weights":[-4.7327594E-5],"categories":[],"categories_nodes":[],"categories_segments":[],"categories_sizes":[],"default_left":[0],"id":184,"left_children":[-1],"loss_changes":[0E0],"parents":[2147483647],"right_children":[-1],"split_conditions":[-8.948401E-6],"split_indices":[0],"split_type":[0],"sum_hessian":[2.138E3],"tree_param":{"num_deleted":"0","num_feature":"32","num_nodes":"1","size_leaf_vector":"1"}},{"base_weights":[-0E0],"categories":[],"categories_nodes":[],"categories_segments":[],"categories_sizes":[],"default_left":[0],"id":185,"left_children":[-1],"loss_changes":[0E0],"parents":[2147483647],"right_children":[-1],"split_conditions":[-0E0],"split_indices":[0],"split_type":[0],"sum_hessian":[2.17E3],"tree_param":{"num_deleted":"0","num_feature":"32","num_nodes":"1","size_leaf_vector":"1"}},{"base_weights":[-1.1739911E-3],"categories":[],"categories_nodes":[],"categories_segments":[],"categories_sizes":[],"default_left":[0],"id":186,"left_children":[-1],"loss_changes":[0E0],"parents":[2147483647],"right_children":[-1],"split_conditions":[-2.219708E-4],"split_indices":[0],"split_type":[0],"sum_hessian":[2.177E3],"tree_param":{"num_deleted":"0","num_feature":"32","num_nodes":"1","size_leaf_vector":"1"}},{"base_weights":[5.0216377E-6],"categories":[],"categories_nodes":[],"categories_segments":[],"categories_sizes":[],"default_left":[0],"id":187,"left_children":[-1],"loss_changes":[0E0],"parents":[2147483647],"right_children":[-1],"split_conditions":[9.494594E-7],"split_indices":[0],"split_type":[0],"sum_hessian":[2.162E3],"tree_param":{"num_deleted":"0","num_feature":"32","num_nodes":"1","size_leaf_vector":"1"}},{"base_weights":[-8.5515383E-4],"categories":[],"categories_nodes":[],"categories_segments":[],"categories_sizes":[],"default_left":[0],"id":188,"left_children":[-1],"loss_changes":[0E0],"parents":[2147483647],"right_children":[-1],"split_conditions":[-1.6168706E-4],"split_indices":[0],"split_type":[0],"sum_hessian":[2.182E3],"tree_param":{"num_deleted":"0","num_feature":"32","num_nodes":"1","size_leaf_vector":"1"}},{"base_weights":[-1.4870967E-4],"categories":[],"categories_nodes":[],"categories_segments":[],"categories_sizes":[],"default_left":[0],"id":189,"left_children":[-1],"loss_changes":[0E0],"parents":[2147483647],"right_children":[-1],"split_conditions":[-2.8117081E-5],"split_indices":[0],"split_type":[0],"sum_hessian":[2.151E3],"tree_param":{"num_deleted":"0","num_feature":"32","num_nodes":"1","size_leaf_vector":"1"}},{"base_weights":[1.699093E-3],"categories":[],"categories_nodes":[],"categories_segments":[],"categories_sizes":[],"default_left":[0],"id":190,"left_children":[-1],"loss_changes":[0E0],"parents":[2147483647],"right_children":[-1],"split_conditions":[3.2125373E-4],"split_indices":[0],"split_type":[0],"sum_hessian":[2.144E3],"tree_param":{"num_deleted":"0","num_feature":"32","num_nodes":"1","size_leaf_vector":"1"}},{"base_weights":[8.176291E-4],"categories":[],"categories_nodes":[],"categories_segments":[],"categories_sizes":[],"default_left":[0],"id":191,"left_children":[-1],"loss_changes":[0E0],"parents":[2147483647],"right_children":[-1],"split_conditions":[1.5459213E-4],"split_indices":[0],"split_type":[0],"sum_hessian":[2.153E3],"tree_param":{"num_deleted":"0","num_feature":"32","num_nodes":"1","size_leaf_vector":"1"}},{"base_weights":[-8.7395526E-4],"categories":[],"categories_nodes":[],"categories_segments":[],"categories_sizes":[],"default_left":[0],"id":192,"left_children":[-1],"loss_changes":[0E0],"parents":[2147483647],"right_children":[-1],"split_conditions":[-1.6524192E-4],"split_indices":[0],"split_type":[0],"sum_hessian":[2.155E3],"tree_param":{"num_deleted":"0","num_feature":"32","num_nodes":"1","size_leaf_vector":"1"}},{"base_weights":[-7.23911E-4],"categories":[],"categories_nodes":[],"categories_segments":[],"categories_sizes":[],"default_left":[0],"id":193,"left_children":[-1],"loss_changes":[0E0],"parents":[2147483647],"right_children":[-1],"split_conditions":[-1.3687249E-4],"split_indices":[0],"split_type":[0],"sum_hessian":[2.156E3],"tree_param":{"num_deleted":"0","num_feature":"32","num_nodes":"1","size_leaf_vector":"1"}},{"base_weights":[-5.257383E-4],"categories":[],"categories_nodes":[],"categories_segments":[],"categories_sizes":[],"default_left":[0],"id":194,"left_children":[-1],"loss_changes":[0E0],"parents":[2147483647],"right_children":[-1],"split_conditions":[-9.940326E-5],"split_indices":[0],"split_type":[0],"sum_hessian":[2.165E3],"tree_param":{"num_deleted":"0","num_feature":"32","num_nodes":"1","size_leaf_vector":"1"}},{"base_weights":[1.421631E-3],"categories":[],"categories_nodes":[],"categories_segments":[],"categories_sizes":[],"default_left":[0],"id":195,"left_children":[-1],"loss_changes":[0E0],"parents":[2147483647],"right_children":[-1],"split_conditions":[2.6879297E-4],"split_indices":[0],"split_type":[0],"sum_hessian":[2.167E3],"tree_param":{"num_deleted":"0","num_feature":"32","num_nodes":"1","size_leaf_vector":"1"}},{"base_weights":[8.1314496E-4],"categories":[],"categories_nodes":[],"categories_segments":[],"categories_sizes":[],"default_left":[0],"id":196,"left_children":[-1],"loss_changes":[0E0],"parents":[2147483647],"right_children":[-1],"split_conditions":[1.5374429E-4],"split_indices":[0],"split_type":[0],"sum_hessian":[2.154E3],"tree_param":{"num_deleted":"0","num_feature":"32","num_nodes":"1","size_leaf_vector":"1"}},{"base_weights":[-2.1600904E-4],"categories":[],"categories_nodes":[],"categories_segments":[],"categories_sizes":[],"default_left":[0],"id":197,"left_children":[-1],"loss_changes":[0E0],"parents":[2147483647],"right_children":[-1],"split_conditions":[-4.0841616E-5],"split_indices":[0],"split_type":[0],"sum_hessian":[2.18E3],"tree_param":{"num_deleted":"0","num_feature":"32","num_nodes":"1","size_leaf_vector":"1"}},{"base_weights":[-3.9825268E-4],"categories":[],"categories_nodes":[],"categories_segments":[],"categories_sizes":[],"default_left":[0],"id":198,"left_children":[-1],"loss_changes":[0E0],"parents":[2147483647],"right_children":[-1],"split_conditions":[-7.529909E-5],"split_indices":[0],"split_type":[0],"sum_hessian":[2.189E3],"tree_param":{"num_deleted":"0","num_feature":"32","num_nodes":"1","size_leaf_vector":"1"}},{"base_weights":[5.1996874E-4],"categories":[],"categories_nodes":[],"categories_segments":[],"categories_sizes":[],"default_left":[0],"id":199,"left_children":[-1],"loss_changes":[0E0],"parents":[2147483647],"right_children":[-1],"split_conditions":[9.831239E-5],"split_indices":[0],"split_type":[0],"sum_hessian":[2.165E3],"tree_param":{"num_deleted":"0","num_feature":"32","num_nodes":"1","size_leaf_vector":"1"}},{"base_weights":[2.7840835E-4],"categories":[],"categories_nodes":[],"categories_segments":[],"categories_sizes":[],"default_left":[0],"id":200,"left_children":[-1],"loss_changes":[0E0],"parents":[2147483647],"right_children":[-1],"split_conditions":[5.2639683E-5],"split_indices":[0],"split_type":[0],"sum_hessian":[2.186E3],"tree_param":{"num_deleted":"0","num_feature":"32","num_nodes":"1","size_leaf_vector":"1"}},{"base_weights":[-2.5024328E-3],"categories":[],"categories_nodes":[],"categories_segments":[],"categories_sizes":[],"default_left":[0],"id":201,"left_children":[-1],"loss_changes":[0E0],"parents":[2147483647],"right_children":[-1],"split_conditions":[-4.7314411E-4],"split_indices":[0],"split_type":[0],"sum_hessian":[2.164E3],"tree_param":{"num_deleted":"0","num_feature":"32","num_nodes":"1","size_leaf_vector":"1"}},{"base_weights":[-0E0],"categories":[],"categories_nodes":[],"categories_segments":[],"categories_sizes":[],"default_left":[0],"id":202,"left_children":[-1],"loss_changes":[0E0],"parents":[2147483647],"right_children":[-1],"split_conditions":[-0E0],"split_indices":[0],"split_type":[0],"sum_hessian":[2.154E3],"tree_param":{"num_deleted":"0","num_feature":"32","num_nodes":"1","size_leaf_vector":"1"}},{"base_weights":[1.3696589E-3],"categories":[],"categories_nodes":[],"categories_segments":[],"categories_sizes":[],"default_left":[0],"id":203,"left_children":[-1],"loss_changes":[0E0],"parents":[2147483647],"right_children":[-1],"split_conditions":[2.589664E-4],"split_indices":[0],"split_type":[0],"sum_hessian":[2.145E3],"tree_param":{"num_deleted":"0","num_feature":"32","num_nodes":"1","size_leaf_vector":"1"}},{"base_weights":[-0E0],"categories":[],"categories_nodes":[],"categories_segments":[],"categories_sizes":[],"default_left":[0],"id":204,"left_children":[-1],"loss_changes":[0E0],"parents":[2147483647],"right_children":[-1],"split_conditions":[-0E0],"split_indices":[0],"split_type":[0],"sum_hessian":[2.175E3],"tree_param":{"num_deleted":"0","num_feature":"32","num_nodes":"1","size_leaf_vector":"1"}},{"base_weights":[1.7699412E-3],"categories":[],"categories_nodes":[],"categories_segments":[],"categories_sizes":[],"default_left":[0],"id":205,"left_children":[-1],"loss_changes":[0E0],"parents":[2147483647],"right_children":[-1],"split_conditions":[3.3464923E-4],"split_indices":[0],"split_type":[0],"sum_hessian":[2.167E3],"tree_param":{"num_deleted":"0","num_feature":"32","num_nodes":"1","size_leaf_vector":"1"}},{"base_weights":[-0E0],"categories":[],"categories_nodes":[],"categories_segments":[],"categories_sizes":[],"default_left":[0],"id":206,"left_children":[-1],"loss_changes":[0E0],"parents":[2147483647],"right_children":[-1],"split_conditions":[-0E0],"split_indices":[0],"split_type":[0],"sum_hessian":[2.159E3],"tree_param":{"num_deleted":"0","num_feature":"32","num_nodes":"1","size_leaf_vector":"1"}},{"base_weights":[-0E0],"categories":[],"categories_nodes":[],"categories_segments":[],"categories_sizes":[],"default_left":[0],"id":207,"left_children":[-1],"loss_changes":[0E0],"parents":[2147483647],"right_children":[-1],"split_conditions":[-0E0],"split_indices":[0],"split_type":[0],"sum_hessian":[2.146E3],"tree_param":{"num_deleted":"0","num_feature":"32","num_nodes":"1","size_leaf_vector":"1"}},{"base_weights":[-8.888336E-4],"categories":[],"categories_nodes":[],"categories_segments":[],"categories_sizes":[],"default_left":[0],"id":208,"left_children":[-1],"loss_changes":[0E0],"parents":[2147483647],"right_children":[-1],"split_conditions":[-1.6805502E-4],"split_indices":[0],"split_type":[0],"sum_hessian":[2.162E3],"tree_param":{"num_deleted":"0","num_feature":"32","num_nodes":"1","size_leaf_vector":"1"}},{"base_weights":[-1.9126447E-4],"categories":[],"categories_nodes":[],"categories_segments":[],"categories_sizes":[],"default_left":[0],"id":209,"left_children":[-1],"loss_changes":[0E0],"parents":[2147483647],"right_children":[-1],"split_conditions":[-3.616307E-5],"split_indices":[0],"split_type":[0],