{"learner":{"attributes":{"scikit_learn":"{\"_estimator_type\": \"regressor\"}"},"feature_names":[],"feature_types":[],"gradient_booster":{"model":{"gbtree_model_param":{"num_parallel_tree":"1","num_trees":"496"},"iteration_indptr":[0,1,2,3,4,5,6,7,8,9,10,11,12,13,14,15,16,17,18,19,20,21,22,23,24,25,26,27,28,29,30,31,32,33,34,35,36,37,38,39,40,41,42,43,44,45,46,47,48,49,50,51,52,53,54,55,56,57,58,59,60,61,62,63,64,65,66,67,68,69,70,71,72,73,74,75,76,77,78,79,80,81,82,83,84,85,86,87,88,89,90,91,92,93,94,95,96,97,98,99,100,101,102,103,104,105,106,107,108,109,110,111,112,113,114,115,116,117,118,119,120,121,122,123,124,125,126,127,128,129,130,131,132,133,134,135,136,137,138,139,140,141,142,143,144,145,146,147,148,149,150,151,152,153,154,155,156,157,158,159,160,161,162,163,164,165,166,167,168,169,170,171,172,173,174,175,176,177,178,179,180,181,182,183,184,185,186,187,188,189,190,191,192,193,194,195,196,197,198,199,200,201,202,203,204,205,206,207,208,209,210,211,212,213,214,215,216,217,218,219,220,221,222,223,224,225,226,227,228,229,230,231,232,233,234,235,236,237,238,239,240,241,242,243,244,245,246,247,248,249,250,251,252,253,254,255,256,257,258,259,260,261,262,263,264,265,266,267,268,269,270,271,272,273,274,275,276,277,278,279,280,281,282,283,284,285,286,287,288,289,290,291,292,293,294,295,296,297,298,299,300,301,302,303,304,305,306,307,308,309,310,311,312,313,314,315,316,317,318,319,320,321,322,323,324,325,326,327,328,329,330,331,332,333,334,335,336,337,338,339,340,341,342,343,344,345,346,347,348,349,350,351,352,353,354,355,356,357,358,359,360,361,362,363,364,365,366,367,368,369,370,371,372,373,374,375,376,377,378,379,380,381,382,383,384,385,386,387,388,389,390,391,392,393,394,395,396,397,398,399,400,401,402,403,404,405,406,407,408,409,410,411,412,413,414,415,416,417,418,419,420,421,422,423,424,425,426,427,428,429,430,431,432,433,434,435,436,437,438,439,440,441,442,443,444,445,446,447,448,449,450,451,452,453,454,455,456,457,458,459,460,461,462,463,464,465,466,467,468,469,470,471,472,473,474,475,476,477,478,479,480,481,482,483,484,485,486,487,488,489,490,491,492,493,494,495,496],"tree_info":[0,0,0,0,0,0,0,0,0,0,0,0,0,0,0,0,0,0,0,0,0,0,0,0,0,0,0,0,0,0,0,0,0,0,0,0,0,0,0,0,0,0,0,0,0,0,0,0,0,0,0,0,0,0,0,0,0,0,0,0,0,0,0,0,0,0,0,0,0,0,0,0,0,0,0,0,0,0,0,0,0,0,0,0,0,0,0,0,0,0,0,0,0,0,0,0,0,0,0,0,0,0,0,0,0,0,0,0,0,0,0,0,0,0,0,0,0,0,0,0,0,0,0,0,0,0,0,0,0,0,0,0,0,0,0,0,0,0,0,0,0,0,0,0,0,0,0,0,0,0,0,0,0,0,0,0,0,0,0,0,0,0,0,0,0,0,0,0,0,0,0,0,0,0,0,0,0,0,0,0,0,0,0,0,0,0,0,0,0,0,0,0,0,0,0,0,0,0,0,0,0,0,0,0,0,0,0,0,0,0,0,0,0,0,0,0,0,0,0,0,0,0,0,0,0,0,0,0,0,0,0,0,0,0,0,0,0,0,0,0,0,0,0,0,0,0,0,0,0,0,0,0,0,0,0,0,0,0,0,0,0,0,0,0,0,0,0,0,0,0,0,0,0,0,0,0,0,0,0,0,0,0,0,0,0,0,0,0,0,0,0,0,0,0,0,0,0,0,0,0,0,0,0,0,0,0,0,0,0,0,0,0,0,0,0,0,0,0,0,0,0,0,0,0,0,0,0,0,0,0,0,0,0,0,0,0,0,0,0,0,0,0,0,0,0,0,0,0,0,0,0,0,0,0,0,0,0,0,0,0,0,0,0,0,0,0,0,0,0,0,0,0,0,0,0,0,0,0,0,0,0,0,0,0,0,0,0,0,0,0,0,0,0,0,0,0,0,0,0,0,0,0,0,0,0,0,0,0,0,0,0,0,0,0,0,0,0,0,0,0,0,0,0,0,0,0,0,0,0,0,0,0,0,0,0,0,0,0,0,0,0,0,0,0,0,0,0,0,0,0,0,0,0,0,0,0,0,0,0,0,0,0,0,0,0,0,0,0,0,0,0,0,0,0,0,0,0,0,0,0,0,0,0,0,0,0,0,0,0,0,0,0,0,0,0,0],"trees":[{"base_weights":[5.2200793E-4,-4.0286443E-1,1.6485935E0,6.520357E-2,-7.2590244E-1,1.1892699E0,2.8246434E0,-1.0394251E-1,3.9725068E-1,-5.250799E-1,-8.844909E-1,8.480537E-1,1.5380027E0,2.3575356E0,3.4492247E0,6.350644E-2,-1.9929764E-1,2.7367762E-1,5.91183E-1,-4.2644876E-1,-6.1434585E-1,-9.6545434E-1,-7.836869E-1,7.6980066E-1,1.0665213E0,1.3533598E0,1.7706455E0,2.1799803E0,2.6442769E0,2.7108786E-1,3.2558775E-1,1.7096621E-1,1.3380375E-2,-1.4128053E-1,-2.7176583E-1,3.508816E-1,1.7095998E-1,4.9517417E-1,7.013119E-1,-3.88635E-1,-4.849181E-1,-5.817617E-2,-5.0065186E-2,-8.378004E-2,-5.704655E-2,-7.02754E-2,-6.455713E-2,8.7162423E-1,6.376025E-1,1.4488042E-3,1.0741291E0,1.274331E0,1.266728E-1,1.4565831E-1,1.7048416E-1,2.0150356E-1,1.7411505E-1,2.376947E-1,2.0059226E-1,7.327165E-3,1.8076038E-2,6.438859E-3,-1.0449821E-3,-9.127571E-3,-1.793613E-2,-1.9048365E-2,-2.6342925E-2,2.2964977E-2,3.5165098E-2,9.056348E-3,1.9446768E-2,3.85261E-2,4.984741E-2,5.612334E-2,7.188816E-2,-3.3932365E-2,-0E0,-0E0,-4.205975E-2,2.0955045E-2,7.6110736E-2,5.9167698E-2,3.6501624E-2,9.322646E-2,-0E0,1.1091951E-1,3.7657753E-2],"categories":[],"categories_nodes":[],"categories_segments":[],"categories_sizes":[],"default_left":[0,0,0,0,0,0,0,0,0,0,0,0,0,0,0,0,0,0,0,0,0,0,0,0,0,0,0,0,0,0,0,0,0,0,0,0,0,0,0,0,0,0,0,0,0,0,0,0,0,0,0,0,0,0,0,0,0,0,0,0,0,0,0,0,0,0,0,0,0,0,0,0,0,0,0,0,0,0,0,0,0,0,0,0,0,0,0],"id":0,"left_children":[1,3,5,7,9,11,13,15,17,19,21,23,25,27,29,31,33,35,37,39,41,43,45,47,49,51,53,55,57,-1,-1,59,61,63,65,67,69,71,73,75,77,-1,-1,-1,-1,-1,-1,79,81,-1,83,85,-1,-1,-1,-1,-1,-1,-1,-1,-1,-1,-1,-1,-1,-1,-1,-1,-1,-1,-1,-1,-1,-1,-1,-1,-1,-1,-1,-1,-1,-1,-1,-1,-1,-1,-1],"loss_changes":[7.557245E3,1.381028E3,1.2044829E3,2.0955565E2,1.712478E2,1.8980298E2,1.7768408E2,3.949862E1,2.9702316E1,2.0416138E1,2.3531738E1,1.2764832E1,3.1850708E1,1.4216431E1,1.9526611E1,4.725327E0,6.4073143E0,5.84037E0,4.4663086E0,2.025528E0,1.8566895E0,3.0395508E-1,4.874878E-1,7.1931763E0,1.1506195E0,1.9614258E0,3.2923584E0,2.0562744E0,8.258057E-2,0E0,0E0,7.692976E-1,9.8359734E-1,1.9160938E0,8.935509E-1,1.7083321E0,1.0212889E0,4.8576355E-1,6.386795E-1,1.0940247E0,2.0952606E-1,0E0,0E0,0E0,0E0,0E0,0E0,1.02948E0,2.0019455E0,0E0,2.0365906E-1,5.8825684E-1,0E0,0E0,0E0,0E0,0E0,0E0,0E0,0E0,0E0,0E0,0E0,0E0,0E0,0E0,0E0,0E0,0E0,0E0,0E0,0E0,0E0,0E0,0E0,0E0,0E0,0E0,0E0,0E0,0E0,0E0,0E0,0E0,0E0,0E0,0E0],"parents":[2147483647,0,0,1,1,2,2,3,3,4,4,5,5,6,6,7,7,8,8,9,9,10,10,11,11,12,12,13,13,14,14,15,15,16,16,17,17,18,18,19,19,20,20,21,21,22,22,23,23,24,24,25,25,26,26,27,27,28,28,31,31,32,32,33,33,34,34,35,35,36,36,37,37,38,38,39,39,40,40,47,47,48,48,50,50,51,51],"right_children":[2,4,6,8,10,12,14,16,18,20,22,24,26,28,30,32,34,36,38,40,42,44,46,48,50,52,54,56,58,-1,-1,60,62,64,66,68,70,72,74,76,78,-1,-1,-1,-1,-1,-1,80,82,-1,84,86,-1,-1,-1,-1,-1,-1,-1,-1,-1,-1,-1,-1,-1,-1,-1,-1,-1,-1,-1,-1,-1,-1,-1,-1,-1,-1,-1,-1,-1,-1,-1,-1,-1,-1,-1],"split_conditions":[2.045691E0,6.407071E-1,8.079916E0,3.3801502E-1,3.2880855E0,9.113059E-1,1.4305075E1,-7.737814E-2,2.607811E0,2.441362E0,-2.5775734E-1,-5.5264983E-2,4.498627E0,1.1525595E1,1.8419138E1,-2.3531005E-1,-3.6346238E-2,-1.4739487E-1,3.9068602E-2,1.6762571E0,-1.887719E-1,-2.0955546E-1,-2.2423889E-1,2.8249508E-1,-2.7818632E-1,2.9757137E0,-1.2850231E-1,6.0696015E0,6.662842E0,2.7108786E-1,3.2558775E-1,-1.5750863E-1,-5.9322014E-2,-2.4584109E-2,5.3429874E-3,-2.8167546E-2,8.6480147E-1,3.8722267E0,1.4359097E0,4.818549E-1,-1.7339636E-1,-5.817617E-2,-5.0065186E-2,-8.378004E-2,-5.704655E-2,-7.02754E-2,-6.455713E-2,-2.1215649E-1,-2.1229206E-1,1.4488042E-3,3.070515E-1,-2.1341613E-2,1.266728E-1,1.4565831E-1,1.7048416E-1,2.0150356E-1,1.7411505E-1,2.376947E-1,2.0059226E-1,7.327165E-3,1.8076038E-2,6.438859E-3,-1.0449821E-3,-9.127571E-3,-1.793613E-2,-1.9048365E-2,-2.6342925E-2,2.2964977E-2,3.5165098E-2,9.056348E-3,1.9446768E-2,3.85261E-2,4.984741E-2,5.612334E-2,7.188816E-2,-3.3932365E-2,-0E0,-0E0,-4.205975E-2,2.0955045E-2,7.6110736E-2,5.9167698E-2,3.6501624E-2,9.322646E-2,-0E0,1.1091951E-1,3.7657753E-2],"split_indices":[32,51,63,11,57,63,63,36,11,51,60,63,63,63,63,36,51,45,16,51,13,34,34,60,15,63,42,11,11,0,0,24,45,14,14,24,11,11,54,32,0,0,0,0,0,0,0,5,45,0,13,57,0,0,0,0,0,0,0,0,0,0,0,0,0,0,0,0,0,0,0,0,0,0,0,0,0,0,0,0,0,0,0,0,0,0,0],"split_type":[0,0,0,0,0,0,0,0,0,0,0,0,0,0,0,0,0,0,0,0,0,0,0,0,0,0,0,0,0,0,0,0,0,0,0,0,0,0,0,0,0,0,0,0,0,0,0,0,0,0,0,0,0,0,0,0,0,0,0,0,0,0,0,0,0,0,0,0,0,0,0,0,0,0,0,0,0,0,0,0,0,0,0,0,0,0,0],"sum_hessian":[1.1366E4,9.131E3,2.235E3,3.728E3,5.403E3,1.608E3,6.27E2,2.469E3,1.259E3,2.386E3,3.017E3,8.14E2,7.94E2,3.6E2,2.67E2,8.94E2,1.575E3,7.71E2,4.88E2,1.137E3,1.249E3,1.669E3,1.348E3,6.02E2,2.12E2,4.45E2,3.49E2,2.25E2,1.35E2,1.35E2,1.32E2,2.81E2,6.13E2,8.79E2,6.96E2,4.37E2,3.34E2,2.64E2,2.24E2,6.97E2,4.4E2,4.71E2,7.78E2,1.653E3,1.6E1,7.6E2,5.88E2,3.37E2,2.65E2,2E0,2.1E2,2.64E2,1.81E2,2.46E2,1.03E2,1.16E2,1.09E2,1E2,3.5E1,9E1,1.91E2,1.86E2,4.27E2,5.75E2,3.04E2,2.76E2,4.2E2,1.76E2,2.61E2,1.54E2,1.8E2,1.68E2,9.6E1,1.63E2,6.1E1,6.92E2,5E0,1E0,4.39E2,5E0,3.32E2,2.16E2,4.9E1,2.09E2,1E0,2.61E2,3E0],"tree_param":{"num_deleted":"0","num_feature":"64","num_nodes":"87","size_leaf_vector":"1"}},{"base_weights":[-2.693925E-4,-3.707866E-1,1.4922419E0,1.0297468E-2,-6.865135E-1,1.0991019E0,2.6356251E0,2.838041E-1,-1.818898E-1,-5.129717E-1,-8.128045E-1,7.988178E-1,1.4674683E0,2.1929328E0,3.164533E0,1.6804962E-1,4.921898E-1,-6.402636E-2,-2.7262887E-1,-5.794899E-1,-4.21666E-1,-7.254223E-1,-8.805728E-1,7.013782E-1,1.0045968E0,1.299643E0,1.6519262E0,1.9912276E0,2.0684047E-1,2.4809101E-1,3.4342623E0,8.316964E-2,2.4292119E-1,4.0454832E-1,6.1813986E-1,-9.95407E-2,5.9415776E-2,-3.7780252E-1,-2.449849E-1,-5.486489E-2,-5.496684E-1,-4.5635524E-1,-3.6839494E-1,-6.542276E-2,-6.0515374E-2,-6.6019945E-2,-7.6885834E-2,5.8746046E-1,8.0649763E-1,1.0115536E0,1.2548776E-2,1.2171305E0,1.2114251E-1,1.5514044E0,1.5614744E-1,1.8357593E-1,1.5671821E-1,2.6881704E-1,3.1143793E-1,3.1547414E-3,1.1068406E-2,2.4469033E-2,1.1016035E-2,3.0457284E-2,4.1206785E-2,4.5388814E-2,5.9324265E-2,-4.967468E-3,-1.2461841E-2,2.0051857E-3,1.4684466E-2,-1.8877773E-2,-3.440961E-2,-1.6857693E-2,-2.4807965E-2,-0E0,-4.7685206E-2,-3.9546337E-2,-0E0,-0E0,-3.193756E-2,4.132348E-2,6.0171183E-2,6.003703E-2,7.415991E-2,8.199973E-2,9.6540205E-2,1.0587495E-1,2.171852E-2,1.231284E-1,1.4113382E-1],"categories":[],"categories_nodes":[],"categories_segments":[],"categories_sizes":[],"default_left":[0,0,0,0,0,0,0,0,0,0,0,0,0,0,0,0,0,0,0,0,0,0,0,0,0,0,0,0,0,0,0,0,0,0,0,0,0,0,0,0,0,0,0,0,0,0,0,0,0,0,0,0,0,0,0,0,0,0,0,0,0,0,0,0,0,0,0,0,0,0,0,0,0,0,0,0,0,0,0,0,0,0,0,0,0,0,0,0,0,0,0],"id":1,"left_children":[1,3,5,7,9,11,13,15,17,19,21,23,25,27,29,31,33,35,37,39,41,43,45,47,49,51,53,55,-1,-1,57,59,61,63,65,67,69,71,73,-1,75,77,79,-1,-1,-1,-1,81,83,85,-1,87,-1,89,-1,-1,-1,-1,-1,-1,-1,-1,-1,-1,-1,-1,-1,-1,-1,-1,-1,-1,-1,-1,-1,-1,-1,-1,-1,-1,-1,-1,-1,-1,-1,-1,-1,-1,-1,-1,-1],"loss_changes":[6.29072E3,1.0969554E3,1.0142046E3,2.1712067E2,1.0847998E2,1.8483325E2,1.3065894E2,4.0783066E1,2.5755707E1,1.2199402E1,1.6087036E1,1.7576843E1,2.1273193E1,8.958496E0,1.4998779E1,6.812435E0,6.1223145E0,4.6568084E0,3.6393433E0,1.2768555E0,1.1865234E0,1.3116455E-1,4.605713E-1,6.75119E0,1.1556702E0,1.4790039E0,2.961731E0,6.277466E-1,0E0,0E0,5.9765625E-1,1.000092E0,2.4568977E0,9.0089417E-1,8.463669E-1,1.4419508E0,8.3578616E-1,5.541382E-1,2.0187378E0,0E0,5.156555E-1,6.607056E-2,2.590561E-2,0E0,0E0,0E0,0E0,2.9626312E0,9.0727234E-1,6.1413574E-1,0E0,5.0601196E-1,0E0,2.7404785E-2,0E0,0E0,0E0,0E0,0E0,0E0,0E0,0E0,0E0,0E0,0E0,0E0,0E0,0E0,0E0,0E0,0E0,0E0,0E0,0E0,0E0,0E0,0E0,0E0,0E0,0E0,0E0,0E0,0E0,0E0,0E0,0E0,0E0,0E0,0E0,0E0,0E0],"parents":[2147483647,0,0,1,1,2,2,3,3,4,4,5,5,6,6,7,7,8,8,9,9,10,10,11,11,12,12,13,13,14,14,15,15,16,16,17,17,18,18,19,19,20,20,21,21,22,22,23,23,24,24,25,25,26,26,27,27,30,30,31,31,32,32,33,33,34,34,35,35,36,36,37,37,38,38,40,40,41,41,42,42,47,47,48,48,49,49,51,51,53,53],"right_children":[2,4,6,8,10,12,14,16,18,20,22,24,26,28,30,32,34,36,38,40,42,44,46,48,50,52,54,56,-1,-1,58,60,62,64,66,68,70,72,74,-1,76,78,80,-1,-1,-1,-1,82,84,86,-1,88,-1,90,-1,-1,-1,-1,-1,-1,-1,-1,-1,-1,-1,-1,-1,-1,-1,-1,-1,-1,-1,-1,-1,-1,-1,-1,-1,-1,-1,-1,-1,-1,-1,-1,-1,-1,-1,-1,-1],"split_conditions":[1.8585202E0,9.525048E-3,8.693197E0,-1.5547444E-1,3.554118E0,1.6558726E0,1.4305075E1,1.927577E0,8.725984E-2,-5.4827675E-2,5.407471E-1,-5.5264983E-2,4.9583006E0,6.788642E-2,1.8419138E1,-9.9766575E-2,3.7702925E0,-4.3269295E-2,1.5640147E-1,-2.1692419E-1,9.385215E-2,2.5169897E-1,-4.8622422E-2,8.591463E-1,2.7075627E-1,-2.979127E-2,3.3896582E0,1.4014223E0,2.0684047E-1,2.4809101E-1,1.1997924E0,-2.1915062E-1,-5.4568514E-2,-1.8313862E-1,7.63948E-2,-2.2468802E-2,7.776934E-1,-7.136834E-2,6.9931275E-1,-5.486489E-2,-1.0113752E-1,3.602057E-1,-2.783521E-1,-6.542276E-2,-6.0515374E-2,-6.6019945E-2,-7.6885834E-2,3.4609885E0,-2.4588387E-1,2.0919387E-1,1.2548776E-2,-5.4139014E-2,1.2114251E-1,6.218988E0,1.5614744E-1,1.8357593E-1,1.5671821E-1,2.6881704E-1,3.1143793E-1,3.1547414E-3,1.1068406E-2,2.4469033E-2,1.1016035E-2,3.0457284E-2,4.1206785E-2,4.5388814E-2,5.9324265E-2,-4.967468E-3,-1.2461841E-2,2.0051857E-3,1.4684466E-2,-1.8877773E-2,-3.440961E-2,-1.6857693E-2,-2.4807965E-2,-0E0,-4.7685206E-2,-3.9546337E-2,-0E0,-0E0,-3.193756E-2,4.132348E-2,6.0171183E-2,6.003703E-2,7.415991E-2,8.199973E-2,9.6540205E-2,1.0587495E-1,2.171852E-2,1.231284E-1,1.4113382E-1],"split_indices":[32,43,63,36,57,63,63,11,36,13,15,63,63,42,63,24,11,11,13,13,20,25,49,54,13,12,23,27,0,0,43,24,45,23,16,36,11,25,24,0,56,32,57,0,0,0,0,32,33,12,0,4,0,63,0,0,0,0,0,0,0,0,0,0,0,0,0,0,0,0,0,0,0,0,0,0,0,0,0,0,0,0,0,0,0,0,0,0,0,0,0],"split_type":[0,0,0,0,0,0,0,0,0,0,0,0,0,0,0,0,0,0,0,0,0,0,0,0,0,0,0,0,0,0,0,0,0,0,0,0,0,0,0,0,0,0,0,0,0,0,0,0,0,0,0,0,0,0,0,0,0,0,0,0,0,0,0,0,0,0,0,0,0,0,0,0,0,0,0,0,0,0,0,0,0,0,0,0,0,0,0,0,0,0,0],"sum_hessian":[1.1376E4,9.114E3,2.262E3,4.129E3,4.985E3,1.684E3,5.78E2,1.705E3,2.424E3,2.102E3,2.883E3,9.29E2,7.55E2,3.16E2,2.62E2,1.098E3,6.07E2,1.057E3,1.367E3,1.212E3,8.9E2,1.264E3,1.619E3,6.33E2,2.96E2,3.98E2,3.57E2,1.59E2,1.57E2,1.27E2,1.35E2,5.18E2,5.8E2,3.61E2,2.46E2,8.24E2,2.33E2,2.8E2,1.087E3,4.21E2,7.91E2,5.32E2,3.58E2,5.72E2,6.92E2,1.06E2,1.513E3,3.07E2,3.26E2,2.93E2,3E0,2.23E2,1.75E2,2.19E2,1.38E2,8.9E1,7E1,4.8E1,8.7E1,2.59E2,2.59E2,4.28E2,1.52E2,2.13E2,1.48E2,1.07E2,1.39E2,4.29E2,3.95E2,1.79E2,5.4E1,3.4E1,2.46E2,4.99E2,5.88E2,2E0,7.89E2,5.31E2,1E0,1E0,3.57E2,1.55E2,1.52E2,1.05E2,2.21E2,1.86E2,1.07E2,2.21E2,2E0,8.8E1,1.31E2],"tree_param":{"num_deleted":"0","num_feature":"64","num_nodes":"91","size_leaf_vector":"1"}},{"base_weights":[-3.1735583E-3,-2.7041605E-1,1.6537268E0,2.1154371E-1,-5.643133E-1,1.2952552E0,2.5948062E0,1.119986E-2,5.1166123E-1,-3.7520733E-1,-7.2349405E-1,1.0738107E0,1.5956717E0,2.2909799E0,3.061566E0,1.3916674E-1,-7.21951E-2,3.8818964E-1,6.7097497E-1,-2.8057858E-1,-4.66316E-1,-8.038645E-1,-6.385182E-1,1.0879186E0,1.0107768E-3,1.4350693E0,1.7246268E0,1.8092884E-1,2.1986502E-1,2.305424E-1,2.7653912E-1,4.2195186E-1,1.1463765E-1,-1.3145517E-1,-1.982533E-2,6.2986416E-1,3.450961E-1,6.178406E-1,6.739328E-2,-2.3322146E-1,-3.3706185E-1,-4.2990923E-2,-3.507121E-2,-7.002601E-2,-5.2567687E-2,-5.8456445E-1,-5.7236817E-2,9.798241E-1,1.2071247E0,1.7965117E-2,-2.4919717E-3,1.4393107E0,1.2529973E-3,1.4408562E-1,1.6571766E-1,3.975259E-2,6.553663E-3,1.5942689E-2,5.299656E-3,8.527826E-3,-1.2043205E-2,-5.065961E-5,-1.0382697E-2,4.495841E-2,6.372158E-2,2.2592401E-2,3.4729425E-2,6.86695E-2,5.0388128E-2,-1.624709E-2,-2.2676723E-2,-0E0,-2.923776E-2,-0E0,-5.076252E-2,8.499428E-2,-0E0,9.978515E-2,1.1759925E-1,1.1692171E-1,1.3390172E-1],"categories":[],"categories_nodes":[],"categories_segments":[],"categories_sizes":[],"default_left":[0,0,0,0,0,0,0,0,0,0,0,0,0,0,0,0,0,0,0,0,0,0,0,0,0,0,0,0,0,0,0,0,0,0,0,0,0,0,0,0,0,0,0,0,0,0,0,0,0,0,0,0,0,0,0,0,0,0,0,0,0,0,0,0,0,0,0,0,0,0,0,0,0,0,0,0,0,0,0,0,0],"id":2,"left_children":[1,3,5,7,9,11,13,15,17,19,21,23,25,27,29,31,33,35,37,39,41,43,45,47,49,51,53,-1,-1,-1,-1,55,57,59,61,63,65,67,-1,69,71,-1,-1,-1,-1,73,-1,75,77,-1,-1,79,-1,-1,-1,-1,-1,-1,-1,-1,-1,-1,-1,-1,-1,-1,-1,-1,-1,-1,-1,-1,-1,-1,-1,-1,-1,-1,-1,-1,-1],"loss_changes":[5.0160005E3,1.3821578E3,5.2781445E2,2.21926E2,1.8183215E2,7.402124E1,5.6681885E1,2.3698748E1,2.8476776E1,2.3492493E1,2.159607E1,9.4244995E0,7.6781006E0,9.3203125E0,3.5286865E0,5.805378E0,4.083936E0,8.151482E0,2.8449707E0,3.3408813E0,2.1111755E0,8.8061523E-1,1.2392578E0,6.9275513E0,1.4748894E-1,5.8999634E-1,2.7368164E-1,0E0,0E0,0E0,0E0,6.081915E-1,2.8818703E0,1.1287527E0,1.3204125E0,7.2340393E-1,2.9993744E0,1.904953E0,0E0,7.415619E-1,8.490753E-2,0E0,0E0,0E0,0E0,4.1944885E-1,0E0,5.2471924E-1,7.935791E-1,0E0,0E0,5.7373047E-3,0E0,0E0,0E0,0E0,0E0,0E0,0E0,0E0,0E0,0E0,0E0,0E0,0E0,0E0,0E0,0E0,0E0,0E0,0E0,0E0,0E0,0E0,0E0,0E0,0E0,0E0,0E0,0E0,0E0],"parents":[2147483647,0,0,1,1,2,2,3,3,4,4,5,5,6,6,7,7,8,8,9,9,10,10,11,11,12,12,13,13,14,14,15,15,16,16,17,17,18,18,19,19,20,20,21,21,22,22,23,23,24,24,25,25,26,26,31,31,32,32,33,33,34,34,35,35,36,36,37,37,39,39,40,40,45,45,47,47,48,48,51,51],"right_children":[2,4,6,8,10,12,14,16,18,20,22,24,26,28,30,32,34,36,38,40,42,44,46,48,50,52,54,-1,-1,-1,-1,56,58,60,62,64,66,68,-1,70,72,-1,-1,-1,-1,74,-1,76,78,-1,-1,80,-1,-1,-1,-1,-1,-1,-1,-1,-1,-1,-1,-1,-1,-1,-1,-1,-1,-1,-1,-1,-1,-1,-1,-1,-1,-1,-1,-1,-1],"split_conditions":[4.7063608E-2,-1.8656697E-2,1.063686E1,1.1597157E0,2.711136E0,4.9583006E0,1.675295E1,-7.06256E-2,4.0818586E0,1.6762571E0,-2.5087947E-1,1.0996822E-1,-1.781436E-1,1.0442623E0,6.9165844E-1,-1.4242055E-1,-4.390809E-2,-1.4242055E-1,-2.5942984E-1,7.3825926E-1,-2.1927455E-2,3.0647543E-1,3.7302375E0,2.3294291E0,6.093926E-2,3.619104E-1,4.9677545E-1,1.8092884E-1,2.1986502E-1,2.305424E-1,2.7653912E-1,-7.586097E-2,-1.3965695E-1,-2.6689017E-1,4.0728822E-1,-1.089213E-1,2.263699E0,-1.0453618E-1,6.739328E-2,5.3429874E-3,-1.0981139E-1,-4.2990923E-2,-3.507121E-2,-7.002601E-2,-5.2567687E-2,-6.9940925E-2,-5.7236817E-2,1.8962301E0,-7.577596E-2,1.7965117E-2,-2.4919717E-3,6.6782584E0,1.2529973E-3,1.4408562E-1,1.6571766E-1,3.975259E-2,6.553663E-3,1.5942689E-2,5.299656E-3,8.527826E-3,-1.2043205E-2,-5.065961E-5,-1.0382697E-2,4.495841E-2,6.372158E-2,2.2592401E-2,3.4729425E-2,6.86695E-2,5.0388128E-2,-1.624709E-2,-2.2676723E-2,-0E0,-2.923776E-2,-0E0,-5.076252E-2,8.499428E-2,-0E0,9.978515E-2,1.1759925E-1,1.1692171E-1,1.3390172E-1],"split_indices":[63,51,63,11,57,63,63,48,11,51,60,50,46,56,43,59,10,59,41,51,13,3,57,63,31,43,56,0,0,0,0,45,45,41,45,14,11,59,0,14,25,0,0,0,0,7,0,59,62,0,0,63,0,0,0,0,0,0,0,0,0,0,0,0,0,0,0,0,0,0,0,0,0,0,0,0,0,0,0,0,0],"split_type":[0,0,0,0,0,0,0,0,0,0,0,0,0,0,0,0,0,0,0,0,0,0,0,0,0,0,0,0,0,0,0,0,0,0,0,0,0,0,0,0,0,0,0,0,0,0,0,0,0,0,0,0,0,0,0,0,0,0,0,0,0,0,0,0,0,0,0,0,0,0,0,0,0,0,0,0,0,0,0,0,0],"sum_hessian":[1.1329E4,9.756E3,1.573E3,3.695E3,6.061E3,1.14E3,4.33E2,2.217E3,1.478E3,2.772E3,3.289E3,6.58E2,4.82E2,2.64E2,1.69E2,8.77E2,1.34E3,8.35E2,6.43E2,1.363E3,1.409E3,1.686E3,1.603E3,6.49E2,9E0,2.18E2,2.64E2,1.49E2,1.15E2,4.5E1,1.24E2,6.8E1,8.09E2,6.24E2,7.16E2,1.24E2,7.11E2,4.35E2,2.08E2,7.47E2,6.16E2,9.34E2,4.75E2,1.639E3,4.7E1,4.85E2,1.118E3,3.44E2,3.05E2,3E0,6E0,2.17E2,1E0,2.05E2,5.9E1,6E1,8E0,3.47E2,4.62E2,1.8E1,6.06E2,6.05E2,1.11E2,6.4E1,6E1,2.89E2,4.22E2,7E1,3.65E2,2.97E2,4.5E2,2E0,6.14E2,2E0,4.83E2,3.43E2,1E0,2.29E2,7.6E1,1.24E2,9.3E1],"tree_param":{"num_deleted":"0","num_feature":"64","num_nodes":"81","size_leaf_vector":"1"}},{"base_weights":[-1.378967E-3,-2.4635053E-1,1.5121442E0,1.8287994E-1,-5.2212656E-1,1.2087833E0,2.4546273E0,5.9345546E-3,4.78161E-1,-6.595516E-1,-3.5001317E-1,1.0056496E0,1.5384108E0,2.1466131E0,2.807533E0,1.4047842E-1,-8.231669E-2,3.570488E-1,6.219548E-1,-7.352214E-1,-5.8147514E-1,-2.6779684E-1,-4.2340478E-1,8.216196E-1,1.111453E0,1.4160062E0,1.6936303E0,1.7047502E-1,2.0261925E-1,2.1242248E-1,2.5343075E-1,3.7752545E-1,1.13563426E-1,-1.19370315E-2,-1.2633234E-1,5.791327E-1,3.1861088E-1,6.7423664E-2,5.868184E-1,-6.378187E-2,-3.839123E-2,-5.33662E-1,-5.2361947E-2,-2.2520427E-1,-3.098106E-1,-3.755809E-1,-4.573751E-1,8.4844404E-1,-0E0,1.0276941E0,1.2056525E0,1.3673791E0,1.4411464E-1,1.5321082E-1,1.3068558E-1,4.0689908E-2,1.9852249E-2,6.0668816E-3,1.5603331E-2,3.4645135E-3,-4.5933574E-3,-5.109954E-3,-1.266317E-2,4.365062E-2,6.1811134E-2,3.0181615E-2,1.7970715E-2,4.3716338E-2,5.782911E-2,-7.5502304E-4,-4.6275523E-2,7.7055763E-3,-1.9693052E-2,-0E0,-2.6870573E-2,-0E0,-3.2564033E-2,-0E0,-3.9628666E-2,-0E0,7.363661E-2,1.2272289E-2,-8.922581E-4,8.949834E-2,2.5856927E-2,9.413239E-2,1.1025224E-1,1.1885389E-1,3.6081895E-2],"categories":[],"categories_nodes":[],"categories_segments":[],"categories_sizes":[],"default_left":[0,0,0,0,0,0,0,0,0,0,0,0,0,0,0,0,0,0,0,0,0,0,0,0,0,0,0,0,0,0,0,0,0,0,0,0,0,0,0,0,0,0,0,0,0,0,0,0,0,0,0,0,0,0,0,0,0,0,0,0,0,0,0,0,0,0,0,0,0,0,0,0,0,0,0,0,0,0,0,0,0,0,0,0,0,0,0,0,0],"id":3,"left_children":[1,3,5,7,9,11,13,15,17,19,21,23,25,27,29,31,33,35,37,39,41,43,45,47,49,51,53,-1,-1,-1,-1,55,57,59,61,63,65,-1,67,-1,-1,69,-1,71,73,75,77,79,81,83,85,87,-1,-1,-1,-1,-1,-1,-1,-1,-1,-1,-1,-1,-1,-1,-1,-1,-1,-1,-1,-1,-1,-1,-1,-1,-1,-1,-1,-1,-1,-1,-1,-1,-1,-1,-1,-1,-1],"loss_changes":[4.230086E3,1.1627585E3,4.5169287E2,2.0046248E2,1.408811E2,7.884558E1,3.7720215E1,2.8568258E1,2.449701E1,1.8854004E1,1.565802E1,1.3299255E1,6.4260254E0,3.6417847E0,2.7625732E0,5.8327274E0,4.4208193E0,6.1868668E0,2.802719E0,1.6070557E-1,1.1837158E0,1.9642334E0,1.8110504E0,5.8544464E0,2.239685E0,9.533081E-1,3.5931396E-1,0E0,0E0,0E0,0E0,9.290104E-1,2.3643284E0,1.209083E0,1.0887136E0,4.32827E-1,1.9427185E0,0E0,2.902542E0,0E0,0E0,2.0996094E-2,0E0,5.369148E-1,6.110382E-2,1.533966E-1,1.5917969E-1,3.4291077E-1,4.7062416E-2,4.2919922E-1,1.6305542E-1,1.6989136E-1,0E0,0E0,0E0,0E0,0E0,0E0,0E0,0E0,0E0,0E0,0E0,0E0,0E0,0E0,0E0,0E0,0E0,0E0,0E0,0E0,0E0,0E0,0E0,0E0,0E0,0E0,0E0,0E0,0E0,0E0,0E0,0E0,0E0,0E0,0E0,0E0,0E0],"parents":[2147483647,0,0,1,1,2,2,3,3,4,4,5,5,6,6,7,7,8,8,9,9,10,10,11,11,12,12,13,13,14,14,15,15,16,16,17,17,18,18,19,19,20,20,21,21,22,22,23,23,24,24,25,25,26,26,31,31,32,32,33,33,34,34,35,35,36,36,38,38,41,41,43,43,44,44,45,45,46,46,47,47,48,48,49,49,50,50,51,51],"right_children":[2,4,6,8,10,12,14,16,18,20,22,24,26,28,30,32,34,36,38,40,42,44,46,48,50,52,54,-1,-1,-1,-1,56,58,60,62,64,66,-1,68,-1,-1,70,-1,72,74,76,78,80,82,84,86,88,-1,-1,-1,-1,-1,-1,-1,-1,-1,-1,-1,-1,-1,-1,-1,-1,-1,-1,-1,-1,-1,-1,-1,-1,-1,-1,-1,-1,-1,-1,-1,-1,-1,-1,-1,-1,-1],"split_conditions":[4.7063608E-2,7.408616E-2,1.1525595E1,1.2741109E0,-2.0768964E-1,5.721515E0,1.675295E1,-1.6030677E-1,4.0818586E0,-2.5540617E-1,1.6762571E0,1.6558726E0,-1.0269767E-1,1.1557193E0,6.9165844E-1,-1.4242055E-1,-1.3685696E-1,-1.4242055E-1,-1.11519165E-1,-1.9107886E-1,3.7302375E0,7.3825926E-1,2.6587102E0,-4.2552445E-2,3.6888444E0,2.1768495E-1,-1.2468591E-2,1.7047502E-1,2.0261925E-1,2.1242248E-1,2.5343075E-1,-2.6230693E-1,2.3286971E-1,-1.7402183E-1,-1.553831E-1,1.8481512E0,-2.1255635E-1,6.7423664E-2,5.7035556E0,-6.378187E-2,-3.839123E-2,-1.9259018E-1,-5.2361947E-2,-4.967796E-2,-1.0981139E-1,-1.7339636E-1,-2.4582621E-1,-2.7722564E-1,-1.4831653E-1,-2.1341613E-2,-8.5112415E-2,4.255684E-1,1.4411464E-1,1.5321082E-1,1.3068558E-1,4.0689908E-2,1.9852249E-2,6.0668816E-3,1.5603331E-2,3.4645135E-3,-4.5933574E-3,-5.109954E-3,-1.266317E-2,4.365062E-2,6.1811134E-2,3.0181615E-2,1.7970715E-2,4.3716338E-2,5.782911E-2,-7.5502304E-4,-4.6275523E-2,7.7055763E-3,-1.9693052E-2,-0E0,-2.6870573E-2,-0E0,-3.2564033E-2,-0E0,-3.9628666E-2,-0E0,7.363661E-2,1.2272289E-2,-8.922581E-4,8.949834E-2,2.5856927E-2,9.413239E-2,1.1025224E-1,1.1885389E-1,3.6081895E-2],"split_indices":[63,51,63,11,13,63,63,36,11,60,51,63,46,56,43,59,14,59,59,34,57,51,51,3,63,33,30,0,0,0,0,37,11,2,2,12,55,0,11,0,0,16,0,36,25,0,16,30,7,57,12,43,0,0,0,0,0,0,0,0,0,0,0,0,0,0,0,0,0,0,0,0,0,0,0,0,0,0,0,0,0,0,0,0,0,0,0,0,0],"split_type":[0,0,0,0,0,0,0,0,0,0,0,0,0,0,0,0,0,0,0,0,0,0,0,0,0,0,0,0,0,0,0,0,0,0,0,0,0,0,0,0,0,0,0,0,0,0,0,0,0,0,0,0,0,0,0,0,0,0,0,0,0,0,0,0,0,0,0,0,0,0,0,0,0,0,0,0,0,0,0,0,0,0,0,0,0,0,0,0,0],"sum_hessian":[1.141E4,9.821E3,1.589E3,3.841E3,5.98E3,1.203E3,3.86E2,2.403E3,1.438E3,3.323E3,2.657E3,7.46E2,4.57E2,2.08E2,1.78E2,9.54E2,1.449E3,7.83E2,6.55E2,1.683E3,1.64E3,1.257E3,1.4E3,2.75E2,4.71E2,2.59E2,1.98E2,1.12E2,9.6E1,4.8E1,1.3E2,9.5E1,8.59E2,5.62E2,8.87E2,1.13E2,6.7E2,1.16E2,5.39E2,1.671E3,1.2E1,5.5E2,1.09E3,6.31E2,6.26E2,5.89E2,8.11E2,2.66E2,9E0,2.54E2,2.17E2,2.2E2,3.9E1,1.36E2,6.2E1,5.6E1,3.9E1,5.25E2,3.34E2,2.43E2,3.19E2,2.09E2,6.78E2,7.6E1,3.7E1,5.23E2,1.47E2,2.73E2,2.66E2,2E0,5.48E2,3E0,6.28E2,2E0,6.24E2,1E0,5.88E2,1E0,8.1E2,1E0,2.65E2,2E0,7E0,2.51E2,3E0,8.4E1,1.33E2,2.18E2,2E0],"tree_param":{"num_deleted":"0","num_feature":"64","num_nodes":"89","size_leaf_vector":"1"}},{"base_weights":[1.0037132E-3,-2.252987E-1,1.380536E0,1.5760168E-1,-4.8309594E-1,1.0846127E0,2.156532E0,-1.0652434E-2,4.256396E-1,-3.2725307E-1,-6.0488176E-1,8.8521254E-1,1.3176173E0,1.9024912E0,2.5359082E0,9.875084E-2,-9.570832E-2,3.0410776E-1,5.527472E-1,-2.646325E-1,-4.0248755E-1,-5.330017E-1,-6.7030627E-1,7.638905E-1,9.7310436E-1,1.1780345E0,1.4502827E0,1.733279E0,1.8336439E-1,1.9420066E-1,2.3111734E-1,7.6037206E-2,3.0917338E-1,-1.2096866E-1,-1.9698437E-2,2.6953477E-1,5.5756354E-1,5.136388E-1,7.0524526E-1,-2.2309476E-1,-3.0144098E-1,-3.5742214E-1,-3.6130145E-2,-5.4232687E-1,-4.3519008E-1,-5.0097305E-2,-5.864648E-2,7.847491E-1,2.5038745E-2,9.148584E-1,9.409617E-2,9.60211E-2,1.1119391E-1,1.16519436E-1,1.362615E-1,1.580371E-1,1.3294493E-1,2.0974088E-3,1.2298399E-2,2.1636732E-2,4.4512052E-2,-6.0635214E-3,-1.2832669E-2,-5.64893E-3,7.34145E-4,1.6429165E-2,2.7271165E-2,3.8928192E-2,5.4169808E-2,3.8764123E-2,5.414102E-2,5.1100366E-2,6.525617E-2,-0E0,-1.9536383E-2,-2.543387E-2,-3.3700146E-2,-3.0998975E-2,-0E0,-4.4364586E-2,-4.8721258E-2,-3.780975E-2,-0E0,6.371682E-2,7.970048E-2,1.679738E-2,-0E0,7.9547495E-2,1.1750545E-2],"categories":[],"categories_nodes":[],"categories_segments":[],"categories_sizes":[],"default_left":[0,0,0,0,0,0,0,0,0,0,0,0,0,0,0,0,0,0,0,0,0,0,0,0,0,0,0,0,0,0,0,0,0,0,0,0,0,0,0,0,0,0,0,0,0,0,0,0,0,0,0,0,0,0,0,0,0,0,0,0,0,0,0,0,0,0,0,0,0,0,0,0,0,0,0,0,0,0,0,0,0,0,0,0,0,0,0,0,0],"id":4,"left_children":[1,3,5,7,9,11,13,15,17,19,21,23,25,27,29,31,33,35,37,39,41,43,45,47,49,51,53,55,-1,-1,-1,57,59,61,63,65,67,69,71,73,75,77,-1,79,81,-1,-1,83,85,87,-1,-1,-1,-1,-1,-1,-1,-1,-1,-1,-1,-1,-1,-1,-1,-1,-1,-1,-1,-1,-1,-1,-1,-1,-1,-1,-1,-1,-1,-1,-1,-1,-1,-1,-1,-1,-1,-1,-1],"loss_changes":[3.5472551E3,9.63531E2,3.6540576E2,1.772769E2,1.1019202E2,5.246692E1,3.8878662E1,2.2439465E1,2.2933258E1,1.1704773E1,1.4685669E1,5.6053467E0,8.059387E0,6.723816E0,2.6430664E0,4.8318195E0,2.5396194E0,6.356819E0,3.690918E0,1.8643036E0,3.533783E-1,8.720398E-1,4.006958E-1,3.7130737E0,1.1036377E0,3.126831E-1,1.4038696E0,2.7401733E-1,0E0,0E0,0E0,3.1755757E0,8.0076313E-1,1.3000431E0,4.704005E-1,2.2244911E0,5.526352E-2,3.7356873E0,2.4810791E-2,3.7880707E-1,1.1806488E-1,3.0582428E-2,0E0,2.5219727E-1,1.5880585E-2,0E0,0E0,6.896057E-1,1.1917443E-1,2.4388123E-1,0E0,0E0,0E0,0E0,0E0,0E0,0E0,0E0,0E0,0E0,0E0,0E0,0E0,0E0,0E0,0E0,0E0,0E0,0E0,0E0,0E0,0E0,0E0,0E0,0E0,0E0,0E0,0E0,0E0,0E0,0E0,0E0,0E0,0E0,0E0,0E0,0E0,0E0,0E0],"parents":[2147483647,0,0,1,1,2,2,3,3,4,4,5,5,6,6,7,7,8,8,9,9,10,10,11,11,12,12,13,13,14,14,15,15,16,16,17,17,18,18,19,19,20,20,21,21,22,22,23,23,24,24,25,25,26,26,27,27,31,31,32,32,33,33,34,34,35,35,36,36,37,37,38,38,39,39,40,40,41,41,43,43,44,44,47,47,48,48,49,49],"right_children":[2,4,6,8,10,12,14,16,18,20,22,24,26,28,30,32,34,36,38,40,42,44,46,48,50,52,54,56,-1,-1,-1,58,60,62,64,66,68,70,72,74,76,78,-1,80,82,-1,-1,84,86,88,-1,-1,-1,-1,-1,-1,-1,-1,-1,-1,-1,-1,-1,-1,-1,-1,-1,-1,-1,-1,-1,-1,-1,-1,-1,-1,-1,-1,-1,-1,-1,-1,-1,-1,-1,-1,-1,-1,-1],"split_conditions":[4.7063608E-2,1.3276678E-1,1.063686E1,1.0533923E0,2.711136E0,4.498627E0,1.675295E1,-1.1731895E-1,3.7702925E0,2.1222584E0,5.583579E0,1.6558726E0,7.110624E0,1.017292E0,-6.168091E-4,4.1078147E-1,8.799745E-2,1.1482497E0,5.273018E-1,9.2465895E-1,2.6587102E0,-8.977054E-2,-5.7990912E-2,-3.9213054E-2,4.211169E-1,5.0186646E-1,3.3896582E0,8.1095E-1,1.8336439E-1,1.9420066E-1,2.3111734E-1,4.0687686E-1,2.6399739E0,2.5718225E-2,-1.2394184E-1,1.927577E0,2.2267816E0,6.0696015E0,-2.6879132E-1,-1.4242055E-1,3.6049405E-1,3.957674E-1,-3.6130145E-2,4.1106243E0,-2.4992509E-2,-5.0097305E-2,-5.864648E-2,9.99499E-1,-1.744452E-2,-5.4139014E-2,9.409617E-2,9.60211E-2,1.1119391E-1,1.16519436E-1,1.362615E-1,1.580371E-1,1.3294493E-1,2.0974088E-3,1.2298399E-2,2.1636732E-2,4.4512052E-2,-6.0635214E-3,-1.2832669E-2,-5.64893E-3,7.34145E-4,1.6429165E-2,2.7271165E-2,3.8928192E-2,5.4169808E-2,3.8764123E-2,5.414102E-2,5.1100366E-2,6.525617E-2,-0E0,-1.9536383E-2,-2.543387E-2,-3.3700146E-2,-3.0998975E-2,-0E0,-4.4364586E-2,-4.8721258E-2,-3.780975E-2,-0E0,6.371682E-2,7.970048E-2,1.679738E-2,-0E0,7.9547495E-2,1.1750545E-2],"split_indices":[63,51,63,11,57,63,63,36,11,51,57,63,63,56,46,23,10,23,23,51,51,20,49,48,12,12,23,27,0,0,0,10,23,36,43,11,23,11,61,59,55,38,0,57,44,0,0,12,12,4,0,0,0,0,0,0,0,0,0,0,0,0,0,0,0,0,0,0,0,0,0,0,0,0,0,0,0,0,0,0,0,0,0,0,0,0,0,0,0],"split_type":[0,0,0,0,0,0,0,0,0,0,0,0,0,0,0,0,0,0,0,0,0,0,0,0,0,0,0,0,0,0,0,0,0,0,0,0,0,0,0,0,0,0,0,0,0,0,0,0,0,0,0,0,0,0,0,0,0,0,0,0,0,0,0,0,0,0,0,0,0,0,0,0,0,0,0,0,0,0,0,0,0,0,0,0,0,0,0,0,0],"sum_hessian":[1.136E4,9.759E3,1.601E3,3.926E3,5.833E3,1.16E3,4.41E2,2.411E3,1.515E3,2.561E3,3.272E3,6.27E2,5.33E2,2.66E2,1.75E2,1.052E3,1.359E3,7.77E2,7.38E2,1.402E3,1.159E3,1.564E3,1.708E3,2.67E2,3.6E2,2.63E2,2.7E2,1.52E2,1.14E2,5.8E1,1.17E2,9.52E2,1E2,1.015E3,3.44E2,6.86E2,9.1E1,5.91E2,1.47E2,6.66E2,7.36E2,2.99E2,8.6E2,1.422E3,1.42E2,1.33E2,1.575E3,2.59E2,8E0,2.43E2,1.17E2,1.65E2,9.8E1,1.51E2,1.19E2,1E2,5.2E1,5.38E2,4.14E2,8E1,2E1,3.61E2,6.54E2,1.38E2,2.06E2,2.54E2,4.32E2,3.9E1,5.2E1,3.76E2,2.15E2,4.8E1,9.9E1,8E0,6.58E2,6.84E2,5.2E1,2.98E2,1E0,5.95E2,8.27E2,1.41E2,1E0,1.95E2,6.4E1,3E0,5E0,2.41E2,2E0],"tree_param":{"num_deleted":"0","num_feature":"64","num_nodes":"89","size_leaf_vector":"1"}},{"base_weights":[-9.2231494E-4,-2.5337994E-1,1.0762134E0,5.767462E-2,-4.526647E-1,8.093655E-1,1.8519241E0,2.4432978E-1,-6.0983848E-2,-3.203171E-1,-5.592914E-1,6.005185E-1,1.0286803E0,1.5439651E0,2.2516127E0,1.5592195E-1,3.7559727E-1,2.538871E-2,-1.2075931E-1,-2.599201E-1,-3.8043657E-1,-4.9514636E-1,-6.150029E-1,5.1383334E-1,7.4076486E-1,9.5134676E-1,1.3193935E0,1.3936862E0,1.7296722E0,1.6667338E-1,2.3957913E0,1.8703176E-1,6.1894607E-2,3.382428E-1,5.00413E-1,1.0662167E-1,-3.8945829E-3,-9.720041E-2,-1.9283585E-1,-2.2980826E-1,-2.946644E-1,-3.5211906E-1,-4.2114818E-1,-4.437741E-2,-3.915578E-2,-4.960086E-2,-5.4106522E-2,4.703953E-1,6.73471E-1,8.815293E-1,6.705446E-1,8.844288E-1,1.0297892E-1,1.06348865E-1,1.3627388E-1,1.3014264E0,1.3873696E-1,1.3155821E-1,1.6466573E-1,1.9614632E-1,2.2452283E-1,1.9025763E-2,9.109572E-3,9.023275E-3,4.8049624E-4,2.539363E-2,3.320544E-2,4.3845333E-2,-0E0,1.1260864E-2,3.3432513E-3,6.53287E-3,-1.9359973E-3,-9.057288E-3,5.8361134E-3,-1.50494715E-2,-2.2767868E-2,-2.0154828E-2,-0E0,-2.1682946E-2,-2.75473E-2,-0E0,-3.050535E-2,-0E0,-3.65203E-2,3.550476E-2,4.5931317E-2,3.608291E-2,6.0780358E-2,-0E0,7.691931E-2,5.871452E-2,1.09718265E-2,7.1322285E-2,8.581632E-2,-0E0,1.13288626E-1],"categories":[],"categories_nodes":[],"categories_segments":[],"categories_sizes":[],"default_left":[0,0,0,0,0,0,0,0,0,0,0,0,0,0,0,0,0,0,0,0,0,0,0,0,0,0,0,0,0,0,0,0,0,0,0,0,0,0,0,0,0,0,0,0,0,0,0,0,0,0,0,0,0,0,0,0,0,0,0,0,0,0,0,0,0,0,0,0,0,0,0,0,0,0,0,0,0,0,0,0,0,0,0,0,0,0,0,0,0,0,0,0,0,0,0,0,0],"id":5,"left_children":[1,3,5,7,9,11,13,15,17,19,21,23,25,27,29,31,33,35,37,39,41,43,45,47,49,51,53,55,57,-1,59,61,63,65,67,69,71,73,75,77,79,81,83,-1,-1,-1,-1,85,87,89,91,93,-1,-1,-1,95,-1,-1,-1,-1,-1,-1,-1,-1,-1,-1,-1,-1,-1,-1,-1,-1,-1,-1,-1,-1,-1,-1,-1,-1,-1,-1,-1,-1,-1,-1,-1,-1,-1,-1,-1,-1,-1,-1,-1,-1,-1],"loss_changes":[3.111193E3,5.748547E2,4.4789062E2,8.025626E1,7.926074E1,7.308533E1,6.542322E1,1.6062881E1,1.1464956E1,8.819275E0,1.053479E1,9.358704E0,1.6197754E1,6.526367E0,7.758545E0,2.3431225E0,2.1651E0,2.1949205E0,2.0758438E0,1.0428848E0,1.0256958E0,5.498047E-1,8.666992E-3,2.9187622E0,2.1605225E0,8.619019E0,1.8049316E0,1.35672E0,2.446045E0,0E0,4.0405273E-2,1.5225697E0,4.5699972E-1,5.2376556E-1,2.7254677E-1,3.035741E-1,9.395702E-1,1.2384987E0,1.9241238E-1,5.926132E-1,2.9746246E-1,5.6777954E-2,1.6883087E-1,0E0,0E0,0E0,0E0,9.539108E-1,1.505928E-1,5.0146484E-1,4.8588562E-1,2.0250854E0,0E0,0E0,0E0,7.648926E-1,0E0,0E0,0E0,0E0,0E0,0E0,0E0,0E0,0E0,0E0,0E0,0E0,0E0,0E0,0E0,0E0,0E0,0E0,0E0,0E0,0E0,0E0,0E0,0E0,0E0,0E0,0E0,0E0,0E0,0E0,0E0,0E0,0E0,0E0,0E0,0E0,0E0,0E0,0E0,0E0,0E0],"parents":[2147483647,0,0,1,1,2,2,3,3,4,4,5,5,6,6,7,7,8,8,9,9,10,10,11,11,12,12,13,13,14,14,15,15,16,16,17,17,18,18,19,19,20,20,21,21,22,22,23,23,24,24,25,25,26,26,27,27,28,28,30,30,31,31,32,32,33,33,34,34,35,35,36,36,37,37,38,38,39,39,40,40,41,41,42,42,47,47,48,48,49,49,50,50,51,51,55,55],"right_children":[2,4,6,8,10,12,14,16,18,20,22,24,26,28,30,32,34,36,38,40,42,44,46,48,50,52,54,56,58,-1,60,62,64,66,68,70,72,74,76,78,80,82,84,-1,-1,-1,-1,86,88,90,92,94,-1,-1,-1,96,-1,-1,-1,-1,-1,-1,-1,-1,-1,-1,-1,-1,-1,-1,-1,-1,-1,-1,-1,-1,-1,-1,-1,-1,-1,-1,-1,-1,-1,-1,-1,-1,-1,-1,-1,-1,-1,-1,-1,-1,-1],"split_conditions":[2.266744E0,4.076929E-1,8.101432E-1,-1.3982934E-1,3.1106713E0,3.5482174E-1,-2.7383144E-3,6.324826E-1,-1.1835014E-1,2.2631493E0,5.256111E-1,-1.3583359E-1,2.2325592E-1,-1.9472083E-2,4.3118944E0,-6.9119714E-2,1.2917471E0,-2.4692659E-1,9.880782E-2,1.3309346E0,2.947081E-1,-1.7981924E-1,6.2030606E0,1.5876689E0,-1.0863121E-1,2.6824276E0,-6.423455E-2,4.794998E0,2.037287E0,1.6667338E-1,1.7278441E0,-1.6195312E-2,-2.3839836E-1,-7.604048E-2,-1.42541E-1,-2.2596186E-1,-2.5133085E-1,3.7948556E-2,4.5930102E-1,4.818549E-1,-2.004835E-1,-2.4113399E-1,-6.9940925E-2,-4.437741E-2,-3.915578E-2,-4.960086E-2,-5.4106522E-2,-1.5405025E-1,-2.4839874E-1,-1.6624475E-1,-4.5980304E-2,-1.9320586E-1,1.0297892E-1,1.06348865E-1,1.3627388E-1,-2.7561662E-1,1.3873696E-1,1.3155821E-1,1.6466573E-1,1.9614632E-1,2.2452283E-1,1.9025763E-2,9.109572E-3,9.023275E-3,4.8049624E-4,2.539363E-2,3.320544E-2,4.3845333E-2,-0E0,1.1260864E-2,3.3432513E-3,6.53287E-3,-1.9359973E-3,-9.057288E-3,5.8361134E-3,-1.50494715E-2,-2.2767868E-2,-2.0154828E-2,-0E0,-2.1682946E-2,-2.75473E-2,-0E0,-3.050535E-2,-0E0,-3.65203E-2,3.550476E-2,4.5931317E-2,3.608291E-2,6.0780358E-2,-0E0,7.691931E-2,5.871452E-2,1.09718265E-2,7.1322285E-2,8.581632E-2,-0E0,1.13288626E-1],"split_indices":[32,51,55,50,57,22,46,54,0,51,15,40,62,46,9,45,54,2,14,51,21,34,57,54,46,9,46,9,9,0,43,26,2,27,26,62,14,23,55,32,21,2,7,0,0,0,0,22,22,5,50,62,0,0,0,51,0,0,0,0,0,0,0,0,0,0,0,0,0,0,0,0,0,0,0,0,0,0,0,0,0,0,0,0,0,0,0,0,0,0,0,0,0,0,0,0,0],"split_type":[0,0,0,0,0,0,0,0,0,0,0,0,0,0,0,0,0,0,0,0,0,0,0,0,0,0,0,0,0,0,0,0,0,0,0,0,0,0,0,0,0,0,0,0,0,0,0,0,0,0,0,0,0,0,0,0,0,0,0,0,0,0,0,0,0,0,0,0,0,0,0,0,0,0,0,0,0,0,0,0,0,0,0,0,0,0,0,0,0,0,0,0,0,0,0,0,0],"sum_hessian":[1.1442E4,9.27E3,2.172E3,3.619E3,5.651E3,1.617E3,5.55E2,1.408E3,2.211E3,2.524E3,3.127E3,8.3E2,7.87E2,3.15E2,2.4E2,8.44E2,5.64E2,9.01E2,1.31E3,1.264E3,1.26E3,1.459E3,1.668E3,5.16E2,3.14E2,6.24E2,1.63E2,1.77E2,1.38E2,7.6E1,1.64E2,6.3E2,2.14E2,4.38E2,1.26E2,2.43E2,6.58E2,9.93E2,3.17E2,6.86E2,5.78E2,7.52E2,5.08E2,1.023E3,4.36E2,3.38E2,1.33E3,4.09E2,1.07E2,1.01E2,2.13E2,4.9E2,1.34E2,1.23E2,4E1,1.26E2,5.1E1,6.5E1,7.3E1,1.03E2,6.1E1,4.45E2,1.85E2,1.17E2,9.7E1,2.27E2,2.11E2,1.24E2,2E0,1.75E2,6.8E1,1.19E2,5.39E2,9.53E2,4E1,2.56E2,6.1E1,6.79E2,7E0,2.1E2,3.68E2,1E0,7.51E2,1E0,5.07E2,2.1E2,1.99E2,1.3E1,9.4E1,1E0,1E2,2.09E2,4E0,3.18E2,1.72E2,1E0,1.25E2],"tree_param":{"num_deleted":"0","num_feature":"64","num_nodes":"97","size_leaf_vector":"1"}},{"base_weights":[-1.46133E-4,-2.3025542E-1,9.790508E-1,5.737082E-2,-4.1240457E-1,7.1912134E-1,1.6980047E0,-4.4864647E-2,2.4589083E-1,-2.9936692E-1,-5.176568E-1,5.075958E-1,9.11032E-1,1.395158E0,2.0363379E0,2.767295E-2,-1.0453676E-1,1.7016086E-1,3.4776947E-1,-2.3960856E-1,-3.597086E-1,-4.6104833E-1,-5.641952E-1,4.4645625E-1,5.947096E-1,7.9444456E-1,1.0392684E0,1.2306776E0,1.5105938E0,1.8864462E0,2.0066929E-1,-1.0571815E-2,8.419339E-2,-6.547306E-2,-1.3736957E-1,1.4256807E-1,2.8565502E-1,2.7726585E-1,4.2604873E-1,-2.0790306E-1,-2.7245995E-1,-2.8691085E-2,-4.0004125E-1,-4.4439906E-1,-4.2651083E-2,-4.9231376E-2,-4.0644627E-2,3.6865717E-1,4.904527E-1,5.4793024E-1,7.2890574E-1,7.5628084E-1,7.919458E-2,9.9739397E-1,1.0567134E-1,1.1255117E-1,9.127857E-2,1.2126773E-1,1.4239311E-1,1.22381195E-1,1.6625182E-1,1.0919908E-2,-1.6408021E-3,9.900245E-3,3.502827E-3,-6.517079E-3,6.926998E-3,-1.0949682E-2,-2.1046186E-2,1.647171E-2,9.644414E-3,2.7569016E-2,1.0218533E-2,-0E0,2.4158116E-2,4.099563E-2,3.1606156E-2,-1.8316928E-2,3.02616E-4,-0E0,-2.3640899E-2,-3.4657937E-2,-0E0,-3.848816E-2,-0E0,2.846423E-2,4.385826E-2,-0E0,4.25993E-2,3.310692E-2,5.0380554E-2,-0E0,6.3568704E-2,6.5608606E-2,-0E0,8.0229536E-2,9.374275E-2],"categories":[],"categories_nodes":[],"categories_segments":[],"categories_sizes":[],"default_left":[0,0,0,0,0,0,0,0,0,0,0,0,0,0,0,0,0,0,0,0,0,0,0,0,0,0,0,0,0,0,0,0,0,0,0,0,0,0,0,0,0,0,0,0,0,0,0,0,0,0,0,0,0,0,0,0,0,0,0,0,0,0,0,0,0,0,0,0,0,0,0,0,0,0,0,0,0,0,0,0,0,0,0,0,0,0,0,0,0,0,0,0,0,0,0,0,0],"id":6,"left_children":[1,3,5,7,9,11,13,15,17,19,21,23,25,27,29,31,33,35,37,39,41,43,45,47,49,51,53,55,57,59,-1,61,63,65,67,69,71,73,75,77,79,-1,81,83,-1,-1,-1,85,87,89,91,93,-1,95,-1,-1,-1,-1,-1,-1,-1,-1,-1,-1,-1,-1,-1,-1,-1,-1,-1,-1,-1,-1,-1,-1,-1,-1,-1,-1,-1,-1,-1,-1,-1,-1,-1,-1,-1,-1,-1,-1,-1,-1,-1,-1,-1],"loss_changes":[2.5688909E3,4.8392346E2,4.038291E2,6.908819E1,6.682092E1,6.387787E1,5.6391724E1,1.0077923E1,9.449532E0,9.519211E0,7.1210327E0,3.4542694E0,1.1317017E1,3.8793335E0,8.032715E0,2.2918935E0,1.5339108E0,2.0904942E0,2.5652695E0,1.1788254E0,1.1379242E0,1.7126465E-1,1.0559082E-1,1.0652313E0,1.1895218E0,9.904175E-1,1.5344543E0,8.392334E-3,3.9483643E-1,4.4714355E-1,0E0,6.555749E-1,4.8479652E-1,8.4343886E-1,5.9615135E-1,7.2192955E-1,5.237541E-1,1.3917732E-1,2.554512E-1,6.6272545E-1,1.7599869E-1,0E0,1.4541626E-2,3.414917E-2,0E0,0E0,0E0,4.6084976E-1,2.427063E-1,7.742691E-1,8.255768E-2,3.3207703E-1,0E0,6.5997314E-1,0E0,0E0,0E0,0E0,0E0,0E0,0E0,0E0,0E0,0E0,0E0,0E0,0E0,0E0,0E0,0E0,0E0,0E0,0E0,0E0,0E0,0E0,0E0,0E0,0E0,0E0,0E0,0E0,0E0,0E0,0E0,0E0,0E0,0E0,0E0,0E0,0E0,0E0,0E0,0E0,0E0,0E0,0E0],"parents":[2147483647,0,0,1,1,2,2,3,3,4,4,5,5,6,6,7,7,8,8,9,9,10,10,11,11,12,12,13,13,14,14,15,15,16,16,17,17,18,18,19,19,20,20,21,21,22,22,23,23,24,24,25,25,26,26,27,27,28,28,29,29,31,31,32,32,33,33,34,34,35,35,36,36,37,37,38,38,39,39,40,40,42,42,43,43,47,47,48,48,49,49,50,50,51,51,53,53],"right_children":[2,4,6,8,10,12,14,16,18,20,22,24,26,28,30,32,34,36,38,40,42,44,46,48,50,52,54,56,58,60,-1,62,64,66,68,70,72,74,76,78,80,-1,82,84,-1,-1,-1,86,88,90,92,94,-1,96,-1,-1,-1,-1,-1,-1,-1,-1,-1,-1,-1,-1,-1,-1,-1,-1,-1,-1,-1,-1,-1,-1,-1,-1,-1,-1,-1,-1,-1,-1,-1,-1,-1,-1,-1,-1,-1,-1,-1,-1,-1,-1,-1],"split_conditions":[2.266744E0,3.4994653E-1,8.693197E0,4.0662813E-1,3.482836E0,9.113059E-1,1.4305075E1,-1.1835014E-1,2.607811E0,2.441362E0,5.835114E0,-1.8103123E-1,4.498627E0,-1.9423948E-1,-2.3846932E-4,2.6264042E-1,-1.6265963E-1,6.684252E-1,3.9068602E-2,1.3309346E0,3.939694E-1,4.9619503E0,2.0590661E-2,4.529444E0,9.99499E-1,-1.481174E-1,2.5914418E-2,1.2425823E-1,2.2165372E0,-2.4230768E-1,2.0066929E-1,-1.5186388E-2,-1.0679631E-1,8.955528E-1,3.9076108E-1,-1.950755E-1,-1.1034899E-1,-2.731598E-1,-1.8452847E-1,2.165064E-1,-1.0981139E-1,-2.8691085E-2,-4.3269295E-2,1.1850414E-1,-4.2651083E-2,-4.9231376E-2,-4.0644627E-2,1.1405836E0,-2.7840728E-1,-2.6851222E-1,-2.7842855E-1,1.8962301E0,7.919458E-2,6.6782584E0,1.0567134E-1,1.1255117E-1,9.127857E-2,1.2126773E-1,1.4239311E-1,1.22381195E-1,1.6625182E-1,1.0919908E-2,-1.6408021E-3,9.900245E-3,3.502827E-3,-6.517079E-3,6.926998E-3,-1.0949682E-2,-2.1046186E-2,1.647171E-2,9.644414E-3,2.7569016E-2,1.0218533E-2,-0E0,2.4158116E-2,4.099563E-2,3.1606156E-2,-1.8316928E-2,3.02616E-4,-0E0,-2.3640899E-2,-3.4657937E-2,-0E0,-3.848816E-2,-0E0,2.846423E-2,4.385826E-2,-0E0,4.25993E-2,3.310692E-2,5.0380554E-2,-0E0,6.3568704E-2,6.5608606E-2,-0E0,8.0229536E-2,9.374275E-2],"split_indices":[32,51,63,11,57,63,63,0,11,51,57,63,63,2,46,10,51,12,16,51,21,57,2,11,12,62,56,20,9,21,0,59,45,12,55,45,38,51,63,32,25,0,11,12,0,0,0,12,39,41,9,59,0,63,0,0,0,0,0,0,0,0,0,0,0,0,0,0,0,0,0,0,0,0,0,0,0,0,0,0,0,0,0,0,0,0,0,0,0,0,0,0,0,0,0,0,0],"split_type":[0,0,0,0,0,0,0,0,0,0,0,0,0,0,0,0,0,0,0,0,0,0,0,0,0,0,0,0,0,0,0,0,0,0,0,0,0,0,0,0,0,0,0,0,0,0,0,0,0,0,0,0,0,0,0,0,0,0,0,0,0,0,0,0,0,0,0,0,0,0,0,0,0,0,0,0,0,0,0,0,0,0,0,0,0,0,0,0,0,0,0,0,0,0,0,0,0],"sum_hessian":[1.1402E4,9.233E3,2.169E3,3.579E3,5.654E3,1.594E3,5.75E2,2.319E3,1.26E3,2.729E3,2.925E3,7.6E2,8.34E2,3.05E2,2.7E2,1.043E3,1.276E3,7.26E2,5.34E2,1.376E3,1.353E3,1.326E3,1.599E3,4.51E2,3.09E2,4.4E2,3.94E2,1.29E2,1.76E2,1.79E2,9.1E1,6.17E2,4.26E2,5.9E2,6.86E2,5.9E2,1.36E2,2.85E2,2.49E2,7.09E2,6.67E2,8.05E2,5.48E2,8.83E2,4.43E2,1.518E3,8.1E1,1.68E2,2.83E2,2.33E2,7.6E1,3.39E2,1.01E2,3.24E2,7E1,8.9E1,4E1,1.01E2,7.5E1,1.4E1,1.65E2,3.2E1,5.85E2,2.45E2,1.81E2,5.56E2,3.4E1,6.27E2,5.9E1,2.26E2,3.64E2,1.11E2,2.5E1,2E0,2.83E2,1.34E2,1.15E2,6.99E2,1E1,1E0,6.66E2,5.47E2,1E0,8.82E2,1E0,1.34E2,3.4E1,1E0,2.82E2,4.3E1,1.9E2,1E0,7.5E1,3.38E2,1E0,1.83E2,1.41E2],"tree_param":{"num_deleted":"0","num_feature":"64","num_nodes":"97","size_leaf_vector":"1"}},{"base_weights":[-3.7034226E-3,-2.1913432E-1,8.549757E-1,4.0599324E-2,-3.783672E-1,6.215695E-1,1.5033319E0,-4.400663E-2,2.105031E-1,-2.59419E-1,-4.6187454E-1,4.4445452E-1,8.198107E-1,1.2148304E0,1.8023336E0,3.485824E-2,-9.743529E-2,1.5052035E-1,3.1601247E-1,-2.1415994E-1,-3.0882394E-1,-5.1328486E-1,-4.0758738E-1,5.119934E-1,3.5270777E-1,7.1905726E-1,9.204696E-1,1.2735142E0,8.870261E-2,1.6730475E0,1.832952E-1,8.837079E-2,4.650447E-3,-6.2443852E-2,-1.360499E-1,1.884618E-1,8.9305304E-2,2.64618E-1,3.7153307E-1,-1.8224002E-1,-2.3248495E-1,-2.8825718E-1,-2.8746152E-2,-4.4712055E-2,-3.370432E-2,-4.1518146E-1,-2.8045133E-2,4.793952E-1,5.8805877E-1,2.738823E-1,4.4451377E-1,6.894543E-1,7.276397E-2,8.868493E-1,9.547529E-2,9.4429635E-2,1.3129524E0,1.5061203E-1,1.254498E-1,6.088122E-3,1.3360344E-2,3.3860048E-3,-9.907194E-4,-1.2533162E-3,-6.5045385E-3,-1.0626003E-2,-1.7514134E-2,1.369367E-2,2.0134943E-2,1.03081325E-2,3.2389946E-3,2.3504246E-2,1.5281789E-3,3.2379027E-2,-0E0,-1.6349245E-2,-0E0,-1.8664619E-2,-2.3521176E-2,-0E0,-2.4973735E-2,-0E0,-3.5977826E-2,-0E0,4.1735493E-2,4.3575913E-2,5.670644E-2,2.6453234E-2,1.4302094E-2,3.4898702E-2,5.80419E-2,-0E0,5.9813548E-2,7.2679885E-2,8.455584E-2,1.13951094E-1,9.260069E-3],"categories":[],"categories_nodes":[],"categories_segments":[],"categories_sizes":[],"default_left":[0,0,0,0,0,0,0,0,0,0,0,0,0,0,0,0,0,0,0,0,0,0,0,0,0,0,0,0,0,0,0,0,0,0,0,0,0,0,0,0,0,0,0,0,0,0,0,0,0,0,0,0,0,0,0,0,0,0,0,0,0,0,0,0,0,0,0,0,0,0,0,0,0,0,0,0,0,0,0,0,0,0,0,0,0,0,0,0,0,0,0,0,0,0,0,0,0],"id":7,"left_children":[1,3,5,7,9,11,13,15,17,19,21,23,25,27,29,31,33,35,37,39,41,43,45,47,49,51,53,55,-1,57,-1,59,61,63,65,67,69,71,73,75,77,79,-1,-1,-1,81,-1,83,85,87,89,91,-1,93,-1,-1,95,-1,-1,-1,-1,-1,-1,-1,-1,-1,-1,-1,-1,-1,-1,-1,-1,-1,-1,-1,-1,-1,-1,-1,-1,-1,-1,-1,-1,-1,-1,-1,-1,-1,-1,-1,-1,-1,-1,-1,-1],"loss_changes":[2.101424E3,3.7584E2,3.4344287E2,4.9697166E1,5.555304E1,5.812213E1,4.9802124E1,9.733057E0,7.02853E0,4.9230347E0,8.708923E0,5.015915E0,6.9940796E0,1.9057007E0,9.058044E0,1.4512341E0,1.7588978E0,1.567667E0,8.3501434E-1,4.9588013E-1,1.9464111E-1,1.8719482E-1,6.180725E-1,6.4479065E-1,2.360035E0,5.0257874E-1,1.1231995E0,4.9926758E-2,0E0,8.321533E-1,0E0,2.7619362E-1,3.4582025E-1,3.9992833E-1,4.0154743E-1,3.9590645E-1,3.653643E-1,2.3370361E-1,9.137344E-2,5.569639E-1,2.4658585E-1,1.7585754E-2,0E0,0E0,0E0,2.766571E-1,0E0,2.818222E-1,1.5797806E-1,4.7054386E-1,9.958916E-1,2.5657654E-1,0E0,2.72583E-1,0E0,0E0,7.6690674E-2,0E0,0E0,0E0,0E0,0E0,0E0,0E0,0E0,0E0,0E0,0E0,0E0,0E0,0E0,0E0,0E0,0E0,0E0,0E0,0E0,0E0,0E0,0E0,0E0,0E0,0E0,0E0,0E0,0E0,0E0,0E0,0E0,0E0,0E0,0E0,0E0,0E0,0E0,0E0,0E0],"parents":[2147483647,0,0,1,1,2,2,3,3,4,4,5,5,6,6,7,7,8,8,9,9,10,10,11,11,12,12,13,13,14,14,15,15,16,16,17,17,18,18,19,19,20,20,21,21,22,22,23,23,24,24,25,25,26,26,27,27,29,29,31,31,32,32,33,33,34,34,35,35,36,36,37,37,38,38,39,39,40,40,41,41,45,45,47,47,48,48,49,49,50,50,51,51,53,53,56,56],"right_children":[2,4,6,8,10,12,14,16,18,20,22,24,26,28,30,32,34,36,38,40,42,44,46,48,50,52,54,56,-1,58,-1,60,62,64,66,68,70,72,74,76,78,80,-1,-1,-1,82,-1,84,86,88,90,92,-1,94,-1,-1,96,-1,-1,-1,-1,-1,-1,-1,-1,-1,-1,-1,-1,-1,-1,-1,-1,-1,-1,-1,-1,-1,-1,-1,-1,-1,-1,-1,-1,-1,-1,-1,-1,-1,-1,-1,-1,-1,-1,-1,-1],"split_conditions":[1.6670853E0,4.076929E-1,8.079916E0,4.0662813E-1,2.711136E0,9.113059E-1,1.30826235E1,-7.737814E-2,7.497018E-1,2.1984022E0,-2.5305325E-1,2.3930243E-1,4.139722E0,7.5474105E0,-2.3846932E-4,-2.2857678E-1,-3.3801243E-2,-1.3496491E-1,4.754237E-2,9.838403E-1,3.228654E0,-1.7713219E-1,-8.977054E-2,9.517694E-1,3.4609885E0,2.115811E0,2.5914418E-2,1.0346938E0,8.870261E-2,3.550442E-1,1.832952E-1,-1.3789317E-1,-3.9949816E-2,1.9278704E-1,4.223783E-1,-1.9951709E-1,-2.4692659E-1,-9.666006E-2,-1.3296084E-1,-4.9244147E-2,9.248523E-2,-1.6339551E-1,-2.8746152E-2,-4.4712055E-2,-3.370432E-2,-6.9940925E-2,-2.8045133E-2,-1.9320679E-1,-2.533422E-1,3.900069E-1,2.6668745E-1,-1.6624475E-1,7.276397E-2,6.6782584E0,9.547529E-2,9.4429635E-2,3.8329186E0,1.5061203E-1,1.254498E-1,6.088122E-3,1.3360344E-2,3.3860048E-3,-9.907194E-4,-1.2533162E-3,-6.5045385E-3,-1.0626003E-2,-1.7514134E-2,1.369367E-2,2.0134943E-2,1.03081325E-2,3.2389946E-3,2.3504246E-2,1.5281789E-3,3.2379027E-2,-0E0,-1.6349245E-2,-0E0,-1.8664619E-2,-2.3521176E-2,-0E0,-2.4973735E-2,-0E0,-3.5977826E-2,-0E0,4.1735493E-2,4.3575913E-2,5.670644E-2,2.6453234E-2,1.4302094E-2,3.4898702E-2,5.80419E-2,-0E0,5.9813548E-2,7.2679885E-2,8.455584E-2,1.13951094E-1,9.260069E-3],"split_indices":[32,51,63,11,57,63,63,36,54,51,60,60,63,11,46,36,14,45,16,51,51,20,20,23,32,12,56,9,0,18,0,23,45,4,55,27,2,48,50,23,18,57,0,0,0,7,0,49,9,18,8,5,0,63,0,0,22,0,0,0,0,0,0,0,0,0,0,0,0,0,0,0,0,0,0,0,0,0,0,0,0,0,0,0,0,0,0,0,0,0,0,0,0,0,0,0,0],"split_type":[0,0,0,0,0,0,0,0,0,0,0,0,0,0,0,0,0,0,0,0,0,0,0,0,0,0,0,0,0,0,0,0,0,0,0,0,0,0,0,0,0,0,0,0,0,0,0,0,0,0,0,0,0,0,0,0,0,0,0,0,0,0,0,0,0,0,0,0,0,0,0,0,0,0,0,0,0,0,0,0,0,0,0,0,0,0,0,0,0,0,0,0,0,0,0,0,0],"sum_hessian":[1.1361E4,9.083E3,2.278E3,3.451E3,5.632E3,1.676E3,6.02E2,2.302E3,1.149E3,2.326E3,3.306E3,8.87E2,7.89E2,3.08E2,2.94E2,9.26E2,1.376E3,7.36E2,4.13E2,1.22E3,1.106E3,1.692E3,1.614E3,5.07E2,3.8E2,3.98E2,3.91E2,2.32E2,7.6E1,2.11E2,8.3E1,3.28E2,5.98E2,7.29E2,6.47E2,4.49E2,2.87E2,2.2E2,1.93E2,4.56E2,7.64E2,6.01E2,5.05E2,1.643E3,4.9E1,1.473E3,1.41E2,3.61E2,1.46E2,2.08E2,1.72E2,3.25E2,7.3E1,3.34E2,5.7E1,4.5E1,1.87E2,1.59E2,5.2E1,2.64E2,6.4E1,2E2,3.98E2,1.61E2,5.68E2,5.46E2,1.01E2,2.74E2,1.75E2,1.76E2,1.11E2,2.12E2,8E0,1.91E2,2E0,4.4E2,1.6E1,5.45E2,2.19E2,1E0,6E2,2E0,1.471E3,3E0,3.58E2,6.9E1,7.7E1,1.57E2,5.1E1,1.48E2,2.4E1,1E0,3.24E2,2.25E2,1.09E2,1.86E2,1E0],"tree_param":{"num_deleted":"0","num_feature":"64","num_nodes":"97","size_leaf_vector":"1"}},{"base_weights":[1.0672292E-3,-1.5851423E-1,9.659684E-1,1.2214577E-1,-3.285646E-1,7.5408185E-1,1.5198939E0,2.6956397E-1,-9.531332E-3,-4.21262E-1,-2.1817067E-1,6.4792293E-1,9.5409155E-1,1.3313171E0,1.796265E0,1.6046216E-1,3.649412E-1,5.1158838E-2,-6.2484384E-2,-4.689584E-1,-3.71164E-1,-1.6407055E-1,-2.6942435E-1,5.6501055E-1,7.3847824E-1,8.7357914E-1,1.0538018E0,9.523165E-2,1.3935874E0,1.4401713E-1,1.7297624E-1,1.10080004E-1,2.239525E-1,3.90059E-1,2.2581135E-1,8.4130615E-2,2.29298E-3,-0E0,-7.961598E-2,-4.6933377E-1,-0E0,-3.8836074E-1,-3.3661577E-1,-1.2539607E-1,-1.87915E-1,-2.9804087E-1,-2.4134919E-1,5.765091E-1,1.1436531E-3,7.095608E-2,6.961595E-1,6.885074E-2,9.600998E-1,5.7513762E-2,9.265034E-2,1.08518586E-1,1.2812015E-1,1.18806185E-2,4.4329446E-3,1.5350719E-2,2.152538E-2,2.9757861E-2,3.9419644E-2,2.1958534E-2,1.3445068E-2,1.0975441E-2,4.666112E-3,-1.6841064E-3,3.6582092E-3,-1.3579215E-3,5.4075522E-3,-6.075479E-3,-1.3997016E-2,-4.1343797E-2,-3.7303798E-2,-0E0,-3.3640113E-2,-0E0,-2.916245E-2,-8.910742E-3,-1.44013725E-2,9.018219E-3,-1.6379027E-2,-0E0,-2.5830979E-2,-2.0936295E-2,-0E0,4.7448065E-2,5.8741122E-2,1.1832362E-2,-0E0,6.0491342E-2,-0E0,8.357514E-2,-0E0],"categories":[],"categories_nodes":[],"categories_segments":[],"categories_sizes":[],"default_left":[0,0,0,0,0,0,0,0,0,0,0,0,0,0,0,0,0,0,0,0,0,0,0,0,0,0,0,0,0,0,0,0,0,0,0,0,0,0,0,0,0,0,0,0,0,0,0,0,0,0,0,0,0,0,0,0,0,0,0,0,0,0,0,0,0,0,0,0,0,0,0,0,0,0,0,0,0,0,0,0,0,0,0,0,0,0,0,0,0,0,0,0,0,0,0],"id":8,"left_children":[1,3,5,7,9,11,13,15,17,19,21,23,25,27,29,31,33,35,37,39,41,43,45,47,49,51,53,-1,55,-1,-1,57,59,61,63,65,67,69,71,73,-1,75,77,79,81,83,85,87,89,-1,91,-1,93,-1,-1,-1,-1,-1,-1,-1,-1,-1,-1,-1,-1,-1,-1,-1,-1,-1,-1,-1,-1,-1,-1,-1,-1,-1,-1,-1,-1,-1,-1,-1,-1,-1,-1,-1,-1,-1,-1,-1,-1,-1,-1],"loss_changes":[1.7655687E3,4.6956494E2,1.8952429E2,7.215228E1,6.234784E1,2.4039612E1,2.1147095E1,1.7956627E1,6.3000207E0,7.482544E0,7.534256E0,5.027832E0,2.0303955E0,2.1771545E0,2.0090942E0,2.451313E0,2.9268494E0,1.4206505E0,1.1306539E0,1.5756226E-1,5.6993103E-1,1.0988159E0,8.62236E-1,2.3549042E0,3.354187E-1,4.4989014E-1,7.862854E-2,0E0,6.236572E-1,0E0,0E0,6.4452505E-1,1.8915558E-1,1.9348907E0,7.340336E-2,6.002312E-1,3.3524132E-1,2.2488427E-1,5.201621E-1,3.149414E-2,0E0,1.15722656E-1,9.010315E-3,3.495083E-1,3.7312126E-1,8.267212E-2,7.785034E-2,4.32312E-1,6.1705302E-2,0E0,4.6019745E-1,0E0,1.7871857E-1,0E0,0E0,0E0,0E0,0E0,0E0,0E0,0E0,0E0,0E0,0E0,0E0,0E0,0E0,0E0,0E0,0E0,0E0,0E0,0E0,0E0,0E0,0E0,0E0,0E0,0E0,0E0,0E0,0E0,0E0,0E0,0E0,0E0,0E0,0E0,0E0,0E0,0E0,0E0,0E0,0E0,0E0],"parents":[2147483647,0,0,1,1,2,2,3,3,4,4,5,5,6,6,7,7,8,8,9,9,10,10,11,11,12,12,13,13,14,14,15,15,16,16,17,17,18,18,19,19,20,20,21,21,22,22,23,23,24,24,25,25,26,26,28,28,31,31,32,32,33,33,34,34,35,35,36,36,37,37,38,38,39,39,41,41,42,42,43,43,44,44,45,45,46,46,47,47,48,48,50,50,52,52],"right_children":[2,4,6,8,10,12,14,16,18,20,22,24,26,28,30,32,34,36,38,40,42,44,46,48,50,52,54,-1,56,-1,-1,58,60,62,64,66,68,70,72,74,-1,76,78,80,82,84,86,88,90,-1,92,-1,94,-1,-1,-1,-1,-1,-1,-1,-1,-1,-1,-1,-1,-1,-1,-1,-1,-1,-1,-1,-1,-1,-1,-1,-1,-1,-1,-1,-1,-1,-1,-1,-1,-1,-1,-1,-1,-1,-1,-1,-1,-1,-1],"split_conditions":[4.7063608E-2,-1.8656697E-2,1.063686E1,-1.4739487E-1,-2.1049021E-1,5.721515E0,1.675295E1,-8.3988234E-2,-1.7936157E-1,-2.5087947E-1,1.6762571E0,2.6479106E0,1.4751337E-1,-1.4675067E-1,-1.112296E-1,1.1007274E0,6.165645E-1,-2.6391566E-1,-1.6057968E-1,-1.3903657E-1,-1.7981924E-1,4.583321E-1,-8.663453E-2,-4.3357544E-2,3.1986353E-1,-4.4112418E-2,-1.4493768E-1,9.523165E-2,2.6824276E0,1.4401713E-1,1.7297624E-1,2.342551E-1,1.416114E0,-1.2555268E-1,9.176218E-1,-2.6402172E-1,1.398381E-1,4.0687686E-1,4.5930102E-1,-2.3158473E-1,-0E0,-2.4193849E-1,-2.2618036E-1,1.4167254E-1,-2.935814E-2,-2.4582621E-1,1.2194017E-2,1.7253783E0,-1.7884445E-1,7.095608E-2,-1.0316985E-1,6.885074E-2,3.8940603E-1,5.7513762E-2,9.265034E-2,1.08518586E-1,1.2812015E-1,1.18806185E-2,4.4329446E-3,1.5350719E-2,2.152538E-2,2.9757861E-2,3.9419644E-2,2.1958534E-2,1.3445068E-2,1.0975441E-2,4.666112E-3,-1.6841064E-3,3.6582092E-3,-1.3579215E-3,5.4075522E-3,-6.075479E-3,-1.3997016E-2,-4.1343797E-2,-3.7303798E-2,-0E0,-3.3640113E-2,-0E0,-2.916245E-2,-8.910742E-3,-1.44013725E-2,9.018219E-3,-1.6379027E-2,-0E0,-2.5830979E-2,-2.0936295E-2,-0E0,4.7448065E-2,5.8741122E-2,1.1832362E-2,-0E0,6.0491342E-2,-0E0,8.357514E-2,-0E0],"split_indices":[63,51,63,45,13,63,63,27,2,60,51,63,8,2,36,10,60,41,0,9,34,51,13,36,18,12,9,0,9,0,0,26,10,14,60,2,10,10,55,20,0,18,2,18,36,16,23,12,23,0,0,0,19,0,0,0,0,0,0,0,0,0,0,0,0,0,0,0,0,0,0,0,0,0,0,0,0,0,0,0,0,0,0,0,0,0,0,0,0,0,0,0,0,0,0],"split_type":[0,0,0,0,0,0,0,0,0,0,0,0,0,0,0,0,0,0,0,0,0,0,0,0,0,0,0,0,0,0,0,0,0,0,0,0,0,0,0,0,0,0,0,0,0,0,0,0,0,0,0,0,0,0,0,0,0,0,0,0,0,0,0,0,0,0,0,0,0,0,0,0,0,0,0,0,0,0,0,0,0,0,0,0,0,0,0,0,0,0,0,0,0,0,0],"sum_hessian":[1.1463E4,9.836E3,1.627E3,3.71E3,6.126E3,1.178E3,4.49E2,1.752E3,1.958E3,3.327E3,2.799E3,7.72E2,4.06E2,2.69E2,1.8E2,8.2E2,9.32E2,9.08E2,1.05E3,1.698E3,1.629E3,1.367E3,1.432E3,4.07E2,3.65E2,2.29E2,1.77E2,6E1,2.09E2,1.12E2,6.8E1,4.62E2,3.58E2,7.86E2,1.46E2,5.36E2,3.72E2,2.25E2,8.25E2,1.696E3,2E0,1.076E3,5.53E2,5.3E2,8.37E2,6.99E2,7.33E2,3.98E2,9E0,1.19E2,2.46E2,1.25E2,1.04E2,9E0,1.68E2,8.4E1,1.25E2,3.1E2,1.52E2,1.32E2,2.26E2,4.66E2,3.2E2,9.9E1,4.7E1,2.15E2,3.21E2,2.33E2,1.39E2,1.79E2,4.6E1,7.46E2,7.9E1,1.379E3,3.17E2,1E0,1.075E3,1E0,5.52E2,3.51E2,1.79E2,2E0,8.35E2,1E0,6.98E2,7.31E2,2E0,3.17E2,8.1E1,3E0,6E0,2.45E2,1E0,1.03E2,1E0],"tree_param":{"num_deleted":"0","num_feature":"64","num_nodes":"95","size_leaf_vector":"1"}},{"base_weights":[2.279307E-3,-1.8859369E-1,6.9277024E-1,-7.0843464E-3,-3.3291322E-1,4.8058897E-1,1.2035439E0,1.1332888E-1,-9.937222E-2,-4.019785E-1,-2.5590008E-1,3.5071084E-1,6.4992505E-1,9.77222E-1,1.5088222E0,6.634734E-2,2.250917E-1,-3.6824495E-2,-1.3346268E-1,-4.27909E-1,-3.0586466E-2,-2.0450164E-1,-2.9161075E-1,3.7898317E-1,1.81713E-1,5.6149375E-1,7.279628E-1,9.497877E-2,8.988193E-1,1.3753959E0,1.7171803E0,1.0227233E-1,1.9399589E-2,2.7433577E-1,1.5823753E-1,-4.904178E-2,3.98666E-2,-9.102608E-2,-1.6265915E-1,-0E0,-4.281758E-1,-1.7106006E-1,-2.2598177E-1,-2.6626265E-1,-3.1900945E-1,3.4370515E-1,4.566727E-1,2.0244206E-1,7.638394E-2,-0E0,5.6435233E-1,7.3264144E-2,6.953387E-1,8.5212804E-2,8.0917925E-1,1.2444483E-1,9.8230146E-2,1.2697919E-1,1.561304E-1,3.8636532E-3,1.0462785E-2,-2.8780278E-6,4.1793743E-3,1.9252947E-2,2.7594589E-2,-0E0,1.3986905E-2,-1.083146E-3,-5.648876E-3,6.433989E-3,-0E0,-3.762181E-3,-8.916065E-3,-2.0044012E-2,-1.2528786E-2,-3.7070315E-2,-0E0,-0E0,-1.4919076E-2,-1.9644437E-2,-0E0,-0E0,-2.3121396E-2,-0E0,-2.775737E-2,2.5487132E-2,3.6013916E-2,3.571084E-2,4.4593796E-2,-0E0,1.7674083E-2,7.459334E-3,-0E0,4.8955593E-2,-0E0,-0E0,6.029546E-2,-0E0,7.05006E-2],"categories":[],"categories_nodes":[],"categories_segments":[],"categories_sizes":[],"default_left":[0,0,0,0,0,0,0,0,0,0,0,0,0,0,0,0,0,0,0,0,0,0,0,0,0,0,0,0,0,0,0,0,0,0,0,0,0,0,0,0,0,0,0,0,0,0,0,0,0,0,0,0,0,0,0,0,0,0,0,0,0,0,0,0,0,0,0,0,0,0,0,0,0,0,0,0,0,0,0,0,0,0,0,0,0,0,0,0,0,0,0,0,0,0,0,0,0,0,0],"id":9,"left_children":[1,3,5,7,9,11,13,15,17,19,21,23,25,27,29,31,33,35,37,39,-1,41,43,45,47,49,51,-1,53,55,57,59,61,63,65,67,69,71,73,-1,75,77,79,81,83,85,87,89,91,-1,93,-1,95,-1,97,-1,-1,-1,-1,-1,-1,-1,-1,-1,-1,-1,-1,-1,-1,-1,-1,-1,-1,-1,-1,-1,-1,-1,-1,-1,-1,-1,-1,-1,-1,-1,-1,-1,-1,-1,-1,-1,-1,-1,-1,-1,-1,-1,-1],"loss_changes":[1.5057034E3,2.3423499E2,2.6714893E2,4.4061638E1,2.6149414E1,3.7908722E1,4.843689E1,8.873793E0,4.7061806E0,2.872528E0,4.0688934E0,4.443077E0,4.464905E0,2.6557312E0,6.300049E0,1.9855785E0,1.4364872E0,7.531036E-1,1.6657429E0,2.218628E-2,0E0,4.918213E-1,6.4767456E-1,1.8789597E0,1.7467737E-1,5.1937103E-1,5.9988403E-1,0E0,8.495941E-1,1.0918274E0,1.2741089E-1,6.4742184E-1,3.2269958E-1,3.7183E-1,1.5788746E-1,3.727796E-1,1.398406E-1,2.6737928E-1,8.5417557E-1,0E0,1.5625E-2,5.7971E-2,1.5884781E-1,5.9070587E-2,3.0155182E-1,1.708252E0,1.4611435E-1,4.2504787E-2,2.2814065E-2,0E0,1.9818878E-1,0E0,9.698486E-2,0E0,4.7659302E-1,0E0,0E0,0E0,0E0,0E0,0E0,0E0,0E0,0E0,0E0,0E0,0E0,0E0,0E0,0E0,0E0,0E0,0E0,0E0,0E0,0E0,0E0,0E0,0E0,0E0,0E0,0E0,0E0,0E0,0E0,0E0,0E0,0E0,0E0,0E0,0E0,0E0,0E0,0E0,0E0,0E0,0E0,0E0,0E0],"parents":[2147483647,0,0,1,1,2,2,3,3,4,4,5,5,6,6,7,7,8,8,9,9,10,10,11,11,12,12,13,13,14,14,15,15,16,16,17,17,18,18,19,19,21,21,22,22,23,23,24,24,25,25,26,26,28,28,29,29,30,30,31,31,32,32,33,33,34,34,35,35,36,36,37,37,38,38,40,40,41,41,42,42,43,43,44,44,45,45,46,46,47,47,48,48,50,50,52,52,54,54],"right_children":[2,4,6,8,10,12,14,16,18,20,22,24,26,28,30,32,34,36,38,40,-1,42,44,46,48,50,52,-1,54,56,58,60,62,64,66,68,70,72,74,-1,76,78,80,82,84,86,88,90,92,-1,94,-1,96,-1,98,-1,-1,-1,-1,-1,-1,-1,-1,-1,-1,-1,-1,-1,-1,-1,-1,-1,-1,-1,-1,-1,-1,-1,-1,-1,-1,-1,-1,-1,-1,-1,-1,-1,-1,-1,-1,-1,-1,-1,-1,-1,-1,-1,-1],"split_conditions":[1.1764486E0,9.525048E-3,7.110624E0,-1.1731895E-1,-2.1405531E-1,6.327815E-1,1.30826235E1,1.7893853E0,6.991379E-2,-2.3564506E-1,5.746054E-2,6.848668E-1,3.3806965E0,4.199231E-1,1.1997924E0,-2.4692659E-1,-7.142006E-2,1.2499748E-1,8.740622E-3,1.4693098E-1,-3.0586466E-2,-1.8655127E-1,5.594943E-1,1.4359097E0,-7.772262E-2,-2.4206193E-1,5.9899616E0,9.497877E-2,1.2367512E0,3.550442E-1,1.0609686E0,-1.4300303E-1,-1.1776772E-1,6.1751455E-2,-1.4300303E-1,-1.4128377E-1,-1.6527791E-1,-1.605915E-1,-2.1347603E-1,-0E0,4.5435968E-1,-2.370248E-1,1.5362571E-1,3.2742158E-2,3.567952E-2,-4.1845296E-2,8.094438E-1,-2.6636913E-1,-1.5242071E-1,-0E0,7.6584303E-1,7.3264144E-2,2.7309373E-1,8.5212804E-2,-2.5193104E-1,1.2444483E-1,9.8230146E-2,1.2697919E-1,1.561304E-1,3.8636532E-3,1.0462785E-2,-2.8780278E-6,4.1793743E-3,1.9252947E-2,2.7594589E-2,-0E0,1.3986905E-2,-1.083146E-3,-5.648876E-3,6.433989E-3,-0E0,-3.762181E-3,-8.916065E-3,-2.0044012E-2,-1.2528786E-2,-3.7070315E-2,-0E0,-0E0,-1.4919076E-2,-1.9644437E-2,-0E0,-0E0,-2.3121396E-2,-0E0,-2.775737E-2,2.5487132E-2,3.6013916E-2,3.571084E-2,4.4593796E-2,-0E0,1.7674083E-2,7.459334E-3,-0E0,4.8955593E-2,-0E0,-0E0,6.029546E-2,-0E0,7.05006E-2],"split_indices":[32,43,63,36,34,63,63,11,36,60,21,60,63,18,43,2,18,11,14,21,0,21,21,54,45,14,32,0,27,18,42,24,11,16,24,14,55,62,20,0,7,62,32,24,26,14,23,1,50,0,37,0,11,0,54,0,0,0,0,0,0,0,0,0,0,0,0,0,0,0,0,0,0,0,0,0,0,0,0,0,0,0,0,0,0,0,0,0,0,0,0,0,0,0,0,0,0,0,0],"split_type":[0,0,0,0,0,0,0,0,0,0,0,0,0,0,0,0,0,0,0,0,0,0,0,0,0,0,0,0,0,0,0,0,0,0,0,0,0,0,0,0,0,0,0,0,0,0,0,0,0,0,0,0,0,0,0,0,0,0,0,0,0,0,0,0,0,0,0,0,0,0,0,0,0,0,0,0,0,0,0,0,0,0,0,0,0,0,0,0,0,0,0,0,0,0,0,0,0,0,0],"sum_hessian":[1.1422E4,8.948E3,2.474E3,3.965E3,4.983E3,1.749E3,7.25E2,1.718E3,2.247E3,2.623E3,2.36E3,9.92E2,7.57E2,4.18E2,3.07E2,1.213E3,5.05E2,7.98E2,1.449E3,1.702E3,9.21E2,9.74E2,1.386E3,8.47E2,1.45E2,3.59E2,3.98E2,1.61E2,2.57E2,1.9E2,1.17E2,6.81E2,5.32E2,2.86E2,2.19E2,6.94E2,1.04E2,5.98E2,8.51E2,2E0,1.7E3,3.91E2,5.83E2,7.31E2,6.55E2,5.88E2,2.59E2,1.17E2,2.8E1,2E0,3.57E2,8.1E1,3.17E2,1.27E2,1.3E2,1.48E2,4.2E1,3.3E1,8.4E1,1.73E2,5.08E2,3.08E2,2.24E2,1.38E2,1.48E2,3E0,2.16E2,2.23E2,4.71E2,5.5E1,4.9E1,1.29E2,4.69E2,1.69E2,6.82E2,1.699E3,1E0,4E0,3.87E2,5.81E2,2E0,4E0,7.27E2,4E0,6.51E2,3.55E2,2.33E2,1.54E2,1.05E2,1E0,1.16E2,2.5E1,3E0,3.56E2,1E0,1E0,3.16E2,1E0,1.29E2],"tree_param":{"num_deleted":"0","num_feature":"64","num_nodes":"99","size_leaf_vector":"1"}},{"base_weights":[2.4711266E-3,-1.7045712E-1,6.4472735E-1,1.12232985E-2,-2.9847202E-1,4.7628683E-1,1.1358737E0,-5.8993418E-2,1.3373925E-1,-2.2486766E-1,-3.6555564E-1,3.4740603E-1,6.3116336E-1,9.2146873E-1,1.4023185E0,2.8826175E-3,-9.247627E-2,9.304097E-2,2.3275658E-1,-2.5657102E-1,-1.781021E-1,-3.9188683E-1,-3.198796E-1,2.9189238E-1,4.3525696E-1,5.2422905E-1,7.125697E-1,7.5081605E-1,9.919061E-1,1.0089177E-1,1.4998221E0,3.1000637E-2,-3.1940516E-2,-7.494375E-2,-1.4477533E-1,1.4272569E-1,5.8564074E-2,2.727838E-1,1.6939643E-1,-2.384192E-1,-2.891204E-1,-1.799001E-1,-0E0,-3.5474715E-1,-3.457669E-2,-2.7703531E-2,-0E0,3.402284E-1,1.8789382E-1,5.049873E-1,3.801078E-1,5.231578E-2,4.340983E-1,6.4176077E-1,8.1044406E-1,8.026437E-2,6.643978E-1,6.94785E-2,9.2791796E-2,1.3665247E-1,1.1327399E-1,5.1389365E-3,1.7799421E-4,-1.2217459E-4,-5.0533125E-3,-4.439969E-3,-8.606913E-3,-0E0,-1.2675803E-2,1.0173105E-2,1.654448E-2,6.5832543E-3,1.6669741E-4,7.458258E-3,2.4357896E-2,1.5130878E-2,-0E0,-0E0,-2.0659467E-2,-0E0,-2.5164131E-2,-1.3453441E-2,-1.728559E-2,-3.6557969E-3,9.342597E-3,-0E0,-3.0796908E-2,2.9905647E-2,-0E0,1.8107647E-2,8.626579E-3,-0E0,4.388594E-2,2.480649E-2,3.740394E-2,3.7812725E-2,-0E0,4.0750723E-2,5.772685E-2,6.5089464E-2,8.2091615E-2,5.7972066E-2,-0E0],"categories":[],"categories_nodes":[],"categories_segments":[],"categories_sizes":[],"default_left":[0,0,0,0,0,0,0,0,0,0,0,0,0,0,0,0,0,0,0,0,0,0,0,0,0,0,0,0,0,0,0,0,0,0,0,0,0,0,0,0,0,0,0,0,0,0,0,0,0,0,0,0,0,0,0,0,0,0,0,0,0,0,0,0,0,0,0,0,0,0,0,0,0,0,0,0,0,0,0,0,0,0,0,0,0,0,0,0,0,0,0,0,0,0,0,0,0,0,0,0,0,0,0],"id":10,"left_children":[1,3,5,7,9,11,13,15,17,19,21,23,25,27,29,31,33,35,37,39,41,43,45,47,49,51,53,55,57,-1,59,61,63,65,67,69,71,73,75,77,79,81,83,85,-1,-1,-1,87,89,91,93,-1,95,97,99,-1,101,-1,-1,-1,-1,-1,-1,-1,-1,-1,-1,-1,-1,-1,-1,-1,-1,-1,-1,-1,-1,-1,-1,-1,-1,-1,-1,-1,-1,-1,-1,-1,-1,-1,-1,-1,-1,-1,-1,-1,-1,-1,-1,-1,-1,-1,-1],"loss_changes":[1.2613247E3,2.081911E2,1.9835822E2,3.1837414E1,2.5602356E1,3.5285156E1,3.355359E1,4.9074993E0,5.2697906E0,3.4886246E0,2.9083252E0,4.3925934E0,6.355316E0,3.027649E0,4.435547E0,8.020602E-1,1.2894087E0,1.5428953E0,7.546711E-1,5.970001E-1,3.0074692E-1,7.373047E-2,3.251648E-2,2.767292E0,9.513626E-1,1.9763565E0,2.3008575E0,6.028061E-1,2.4435272E0,0E0,8.221741E-1,3.484416E-1,2.5967956E-1,5.914388E-1,7.70421E-2,3.129382E-1,5.295963E-1,1.8740273E-1,1.391468E-1,1.5796661E-2,2.383461E-1,3.0420303E-1,4.3421328E-2,1.104393E-1,0E0,0E0,0E0,6.5639496E-1,2.1020603E-1,8.1336975E-2,6.5499306E-1,0E0,2.2570801E-1,5.0751495E-1,4.614334E-1,0E0,7.3690414E-2,0E0,0E0,0E0,0E0,0E0,0E0,0E0,0E0,0E0,0E0,0E0,0E0,0E0,0E0,0E0,0E0,0E0,0E0,0E0,0E0,0E0,0E0,0E0,0E0,0E0,0E0,0E0,0E0,0E0,0E0,0E0,0E0,0E0,0E0,0E0,0E0,0E0,0E0,0E0,0E0,0E0,0E0,0E0,0E0,0E0,0E0],"parents":[2147483647,0,0,1,1,2,2,3,3,4,4,5,5,6,6,7,7,8,8,9,9,10,10,11,11,12,12,13,13,14,14,15,15,16,16,17,17,18,18,19,19,20,20,21,21,22,22,23,23,24,24,25,25,26,26,27,27,28,28,30,30,31,31,32,32,33,33,34,34,35,35,36,36,37,37,38,38,39,39,40,40,41,41,42,42,43,43,47,47,48,48,49,49,50,50,52,52,53,53,54,54,56,56],"right_children":[2,4,6,8,10,12,14,16,18,20,22,24,26,28,30,32,34,36,38,40,42,44,46,48,50,52,54,56,58,-1,60,62,64,66,68,70,72,74,76,78,80,82,84,86,-1,-1,-1,88,90,92,94,-1,96,98,100,-1,102,-1,-1,-1,-1,-1,-1,-1,-1,-1,-1,-1,-1,-1,-1,-1,-1,-1,-1,-1,-1,-1,-1,-1,-1,-1,-1,-1,-1,-1,-1,-1,-1,-1,-1,-1,-1,-1,-1,-1,-1,-1,-1,-1,-1,-1,-1],"split_conditions":[1.3432095E0,8.172111E-1,6.8588877E-1,3.9187003E-2,8.424532E-1,2.0660669E-1,-3.7074431E-3,-1.4869669E-1,2.607811E0,-2.6064042E-2,-2.3564506E-1,-9.944421E-2,-1.5580098E-1,-7.1499065E-2,3.6193004E0,4.553364E-2,1.3689141E-1,-1.950755E-1,-7.142006E-2,5.594943E-1,4.1616517E-1,1.4252883E-1,-1.7308973E-1,4.1581044E-1,1.6390201E-1,-1.00259006E-1,-1.9090876E-1,2.0012982E-1,1.0346938E0,1.0089177E-1,2.548916E-1,5.4348433E-1,-2.4088942E-1,-1.10004775E-1,-2.4681443E-1,-1.9138072E-1,1.488919E-1,-2.7741587E-1,1.30145E-1,-2.4113399E-1,-1.0113752E-1,-1.8655127E-1,-4.726616E-2,-2.2398451E-1,-3.457669E-2,-2.7703531E-2,-0E0,6.093926E-2,-1.606831E-1,-1.1719859E-2,-9.460579E-2,5.231578E-2,1.2216403E0,-2.4089192E-1,8.4188485E-1,8.026437E-2,2.533181E0,6.94785E-2,9.2791796E-2,1.3665247E-1,1.1327399E-1,5.1389365E-3,1.7799421E-4,-1.2217459E-4,-5.0533125E-3,-4.439969E-3,-8.606913E-3,-0E0,-1.2675803E-2,1.0173105E-2,1.654448E-2,6.5832543E-3,1.6669741E-4,7.458258E-3,2.4357896E-2,1.5130878E-2,-0E0,-0E0,-2.0659467E-2,-0E0,-2.5164131E-2,-1.3453441E-2,-1.728559E-2,-3.6557969E-3,9.342597E-3,-0E0,-3.0796908E-2,2.9905647E-2,-0E0,1.8107647E-2,8.626579E-3,-0E0,4.388594E-2,2.480649E-2,3.740394E-2,3.7812725E-2,-0E0,4.0750723E-2,5.772685E-2,6.5089464E-2,8.2091615E-2,5.7972066E-2,-0E0],"split_indices":[32,51,55,11,46,61,46,2,11,13,60,22,55,46,9,48,14,45,18,21,8,6,13,60,18,46,46,49,9,0,8,26,51,51,41,27,45,48,13,2,56,21,40,28,0,0,0,31,55,27,61,0,14,9,58,0,2,0,0,0,0,0,0,0,0,0,0,0,0,0,0,0,0,0,0,0,0,0,0,0,0,0,0,0,0,0,0,0,0,0,0,0,0,0,0,0,0,0,0,0,0,0,0],"split_type":[0,0,0,0,0,0,0,0,0,0,0,0,0,0,0,0,0,0,0,0,0,0,0,0,0,0,0,0,0,0,0,0,0,0,0,0,0,0,0,0,0,0,0,0,0,0,0,0,0,0,0,0,0,0,0,0,0,0,0,0,0,0,0,0,0,0,0,0,0,0,0,0,0,0,0,0,0,0,0,0,0,0,0,0,0,0,0,0,0,0,0,0,0,0,0,0,0,0,0,0,0,0,0],"sum_hessian":[1.1354E4,8.945E3,2.409E3,3.696E3,5.249E3,1.795E3,6.14E2,2.347E3,1.349E3,2.507E3,2.742E3,9.82E2,8.13E2,3.42E2,2.72E2,8.19E2,1.528E3,9.6E2,3.89E2,1.487E3,1.02E3,1.731E3,1.011E3,6.06E2,3.76E2,3.55E2,4.58E2,1.03E2,2.39E2,8.2E1,1.9E2,4.61E2,3.58E2,1.152E3,3.76E2,3.87E2,5.73E2,2.33E2,1.56E2,9.66E2,5.21E2,1.009E3,1.1E1,3.08E2,1.423E3,1.01E3,1E0,4.1E2,1.96E2,1.61E2,2.15E2,1.84E2,1.71E2,2.7E2,1.88E2,3.1E1,7.2E1,7.4E1,1.65E2,1.31E2,5.9E1,2.24E2,2.37E2,1.75E2,1.83E2,5.97E2,5.55E2,5E0,3.71E2,2.62E2,1.25E2,4.31E2,1.42E2,1.3E1,2.2E2,1.51E2,5E0,2E0,9.64E2,3E0,5.18E2,4.64E2,5.45E2,9E0,2E0,1E0,3.07E2,4.03E2,7E0,1.53E2,4.3E1,1E0,1.6E2,8.1E1,1.34E2,1.7E2,1E0,3.8E1,2.32E2,1.36E2,5.2E1,7.1E1,1E0],"tree_param":{"num_deleted":"0","num_feature":"64","num_nodes":"103","size_leaf_vector":"1"}},{"base_weights":[1.8481157E-3,-1.4082341E-1,6.5186155E-1,5.0014008E-2,-2.6077914E-1,4.7993505E-1,1.0902917E0,-2.1148724E-2,1.7101322E-1,-3.2142445E-1,-1.7771941E-1,3.7799388E-1,6.353896E-1,9.2905164E-1,1.3476263E0,3.8204044E-2,-5.6983E-2,1.3381906E-1,2.7992514E-1,-2.811498E-1,-3.5596964E-1,-2.0840098E-1,-1.404528E-1,2.9490435E-1,4.2692733E-1,5.817008E-1,7.236326E-1,8.317711E-1,1.0486145E0,9.508437E-2,1.428985E0,2.8692663E-2,1.5477988E-1,-3.504267E-2,-8.707435E-2,1.1022113E-1,1.7960496E-1,2.455555E-1,3.5805103E-1,-2.5321996E-2,-2.4761301E-1,-3.6006925E-1,-2.5740622E-2,9.364091E-2,-2.0925067E-1,-1.4229447E-1,4.916889E-2,3.1680036E-1,1.6133198E-1,3.9168066E-1,5.0084E-1,6.1816975E-2,5.459619E-1,6.8287775E-2,5.2258465E-2,7.810243E-2,6.1104957E-2,1.0521466E0,1.315872E-4,1.3947684E-1,1.1662392E-1,5.5080308E-3,7.6191564E-4,-0E0,1.5208604E-2,-1.1532601E-3,-4.61693E-3,-6.6547617E-3,-1.3154094E-2,7.923849E-3,1.3887411E-2,2.284509E-2,1.4086011E-2,2.1548672E-2,-0E0,-0E0,3.117942E-2,-0E0,-2.149322E-2,-0E0,-3.117497E-2,-0E0,1.5028346E-2,-1.5995648E-2,-1.9265415E-2,-1.272828E-2,-6.7879013E-3,-0E0,9.318515E-3,3.3804946E-2,2.5147248E-2,-0E0,1.567274E-2,1.8130839E-2,3.5000447E-2,-0E0,4.391762E-2,4.7504857E-2,-0E0,1.9357317E-3,9.135748E-2],"categories":[],"categories_nodes":[],"categories_segments":[],"categories_sizes":[],"default_left":[0,0,0,0,0,0,0,0,0,0,0,0,0,0,0,0,0,0,0,0,0,0,0,0,0,0,0,0,0,0,0,0,0,0,0,0,0,0,0,0,0,0,0,0,0,0,0,0,0,0,0,0,0,0,0,0,0,0,0,0,0,0,0,0,0,0,0,0,0,0,0,0,0,0,0,0,0,0,0,0,0,0,0,0,0,0,0,0,0,0,0,0,0,0,0,0,0,0,0,0,0],"id":11,"left_children":[1,3,5,7,9,11,13,15,17,19,21,23,25,27,29,31,33,35,37,39,41,43,45,47,49,51,53,55,57,-1,59,61,63,65,67,69,71,73,75,-1,77,79,-1,81,83,85,87,89,91,93,95,-1,97,-1,-1,-1,-1,99,-1,-1,-1,-1,-1,-1,-1,-1,-1,-1,-1,-1,-1,-1,-1,-1,-1,-1,-1,-1,-1,-1,-1,-1,-1,-1,-1,-1,-1,-1,-1,-1,-1,-1,-1,-1,-1,-1,-1,-1,-1,-1,-1],"loss_changes":[1.0615142E3,2.149111E2,1.5436646E2,3.124831E1,2.8766693E1,2.2900757E1,2.253247E1,4.853456E0,5.2256203E0,4.283905E0,2.6043015E0,3.2532654E0,1.9954529E0,2.9739685E0,2.7590637E0,8.5294807E-1,8.796873E-1,9.3685913E-1,5.8330536E-1,3.025055E-1,7.060242E-2,4.0399933E-1,4.35215E-1,7.3459625E-1,9.58992E-1,1.0034637E0,8.616104E-1,8.000488E-1,6.0150146E-2,0E0,3.2492065E-1,5.1471996E-1,1.3945508E-1,2.9842353E-1,2.7417755E-1,5.004797E-1,2.5124454E-1,2.2034359E-1,2.5403023E-2,0E0,2.1562576E-2,2.3223877E-2,0E0,1.9073421E-2,2.185173E-1,2.2010803E-1,2.9799836E-2,1.8330765E-1,1.5022421E-1,5.6349564E-1,3.917427E-1,0E0,3.3570862E-1,0E0,0E0,0E0,0E0,7.461548E-3,0E0,0E0,0E0,0E0,0E0,0E0,0E0,0E0,0E0,0E0,0E0,0E0,0E0,0E0,0E0,0E0,0E0,0E0,0E0,0E0,0E0,0E0,0E0,0E0,0E0,0E0,0E0,0E0,0E0,0E0,0E0,0E0,0E0,0E0,0E0,0E0,0E0,0E0,0E0,0E0,0E0,0E0,0E0],"parents":[2147483647,0,0,1,1,2,2,3,3,4,4,5,5,6,6,7,7,8,8,9,9,10,10,11,11,12,12,13,13,14,14,15,15,16,16,17,17,18,18,19,19,20,20,21,21,22,22,23,23,24,24,25,25,26,26,27,27,28,28,30,30,31,31,32,32,33,33,34,34,35,35,36,36,37,37,38,38,40,40,41,41,43,43,44,44,45,45,46,46,47,47,48,48,49,49,50,50,52,52,57,57],"right_children":[2,4,6,8,10,12,14,16,18,20,22,24,26,28,30,32,34,36,38,40,42,44,46,48,50,52,54,56,58,-1,60,62,64,66,68,70,72,74,76,-1,78,80,-1,82,84,86,88,90,92,94,96,-1,98,-1,-1,-1,-1,100,-1,-1,-1,-1,-1,-1,-1,-1,-1,-1,-1,-1,-1,-1,-1,-1,-1,-1,-1,-1,-1,-1,-1,-1,-1,-1,-1,-1,-1,-1,-1,-1,-1,-1,-1,-1,-1,-1,-1,-1,-1,-1,-1],"split_conditions":[2.8957455E0,2.5253776E-1,8.693197E0,5.4926413E-1,-2.1049021E-1,2.9757137E0,1.5334854E1,-1.1731895E-1,1.0258766E0,4.41131E-1,7.3728636E-2,-1.8103123E-1,7.065571E-2,2.0312977E-1,5.4016185E-1,4.1078147E-1,-3.1127905E-2,2.607811E0,3.2065344E-1,-1.3741885E-1,-1.4120235E-1,-5.8537178E-2,5.0638056E-1,6.3403493E-1,1.8911241E0,5.4994047E-1,1.5599522E-1,1.2367512E0,2.4842939E-1,9.508437E-2,-1.4224714E-1,-2.565497E-1,-2.3395449E-1,3.8815513E-1,5.4085094E-1,-1.0191543E-1,6.417968E-2,-9.666006E-2,-2.7290437E-1,-2.5321996E-2,-2.6805845E-1,6.148525E-3,-2.5740622E-2,-2.7727712E-2,2.5918398E0,3.2916906E-1,-4.4768057E-3,-3.8554624E-2,-2.6551625E-1,3.9791152E0,-1.5415907E-1,6.1816975E-2,-1.0316985E-1,6.8287775E-2,5.2258465E-2,7.810243E-2,6.1104957E-2,-2.166962E-1,1.315872E-4,1.3947684E-1,1.1662392E-1,5.5080308E-3,7.6191564E-4,-0E0,1.5208604E-2,-1.1532601E-3,-4.61693E-3,-6.6547617E-3,-1.3154094E-2,7.923849E-3,1.3887411E-2,2.284509E-2,1.4086011E-2,2.1548672E-2,-0E0,-0E0,3.117942E-2,-0E0,-2.149322E-2,-0E0,-3.117497E-2,-0E0,1.5028346E-2,-1.5995648E-2,-1.9265415E-2,-1.272828E-2,-6.7879013E-3,-0E0,9.318515E-3,3.3804946E-2,2.5147248E-2,-0E0,1.567274E-2,1.8130839E-2,3.5000447E-2,-0E0,4.391762E-2,4.7504857E-2,-0E0,1.9357317E-3,9.135748E-2],"split_indices":[32,51,63,11,13,63,63,36,54,15,13,63,62,56,43,23,14,11,27,34,39,36,54,60,23,49,30,27,15,0,8,2,11,4,55,23,60,48,23,0,60,36,0,0,51,8,20,56,20,11,14,0,0,0,0,0,0,2,0,0,0,0,0,0,0,0,0,0,0,0,0,0,0,0,0,0,0,0,0,0,0,0,0,0,0,0,0,0,0,0,0,0,0,0,0,0,0,0,0,0,0],"split_type":[0,0,0,0,0,0,0,0,0,0,0,0,0,0,0,0,0,0,0,0,0,0,0,0,0,0,0,0,0,0,0,0,0,0,0,0,0,0,0,0,0,0,0,0,0,0,0,0,0,0,0,0,0,0,0,0,0,0,0,0,0,0,0,0,0,0,0,0,0,0,0,0,0,0,0,0,0,0,0,0,0,0,0,0,0,0,0,0,0,0,0,0,0,0,0,0,0,0,0,0,0],"sum_hessian":[1.1443E4,9.383E3,2.06E3,3.62E3,5.763E3,1.481E3,5.79E2,2.277E3,1.343E3,3.327E3,2.436E3,8.97E2,5.84E2,3.58E2,2.21E2,8.52E2,1.425E3,1.005E3,3.38E2,1.544E3,1.783E3,1.328E3,1.108E3,3.37E2,5.6E2,3.68E2,2.16E2,2.01E2,1.57E2,5.7E1,1.64E2,7.92E2,6E1,8.34E2,5.91E2,6.71E2,3.34E2,2.4E2,9.8E1,1.139E3,4.05E2,1.657E3,1.26E2,2E0,1.326E3,1.1E3,8E0,2.86E2,5.1E1,3.85E2,1.75E2,7.4E1,2.94E2,1.36E2,8E1,1.25E2,7.6E1,1.56E2,1E0,4.7E1,1.17E2,2.78E2,5.14E2,9E0,5.1E1,3.94E2,4.4E2,5.18E2,7.3E1,4.97E2,1.74E2,5E1,2.84E2,2.37E2,3E0,1E0,9.7E1,2E0,4.03E2,1E0,1.656E3,1E0,1E0,4.83E2,8.43E2,1.016E3,8.4E1,4E0,4E0,6.9E1,2.17E2,6E0,4.5E1,2.8E1,3.57E2,3E0,1.72E2,2.92E2,2E0,1E0,1.55E2],"tree_param":{"num_deleted":"0","num_feature":"64","num_nodes":"101","size_leaf_vector":"1"}},{"base_weights":[-3.4779156E-4,-1.4543325E-1,5.300051E-1,-8.492816E-3,-2.5626957E-1,3.596423E-1,9.114158E-1,-6.993765E-2,1.0280318E-1,-1.9848442E-1,-3.1092408E-1,2.6782054E-1,4.8606697E-1,7.431056E-1,1.1528751E0,-2.1084998E-2,-1.1158815E-1,6.946325E-2,2.0010523E-1,-1.6353074E-1,-2.2849205E-1,-2.842184E-1,-2.8963964E-2,3.2280043E-1,2.1019298E-1,4.3576676E-1,5.4776955E-1,6.6377556E-1,8.2879376E-1,1.0594482E0,1.17745005E-1,-2.9434947E-2,6.462462E-2,-8.192231E-2,-1.379263E-1,5.0029382E-2,1.1146878E-1,1.5262294E-1,2.2681518E-1,-1.8351492E-1,-1.2934576E-1,6.2216623E-3,-2.2978935E-1,-2.612075E-2,-2.68204E-1,2.9295504E-1,3.8970768E-1,1.938061E-1,3.273473E-2,4.483503E-1,2.2536166E-1,6.558053E-1,5.1221526E-1,6.405083E-2,5.9105873E-1,7.498982E-2,5.530737E-2,7.7166304E-2,9.819435E-2,-4.885983E-4,-4.1779876E-3,1.4155237E-2,1.507889E-3,-1.9207054E-3,-7.6932334E-3,-1.7436419E-2,-1.1048178E-2,5.759239E-3,1.4004372E-3,8.4336E-3,1.4512546E-2,1.3325217E-2,-0E0,-0E0,2.0023746E-2,-1.251329E-2,-1.7082382E-2,-0E0,-1.1458132E-2,-0E0,9.426681E-3,-1.7754158E-2,-2.1537947E-2,-0E0,-2.324914E-2,2.5783798E-2,-0E0,-0E0,3.3999514E-2,1.4100467E-2,2.246704E-2,-0E0,3.8924266E-2,-0E0,2.5200369E-2,5.7243824E-2,-0E0,4.4552967E-2,-0E0,7.640032E-4,5.1620528E-2],"categories":[],"categories_nodes":[],"categories_segments":[],"categories_sizes":[],"default_left":[0,0,0,0,0,0,0,0,0,0,0,0,0,0,0,0,0,0,0,0,0,0,0,0,0,0,0,0,0,0,0,0,0,0,0,0,0,0,0,0,0,0,0,0,0,0,0,0,0,0,0,0,0,0,0,0,0,0,0,0,0,0,0,0,0,0,0,0,0,0,0,0,0,0,0,0,0,0,0,0,0,0,0,0,0,0,0,0,0,0,0,0,0,0,0,0,0,0,0,0,0],"id":12,"left_children":[1,3,5,7,9,11,13,15,17,19,21,23,25,27,29,31,33,35,37,39,41,43,-1,45,47,49,51,53,55,57,-1,59,61,63,65,67,69,71,73,75,77,79,81,-1,83,85,87,89,-1,91,93,95,97,-1,99,-1,-1,-1,-1,-1,-1,-1,-1,-1,-1,-1,-1,-1,-1,-1,-1,-1,-1,-1,-1,-1,-1,-1,-1,-1,-1,-1,-1,-1,-1,-1,-1,-1,-1,-1,-1,-1,-1,-1,-1,-1,-1,-1,-1,-1,-1],"loss_changes":[8.799703E2,1.3620154E2,1.5887842E2,2.7479008E1,1.5401459E1,1.9314255E1,2.9580261E1,5.2103634E0,4.492708E0,2.330284E0,1.2780151E0,2.844017E0,1.6521606E0,2.1430206E0,4.3655396E0,8.414768E-1,9.772835E-1,7.897134E-1,2.5883484E-1,6.068554E-1,5.0450134E-1,3.413391E-2,0E0,6.269226E-1,1.0366955E0,6.9083405E-1,5.281143E-1,5.256424E-1,5.975647E-1,1.4189606E0,0E0,4.6544856E-1,3.8266912E-1,2.2127724E-1,3.0556583E-1,3.7143576E-1,1.235733E-1,3.259206E-2,2.5042057E-1,2.000618E-1,1.4584589E-1,2.7104622E-2,3.6507416E-1,0E0,7.3711395E-2,4.9840927E-1,5.398369E-2,6.871033E-1,0E0,2.613449E-1,3.513534E-1,1.02586746E-1,1.02500916E-1,0E0,9.379959E-2,0E0,0E0,0E0,0E0,0E0,0E0,0E0,0E0,0E0,0E0,0E0,0E0,0E0,0E0,0E0,0E0,0E0,0E0,0E0,0E0,0E0,0E0,0E0,0E0,0E0,0E0,0E0,0E0,0E0,0E0,0E0,0E0,0E0,0E0,0E0,0E0,0E0,0E0,0E0,0E0,0E0,0E0,0E0,0E0,0E0,0E0],"parents":[2147483647,0,0,1,1,2,2,3,3,4,4,5,5,6,6,7,7,8,8,9,9,10,10,11,11,12,12,13,13,14,14,15,15,16,16,17,17,18,18,19,19,20,20,21,21,23,23,24,24,25,25,26,26,27,27,28,28,29,29,31,31,32,32,33,33,34,34,35,35,36,36,37,37,38,38,39,39,40,40,41,41,42,42,44,44,45,45,46,46,47,47,49,49,50,50,51,51,52,52,54,54],"right_children":[2,4,6,8,10,12,14,16,18,20,22,24,26,28,30,32,34,36,38,40,42,44,-1,46,48,50,52,54,56,58,-1,60,62,64,66,68,70,72,74,76,78,80,82,-1,84,86,88,90,-1,92,94,96,98,-1,100,-1,-1,-1,-1,-1,-1,-1,-1,-1,-1,-1,-1,-1,-1,-1,-1,-1,-1,-1,-1,-1,-1,-1,-1,-1,-1,-1,-1,-1,-1,-1,-1,-1,-1,-1,-1,-1,-1,-1,-1,-1,-1,-1,-1,-1,-1],"split_conditions":[1.1764486E0,5.7109008E-3,6.6782584E0,2.6264042E-1,4.1880774E0,6.327815E-1,1.30826235E1,9.252163E-2,1.416114E0,1.5695767E0,6.2030606E0,2.0493746E-1,3.6888444E0,-7.4400045E-2,2.076886E1,9.1664195E-2,9.880782E-2,8.2658905E-1,-1.7328463E-1,-6.0614944E-2,-1.0113752E-1,-1.6923955E-1,-2.8963964E-2,9.517694E-1,3.7477086E0,-1.23120725E-1,6.110048E0,1.4014223E0,-1.6215732E-2,2.4292295E-1,1.17745005E-1,-1.3815348E-1,2.1050084E-1,-1.6746967E-1,-2.4890332E-1,-2.2222027E-2,2.817845E-1,2.4939473E-1,-2.0820773E-1,-9.2273206E-2,-2.7025577E-1,2.3138602E-1,5.594943E-1,-2.612075E-2,-2.4193849E-1,-6.4581353E-3,-2.4982102E-1,5.279944E-1,3.273473E-2,-2.78445E-1,-1.5242071E-1,5.593532E-1,2.955141E-1,6.405083E-2,-2.762819E-1,7.498982E-2,5.530737E-2,7.7166304E-2,9.819435E-2,-4.885983E-4,-4.1779876E-3,1.4155237E-2,1.507889E-3,-1.9207054E-3,-7.6932334E-3,-1.7436419E-2,-1.1048178E-2,5.759239E-3,1.4004372E-3,8.4336E-3,1.4512546E-2,1.3325217E-2,-0E0,-0E0,2.0023746E-2,-1.251329E-2,-1.7082382E-2,-0E0,-1.1458132E-2,-0E0,9.426681E-3,-1.7754158E-2,-2.1537947E-2,-0E0,-2.324914E-2,2.5783798E-2,-0E0,-0E0,3.3999514E-2,1.4100467E-2,2.246704E-2,-0E0,3.8924266E-2,-0E0,2.5200369E-2,5.7243824E-2,-0E0,4.4552967E-2,-0E0,7.640032E-4,5.1620528E-2],"split_indices":[32,57,63,10,57,63,63,36,10,57,57,60,63,46,63,32,14,10,27,12,56,61,0,23,23,4,32,27,30,56,0,14,18,14,20,50,32,23,16,21,37,3,21,0,18,19,20,46,0,9,50,30,19,0,4,0,0,0,0,0,0,0,0,0,0,0,0,0,0,0,0,0,0,0,0,0,0,0,0,0,0,0,0,0,0,0,0,0,0,0,0,0,0,0,0,0,0,0,0,0,0],"split_type":[0,0,0,0,0,0,0,0,0,0,0,0,0,0,0,0,0,0,0,0,0,0,0,0,0,0,0,0,0,0,0,0,0,0,0,0,0,0,0,0,0,0,0,0,0,0,0,0,0,0,0,0,0,0,0,0,0,0,0,0,0,0,0,0,0,0,0,0,0,0,0,0,0,0,0,0,0,0,0,0,0,0,0,0,0,0,0,0,0,0,0,0,0,0,0,0,0,0,0,0,0],"sum_hessian":[1.1438E4,8.982E3,2.456E3,4.02E3,4.962E3,1.699E3,7.57E2,2.593E3,1.427E3,2.417E3,2.545E3,9.87E2,7.12E2,4.48E2,3.09E2,1.199E3,1.394E3,1.067E3,3.6E2,1.125E3,1.292E3,1.209E3,1.336E3,5E2,4.87E2,3.98E2,3.14E2,2.37E2,2.11E2,2.16E2,9.3E1,1.098E3,1.01E2,6.65E2,7.29E2,7.38E2,3.29E2,1.37E2,2.23E2,7E2,4.25E2,5E0,1.287E3,5.59E2,6.5E2,3.52E2,1.48E2,4.47E2,4E1,3.73E2,2.5E1,7.3E1,2.41E2,1.11E2,1.26E2,1.73E2,3.8E1,7E1,1.46E2,4.97E2,6.01E2,2.9E1,7.2E1,7.7E1,5.88E2,9.4E1,6.35E2,4.86E2,2.52E2,2.71E2,5.8E1,1.36E2,1E0,4E0,2.19E2,1.94E2,5.06E2,1.1E1,4.14E2,3E0,2E0,5.74E2,7.13E2,1E0,6.49E2,3.46E2,6E0,2E0,1.46E2,3.1E2,1.37E2,1E0,3.72E2,6E0,1.9E1,7.2E1,1E0,2.39E2,2E0,2E0,1.24E2],"tree_param":{"num_deleted":"0","num_feature":"64","num_nodes":"101","size_leaf_vector":"1"}},{"base_weights":[6.4453785E-4,-1.3518497E-1,4.7676095E-1,-9.273917E-3,-2.3262195E-1,3.578545E-1,9.136594E-1,7.462291E-2,-6.976341E-2,-1.7591016E-1,-2.799907E-1,2.4461356E-1,4.8000094E-1,1.121015E0,7.5811493E-1,4.250632E-2,1.6357113E-1,-3.9072197E-2,-1.0566289E-1,-1.2878788E-1,-1.9455065E-1,-2.9715034E-1,-2.4391477E-1,2.0625024E-1,3.3102855E-1,4.3967453E-1,6.4795774E-1,8.925118E-2,1.2963476E0,7.1028084E-1,8.163213E-2,2.058307E-2,7.3864475E-2,1.409961E-1,2.3484571E-1,-1.6798707E-2,-6.4598545E-2,-9.019909E-2,-1.4809753E-1,-1.017829E-4,-1.3058893E-1,-1.7977384E-1,-2.2101775E-1,-2.6559713E-1,-2.6402323E-2,-2.4450122E-1,-0E0,1.7006023E-1,2.8922275E-1,3.1579143E-1,5.34915E-1,3.8899565E-1,5.3391457E-1,4.9520916E-1,7.051439E-1,-0E0,1.1315182E-1,7.6757574E-1,6.1770606E-1,1.1974851E-3,1.0757235E-2,4.791344E-3,7.7917636E-3,1.24254795E-2,-0E0,2.058706E-2,-0E0,6.1657623E-4,-3.742424E-3,-4.1808933E-3,-7.2269044E-3,-2.8563612E-3,-8.608809E-3,-9.908452E-3,-1.5635436E-2,-1.0375066E-2,-1.3361641E-2,-1.5612314E-2,-0E0,-0E0,-1.9229941E-2,-2.3022497E-2,-0E0,-5.0344504E-3,-2.1257494E-2,1.7535595E-2,1.0141698E-2,2.161473E-2,3.201948E-2,1.2666836E-2,2.7945673E-2,-0E0,4.7570497E-2,4.0134754E-2,3.0752515E-2,4.380513E-2,6.149856E-2,4.3286417E-2,-0E0,7.410209E-2,5.534836E-2,-0E0,6.6738605E-2,-0E0,5.398995E-2],"categories":[],"categories_nodes":[],"categories_segments":[],"categories_sizes":[],"default_left":[0,0,0,0,0,0,0,0,0,0,0,0,0,0,0,0,0,0,0,0,0,0,0,0,0,0,0,0,0,0,0,0,0,0,0,0,0,0,0,0,0,0,0,0,0,0,0,0,0,0,0,0,0,0,0,0,0,0,0,0,0,0,0,0,0,0,0,0,0,0,0,0,0,0,0,0,0,0,0,0,0,0,0,0,0,0,0,0,0,0,0,0,0,0,0,0,0,0,0,0,0,0,0,0,0],"id":13,"left_children":[1,3,5,7,9,11,13,15,17,19,21,23,25,27,29,31,33,35,37,39,41,43,45,47,49,51,53,-1,55,57,-1,59,61,63,65,67,69,71,73,-1,75,77,79,81,-1,83,-1,85,87,89,91,93,95,97,99,-1,-1,101,103,-1,-1,-1,-1,-1,-1,-1,-1,-1,-1,-1,-1,-1,-1,-1,-1,-1,-1,-1,-1,-1,-1,-1,-1,-1,-1,-1,-1,-1,-1,-1,-1,-1,-1,-1,-1,-1,-1,-1,-1,-1,-1,-1,-1,-1,-1],"loss_changes":[7.426918E2,1.0946472E2,1.3170874E2,1.9787645E1,1.3280914E1,2.7343445E1,1.6369202E1,4.5532846E0,2.4274864E0,1.849556E0,1.4050293E0,3.172367E0,5.8937683E0,2.086853E0,1.7533417E0,7.7937937E-1,4.9326515E-1,6.594857E-1,5.594435E-1,8.6318016E-2,4.3012238E-1,1.5322876E-1,7.653046E-2,1.9419155E0,5.108681E-1,3.2027283E0,9.019928E-1,0E0,4.504242E-1,5.0984955E-1,0E0,4.330895E-1,7.173395E-2,9.787989E-2,2.5671959E-2,4.4068986E-1,1.07061625E-1,3.4180927E-1,1.4139843E-1,0E0,2.353096E-2,1.3686752E-1,1.4818954E-1,1.2205124E-2,0E0,2.9426575E-2,0E0,7.147064E-1,3.5511017E-1,1.1102486E-1,5.9957504E-3,8.319092E-1,6.065674E-1,1.1130333E-2,3.867798E-1,0E0,0E0,2.2624207E-1,3.7765884E-1,0E0,0E0,0E0,0E0,0E0,0E0,0E0,0E0,0E0,0E0,0E0,0E0,0E0,0E0,0E0,0E0,0E0,0E0,0E0,0E0,0E0,0E0,0E0,0E0,0E0,0E0,0E0,0E0,0E0,0E0,0E0,0E0,0E0,0E0,0E0,0E0,0E0,0E0,0E0,0E0,0E0,0E0,0E0,0E0,0E0,0E0],"parents":[2147483647,0,0,1,1,2,2,3,3,4,4,5,5,6,6,7,7,8,8,9,9,10,10,11,11,12,12,13,13,14,14,15,15,16,16,17,17,18,18,19,19,20,20,21,21,22,22,23,23,24,24,25,25,26,26,28,28,29,29,31,31,32,32,33,33,34,34,35,35,36,36,37,37,38,38,40,40,41,41,42,42,43,43,45,45,47,47,48,48,49,49,50,50,51,51,52,52,53,53,54,54,57,57,58,58],"right_children":[2,4,6,8,10,12,14,16,18,20,22,24,26,28,30,32,34,36,38,40,42,44,46,48,50,52,54,-1,56,58,-1,60,62,64,66,68,70,72,74,-1,76,78,80,82,-1,84,-1,86,88,90,92,94,96,98,100,-1,-1,102,104,-1,-1,-1,-1,-1,-1,-1,-1,-1,-1,-1,-1,-1,-1,-1,-1,-1,-1,-1,-1,-1,-1,-1,-1,-1,-1,-1,-1,-1,-1,-1,-1,-1,-1,-1,-1,-1,-1,-1,-1,-1,-1,-1,-1,-1,-1],"split_conditions":[8.324646E-1,9.525048E-3,8.101432E-1,-1.1731895E-1,3.8882053E0,1.16902865E-1,1.7895132E-2,1.1574341E0,1.6971495E-3,-8.59587E-2,5.4105166E-3,1.3484837E0,1.88172E-1,1.4745802E0,6.9165844E-1,5.178838E-1,2.2399151E0,2.6824868E-1,2.0228468E-1,-2.1363162E-1,5.594943E-1,1.2543278E0,-1.16553426E-1,4.054466E0,1.8418176E-1,1.7189732E0,2.9413882E-1,8.925118E-2,3.610107E-1,9.434973E-1,8.163213E-2,4.1078147E-1,-2.5860453E-1,-3.9668635E-2,-1.9452387E-1,5.3816146E-1,-1.4023004E-1,6.991379E-2,-1.9744237E-1,-1.017829E-4,1.18284255E-1,3.177394E-1,-1.0113752E-1,5.038711E-1,-2.6402323E-2,2.0298274E-1,-0E0,2.0157488E-1,-2.0295116E-1,-2.7767947E-1,-2.7836016E-1,-1.1803496E-1,3.972234E0,-1.5929292E-1,1.0769852E0,-0E0,1.1315182E-1,4.0662813E-1,-2.762819E-1,1.1974851E-3,1.0757235E-2,4.791344E-3,7.7917636E-3,1.24254795E-2,-0E0,2.058706E-2,-0E0,6.1657623E-4,-3.742424E-3,-4.1808933E-3,-7.2269044E-3,-2.8563612E-3,-8.608809E-3,-9.908452E-3,-1.5635436E-2,-1.0375066E-2,-1.3361641E-2,-1.5612314E-2,-0E0,-0E0,-1.9229941E-2,-2.3022497E-2,-0E0,-5.0344504E-3,-2.1257494E-2,1.7535595E-2,1.0141698E-2,2.161473E-2,3.201948E-2,1.2666836E-2,2.7945673E-2,-0E0,4.7570497E-2,4.0134754E-2,3.0752515E-2,4.380513E-2,6.149856E-2,4.3286417E-2,-0E0,7.410209E-2,5.534836E-2,-0E0,6.6738605E-2,-0E0,5.398995E-2],"split_indices":[32,43,55,36,57,22,18,10,14,21,2,54,62,43,43,10,10,48,55,62,21,46,9,32,14,9,9,0,2,27,0,23,23,57,37,4,30,36,22,0,46,54,56,38,0,21,0,18,6,33,3,56,9,48,27,0,0,11,4,0,0,0,0,0,0,0,0,0,0,0,0,0,0,0,0,0,0,0,0,0,0,0,0,0,0,0,0,0,0,0,0,0,0,0,0,0,0,0,0,0,0,0,0,0,0],"split_type":[0,0,0,0,0,0,0,0,0,0,0,0,0,0,0,0,0,0,0,0,0,0,0,0,0,0,0,0,0,0,0,0,0,0,0,0,0,0,0,0,0,0,0,0,0,0,0,0,0,0,0,0,0,0,0,0,0,0,0,0,0,0,0,0,0,0,0,0,0,0,0,0,0,0,0,0,0,0,0,0,0,0,0,0,0,0,0,0,0,0,0,0,0,0,0,0,0,0,0,0,0,0,0,0,0],"sum_hessian":[1.1481E4,8.932E3,2.549E3,3.899E3,5.033E3,2.005E3,5.44E2,1.63E3,2.269E3,2.296E3,2.737E3,1.043E3,9.62E2,2.31E2,3.13E2,1.202E3,4.28E2,1.231E3,1.038E3,6.59E2,1.637E3,1.844E3,8.93E2,7.27E2,3.16E2,7.79E2,1.83E2,1.56E2,7.5E1,2.52E2,6.1E1,7.17E2,4.85E2,3.31E2,9.7E1,6.68E2,5.63E2,7.7E2,2.68E2,1.3E1,6.46E2,1.064E3,5.73E2,3.84E2,1.46E3,8.9E2,3E0,5.11E2,2.16E2,2.97E2,1.9E1,5.11E2,2.68E2,5.3E1,1.3E2,1E0,7.4E1,1.51E2,1.01E2,6.78E2,3.9E1,2.41E2,2.44E2,3.24E2,7E0,9.5E1,2E0,3.41E2,3.27E2,3.17E2,2.46E2,1.15E2,6.55E2,1.4E2,1.28E2,4.61E2,1.85E2,1.061E3,3E0,3E0,5.7E2,3.83E2,1E0,8E0,8.82E2,3.1E2,2.01E2,1.5E2,6.6E1,1.5E1,2.82E2,1E0,1.8E1,1.53E2,3.58E2,2.35E2,3.3E1,5.2E1,1E0,3.6E1,9.4E1,1E0,1.5E2,1E0,1E2],"tree_param":{"num_deleted":"0","num_feature":"64","num_nodes":"105","size_leaf_vector":"1"}},{"base_weights":[1.035781E-3,-1.1060775E-1,4.8330167E-1,3.6901694E-2,-1.9650377E-1,3.8451645E-1,8.9929473E-1,-8.166921E-3,1.3649997E-1,-2.4413095E-1,-1.3077447E-1,2.851222E-1,5.0671184E-1,1.0256053E0,7.11025E-1,4.1808438E-2,-3.5336215E-2,1.0783876E-1,2.1327953E-1,-2.7238476E-1,-2.1470803E-1,-1.0259842E-1,-1.5530907E-1,2.4183027E-1,3.6291254E-1,7.128814E-1,4.7406963E-1,7.6295406E-2,1.0954612E0,5.4828995E-1,7.747623E-1,2.7045703E-2,7.5426534E-2,-5.345171E-2,-8.8602565E-3,8.9647695E-2,1.6225903E-1,1.8839094E-1,2.839134E-1,-2.737559E-1,-1.1340878E-1,-1.9265655E-1,-2.2860204E-1,-1.0500245E-1,-0E0,-1.2538931E-1,-1.6611728E-1,1.7783178E-1,2.729419E-1,3.2959083E-1,4.6424857E-1,-0E0,6.2061056E-2,5.240962E-1,4.051727E-1,-0E0,9.514734E-2,3.2756443E-3,5.69966E-1,-0E0,6.748089E-2,8.178778E-4,4.066703E-3,3.1887253E-3,8.459836E-3,-3.9469046E-3,-8.95878E-3,1.2791745E-2,-1.0606705E-3,6.000275E-3,9.801492E-3,1.25580905E-2,2.5294334E-2,-0E0,1.6433962E-2,-0E0,2.492962E-2,-2.4405843E-2,-2.1639891E-2,-0E0,-1.1479998E-2,-0E0,-1.6698238E-2,-1.9800633E-2,-0E0,-9.208836E-3,2.4896425E-3,-3.478438E-3,1.0238591E-2,-0E0,-1.0897837E-2,-1.4906005E-2,-1.0667425E-2,6.5046614E-3,1.6685242E-2,2.0891104E-2,2.787263E-2,2.9022915E-2,3.9305113E-4,4.052591E-2,-0E0,3.495747E-2,4.9080126E-2,3.8211413E-2,2.942178E-2,5.009664E-2,-0E0],"categories":[],"categories_nodes":[],"categories_segments":[],"categories_sizes":[],"default_left":[0,0,0,0,0,0,0,0,0,0,0,0,0,0,0,0,0,0,0,0,0,0,0,0,0,0,0,0,0,0,0,0,0,0,0,0,0,0,0,0,0,0,0,0,0,0,0,0,0,0,0,0,0,0,0,0,0,0,0,0,0,0,0,0,0,0,0,0,0,0,0,0,0,0,0,0,0,0,0,0,0,0,0,0,0,0,0,0,0,0,0,0,0,0,0,0,0,0,0,0,0,0,0,0,0,0,0],"id":14,"left_children":[1,3,5,7,9,11,13,15,17,19,21,23,25,27,29,31,33,35,37,39,41,43,45,47,49,51,53,-1,55,57,59,61,63,65,67,69,71,73,75,77,79,81,83,85,87,89,91,93,95,97,99,-1,-1,101,103,-1,-1,-1,105,-1,-1,-1,-1,-1,-1,-1,-1,-1,-1,-1,-1,-1,-1,-1,-1,-1,-1,-1,-1,-1,-1,-1,-1,-1,-1,-1,-1,-1,-1,-1,-1,-1,-1,-1,-1,-1,-1,-1,-1,-1,-1,-1,-1,-1,-1,-1,-1],"loss_changes":[6.1412164E2,1.1738819E2,8.737854E1,1.5349379E1,1.8128693E1,2.0628723E1,8.677948E0,3.1762545E0,2.1763325E0,2.5590057E0,1.5711784E0,2.9050293E0,4.5285034E0,1.1793213E0,9.5261383E-1,3.5482323E-1,6.99653E-1,6.434889E-1,2.500496E-1,1.7391968E-1,2.9010773E-1,3.2399654E-1,2.7229118E-1,9.9946594E-1,7.0349884E-1,1.0261917E-1,1.793457E0,0E0,1.5533447E-1,2.4943924E-1,2.8842926E-1,1.7522141E-1,1.3842332E-1,2.758119E-1,2.6871765E-1,1.9136524E-1,1.9098234E-1,4.963875E-2,7.817173E-2,4.7828674E-2,3.3824503E-2,3.3109665E-2,2.8720856E-2,2.5128555E-1,1.4089888E-1,1.5819073E-2,9.545708E-2,1.8440008E-1,3.3686638E-1,3.153839E-1,7.581329E-2,0E0,0E0,1.4358063E0,2.5130844E-1,0E0,0E0,0E0,1.460619E-1,0E0,0E0,0E0,0E0,0E0,0E0,0E0,0E0,0E0,0E0,0E0,0E0,0E0,0E0,0E0,0E0,0E0,0E0,0E0,0E0,0E0,0E0,0E0,0E0,0E0,0E0,0E0,0E0,0E0,0E0,0E0,0E0,0E0,0E0,0E0,0E0,0E0,0E0,0E0,0E0,0E0,0E0,0E0,0E0,0E0,0E0,0E0,0E0],"parents":[2147483647,0,0,1,1,2,2,3,3,4,4,5,5,6,6,7,7,8,8,9,9,10,10,11,11,12,12,13,13,14,14,15,15,16,16,17,17,18,18,19,19,20,20,21,21,22,22,23,23,24,24,25,25,26,26,28,28,29,29,30,30,31,31,32,32,33,33,34,34,35,35,36,36,37,37,38,38,39,39,40,40,41,41,42,42,43,43,44,44,45,45,46,46,47,47,48,48,49,49,50,50,53,53,54,54,58,58],"right_children":[2,4,6,8,10,12,14,16,18,20,22,24,26,28,30,32,34,36,38,40,42,44,46,48,50,52,54,-1,56,58,60,62,64,66,68,70,72,74,76,78,80,82,84,86,88,90,92,94,96,98,100,-1,-1,102,104,-1,-1,-1,106,-1,-1,-1,-1,-1,-1,-1,-1,-1,-1,-1,-1,-1,-1,-1,-1,-1,-1,-1,-1,-1,-1,-1,-1,-1,-1,-1,-1,-1,-1,-1,-1,-1,-1,-1,-1,-1,-1,-1,-1,-1,-1,-1,-1,-1,-1,-1,-1],"split_conditions":[2.4371173E0,1.3276678E-1,-8.988472E-4,8.6480147E-1,-1.9696292E-1,6.337296E-1,1.654085E-1,-2.117801E-1,1.0258766E0,-2.3751655E-1,1.6762571E0,-1.0513E-2,-6.542014E-2,6.306633E-1,6.999883E-1,3.9511064E-1,5.1504644E-3,1.5487896E0,-2.278568E-1,-1.0575428E-1,9.4911057E-1,-1.040829E-2,-9.2273206E-2,7.2436213E-1,8.5544296E-2,-2.7799103E-1,-2.4992509E-2,7.6295406E-2,-2.758765E-1,-1.7562921E-1,-2.781288E-1,2.9412648E-1,-1.3618374E-1,3.3147302E-1,-2.0999767E-1,2.817845E-1,1.490072E-1,-2.7561662E-1,2.7518429E-2,-2.4102591E-1,-1.4817335E-1,-6.9940925E-2,4.1331626E-2,3.602057E-1,-2.5619176E-1,-2.74508E-1,-2.3123784E-2,-2.687017E-1,3.3542415E-1,-1.4063329E-1,1.8217403E0,-0E0,6.2061056E-2,-2.8348804E-2,7.149484E-2,-0E0,9.514734E-2,3.2756443E-3,9.902518E-1,-0E0,6.748089E-2,8.178778E-4,4.066703E-3,3.1887253E-3,8.459836E-3,-3.9469046E-3,-8.95878E-3,1.2791745E-2,-1.0606705E-3,6.000275E-3,9.801492E-3,1.25580905E-2,2.5294334E-2,-0E0,1.6433962E-2,-0E0,2.492962E-2,-2.4405843E-2,-2.1639891E-2,-0E0,-1.1479998E-2,-0E0,-1.6698238E-2,-1.9800633E-2,-0E0,-9.208836E-3,2.4896425E-3,-3.478438E-3,1.0238591E-2,-0E0,-1.0897837E-2,-1.4906005E-2,-1.0667425E-2,6.5046614E-3,1.6685242E-2,2.0891104E-2,2.787263E-2,2.9022915E-2,3.9305113E-4,4.052591E-2,-0E0,3.495747E-2,4.9080126E-2,3.8211413E-2,2.942178E-2,5.009664E-2,-0E0],"split_indices":[32,51,43,11,13,61,27,2,54,60,51,40,27,43,12,12,10,10,33,20,21,23,21,54,12,16,44,0,21,46,10,10,24,55,59,32,7,51,35,20,19,7,12,32,5,37,12,47,12,4,2,0,0,9,53,0,0,0,2,0,0,0,0,0,0,0,0,0,0,0,0,0,0,0,0,0,0,0,0,0,0,0,0,0,0,0,0,0,0,0,0,0,0,0,0,0,0,0,0,0,0,0,0,0,0,0,0],"split_type":[0,0,0,0,0,0,0,0,0,0,0,0,0,0,0,0,0,0,0,0,0,0,0,0,0,0,0,0,0,0,0,0,0,0,0,0,0,0,0,0,0,0,0,0,0,0,0,0,0,0,0,0,0,0,0,0,0,0,0,0,0,0,0,0,0,0,0,0,0,0,0,0,0,0,0,0,0,0,0,0,0,0,0,0,0,0,0,0,0,0,0,0,0,0,0,0,0,0,0,0,0,0,0,0,0,0,0],"sum_hessian":[1.1402E4,9.258E3,2.144E3,3.405E3,5.853E3,1.734E3,4.1E2,2.341E3,1.064E3,3.389E3,2.464E3,9.59E2,7.75E2,2.43E2,1.67E2,8.18E2,1.523E3,7.8E2,2.84E2,1.719E3,1.67E3,1.157E3,1.307E3,6.21E2,3.38E2,1.03E2,6.72E2,8.3E1,1.6E2,5E1,1.17E2,5.79E2,2.39E2,8.93E2,6.3E2,5.92E2,1.88E2,2.16E2,6.8E1,1.701E3,1.8E1,6.61E2,1.009E3,1.134E3,2.3E1,3.6E2,9.47E2,2.09E2,4.12E2,2.59E2,7.9E1,1E0,1.02E2,3.84E2,2.88E2,1E0,1.59E2,3E0,4.7E1,1E0,1.16E2,3.21E2,2.58E2,9.6E1,1.43E2,7.81E2,1.12E2,1E1,6.2E2,3.3E2,2.62E2,1.7E2,1.8E1,2E0,2.14E2,1E0,6.7E1,1.245E3,4.56E2,3E0,1.5E1,1E0,6.6E2,1.008E3,1E0,1.126E3,8E0,1.5E1,8E0,2E0,3.58E2,8.18E2,1.29E2,3.1E1,1.78E2,2.58E2,1.54E2,2.53E2,6E0,7.8E1,1E0,1.05E2,2.79E2,1.79E2,1.09E2,4.6E1,1E0],"tree_param":{"num_deleted":"0","num_feature":"64","num_nodes":"107","size_leaf_vector":"1"}},{"base_weights":[7.0256233E-4,-9.945803E-2,4.563898E-1,3.85055E-2,-1.8000704E-1,3.4910798E-1,7.981595E-1,1.15838416E-1,-1.2543909E-2,-1.2115449E-1,-2.2318101E-1,2.6146686E-1,4.5132774E-1,7.1483344E-1,1.0332191E0,9.015381E-2,2.026526E-1,2.7909197E-2,-3.559795E-2,-9.3631335E-2,-1.414396E-1,-2.4771644E-1,-1.929206E-1,2.0436952E-1,2.999591E-1,4.00816E-1,5.143358E-1,7.722402E-1,5.716244E-1,9.871633E-2,7.977542E-2,7.725134E-2,1.659197E-1,1.7934038E-1,2.5016347E-2,3.4877345E-2,-4.1376162E-2,-8.975607E-3,-5.179306E-2,-1.430383E-2,-9.793996E-2,-1.12427E-1,-1.5191656E-1,-2.2019355E-1,-2.5531447E-1,-1.679123E-1,-2.0824246E-1,2.2732355E-1,1.1890592E-1,2.7765036E-1,3.9157742E-1,4.8246074E-1,3.7287012E-1,5.529329E-1,4.176846E-1,4.0667553E-2,7.84537E-1,5.7549626E-1,-0E0,4.288829E-3,8.979841E-3,-0E0,1.4772781E-2,1.2274964E-2,1.812521E-2,4.7827414E-3,-0E0,-0E0,-4.324529E-3,1.8479182E-4,-2.8644754E-3,-3.708289E-3,-7.585717E-3,-4.1104453E-3,6.002554E-3,-8.101167E-3,-1.5617634E-2,-9.858244E-3,-0E0,-1.3352125E-2,-4.2639733E-3,-2.057595E-3,-1.9199748E-2,-2.2106873E-2,-0E0,-0E0,-1.4595584E-2,-1.804994E-2,-0E0,-0E0,1.9932352E-2,-0E0,1.12199765E-2,7.709654E-3,2.4628853E-2,2.9151034E-2,4.502978E-2,4.2135045E-2,-0E0,3.2419007E-2,-0E0,4.7994893E-2,-0E0,3.7328273E-2,6.1800512E-3,6.2758535E-2,7.374181E-2,5.1217522E-2,2.2731924E-2],"categories":[],"categories_nodes":[],"categories_segments":[],"categories_sizes":[],"default_left":[0,0,0,0,0,0,0,0,0,0,0,0,0,0,0,0,0,0,0,0,0,0,0,0,0,0,0,0,0,0,0,0,0,0,0,0,0,0,0,0,0,0,0,0,0,0,0,0,0,0,0,0,0,0,0,0,0,0,0,0,0,0,0,0,0,0,0,0,0,0,0,0,0,0,0,0,0,0,0,0,0,0,0,0,0,0,0,0,0,0,0,0,0,0,0,0,0,0,0,0,0,0,0,0,0,0,0,0,0],"id":15,"left_children":[1,3,5,7,9,11,13,15,17,19,21,23,25,27,29,31,33,35,37,39,41,43,45,47,49,51,53,55,57,-1,-1,59,61,63,-1,65,67,69,71,73,75,77,79,81,83,85,87,89,91,93,95,97,99,101,103,-1,105,107,-1,-1,-1,-1,-1,-1,-1,-1,-1,-1,-1,-1,-1,-1,-1,-1,-1,-1,-1,-1,-1,-1,-1,-1,-1,-1,-1,-1,-1,-1,-1,-1,-1,-1,-1,-1,-1,-1,-1,-1,-1,-1,-1,-1,-1,-1,-1,-1,-1,-1,-1],"loss_changes":[5.180115E2,1.0342472E2,7.434082E1,1.3577882E1,1.4747528E1,1.3572113E1,8.456879E0,2.8962288E0,1.9255563E0,1.2706604E0,2.2795868E0,1.5832634E0,1.7648315E0,2.180542E0,1.6212463E-1,9.1140175E-1,3.7156296E-1,3.546329E-1,5.3905594E-1,3.092022E-1,2.9673767E-1,1.3645935E-1,3.8785553E-1,4.979887E-1,6.5260315E-1,4.428177E-1,6.189499E-1,2.1746826E-1,1.4538956E-1,0E0,0E0,5.9157467E-1,9.223986E-2,9.6371174E-2,0E0,4.6630406E-1,2.8124958E-2,1.5236178E-1,1.9393992E-1,1.603868E-1,2.1994114E-1,7.879782E-2,1.4654922E-1,1.1800766E-2,1.5357971E-2,3.119278E-2,3.2527924E-2,2.0491791E-1,9.118807E-2,3.358822E-1,1.7372322E-1,1.7514229E-1,2.4910736E-1,8.174896E-2,1.8645477E-1,0E0,8.911133E-3,7.167816E-2,0E0,0E0,0E0,0E0,0E0,0E0,0E0,0E0,0E0,0E0,0E0,0E0,0E0,0E0,0E0,0E0,0E0,0E0,0E0,0E0,0E0,0E0,0E0,0E0,0E0,0E0,0E0,0E0,0E0,0E0,0E0,0E0,0E0,0E0,0E0,0E0,0E0,0E0,0E0,0E0,0E0,0E0,0E0,0E0,0E0,0E0,0E0,0E0,0E0,0E0,0E0],"parents":[2147483647,0,0,1,1,2,2,3,3,4,4,5,5,6,6,7,7,8,8,9,9,10,10,11,11,12,12,13,13,14,14,15,15,16,16,17,17,18,18,19,19,20,20,21,21,22,22,23,23,24,24,25,25,26,26,27,27,28,28,31,31,32,32,33,33,35,35,36,36,37,37,38,38,39,39,40,40,41,41,42,42,43,43,44,44,45,45,46,46,47,47,48,48,49,49,50,50,51,51,52,52,53,53,54,54,56,56,57,57],"right_children":[2,4,6,8,10,12,14,16,18,20,22,24,26,28,30,32,34,36,38,40,42,44,46,48,50,52,54,56,58,-1,-1,60,62,64,-1,66,68,70,72,74,76,78,80,82,84,86,88,90,92,94,96,98,100,102,104,-1,106,108,-1,-1,-1,-1,-1,-1,-1,-1,-1,-1,-1,-1,-1,-1,-1,-1,-1,-1,-1,-1,-1,-1,-1,-1,-1,-1,-1,-1,-1,-1,-1,-1,-1,-1,-1,-1,-1,-1,-1,-1,-1,-1,-1,-1,-1,-1,-1,-1,-1,-1,-1],"split_conditions":[2.8957455E0,1.3276678E-1,9.972912E0,-1.377E-1,3.7266788E0,2.6479106E0,-6.168091E-4,1.8467739E0,-2.1363162E-1,1.5354006E0,5.4105166E-3,-1.7116095E-1,6.218988E0,5.3585654E-1,-4.714002E-2,3.136441E-1,5.273018E-1,-1.3121258E-2,-2.2468802E-2,-1.8257487E-1,-1.0252923E-1,1.2543278E0,9.2178893E-1,3.9933437E-1,1.7253783E0,5.9899616E0,1.769841E0,-1.748306E-1,1.9198302E0,9.871633E-2,7.977542E-2,8.7534374E-1,-2.5306392E-1,3.9003313E-2,2.5016347E-2,1.696064E-1,-2.5312588E-1,3.7075368E-1,6.184429E-1,-2.035092E-1,3.9933437E-1,-1.3583359E-1,1.7884794E-1,-1.4250962E-1,3.2868204E-1,1.155277E0,-7.928088E-2,-2.6606837E-1,-2.7187732E-1,-2.6083767E-1,-1.5217939E-1,-1.4900577E-1,-1.0316985E-1,1.114474E0,-1.5929292E-1,4.0667553E-2,4.872048E-1,2.2511423E0,-0E0,4.288829E-3,8.979841E-3,-0E0,1.4772781E-2,1.2274964E-2,1.812521E-2,4.7827414E-3,-0E0,-0E0,-4.324529E-3,1.8479182E-4,-2.8644754E-3,-3.708289E-3,-7.585717E-3,-4.1104453E-3,6.002554E-3,-8.101167E-3,-1.5617634E-2,-9.858244E-3,-0E0,-1.3352125E-2,-4.2639733E-3,-2.057595E-3,-1.9199748E-2,-2.2106873E-2,-0E0,-0E0,-1.4595584E-2,-1.804994E-2,-0E0,-0E0,1.9932352E-2,-0E0,1.12199765E-2,7.709654E-3,2.4628853E-2,2.9151034E-2,4.502978E-2,4.2135045E-2,-0E0,3.2419007E-2,-0E0,4.7994893E-2,-0E0,3.7328273E-2,6.1800512E-3,6.2758535E-2,7.374181E-2,5.1217522E-2,2.2731924E-2],"split_indices":[32,51,63,45,51,63,46,10,62,51,2,63,63,18,8,23,23,37,36,62,21,46,21,18,12,32,27,1,43,0,0,10,20,49,0,4,63,4,45,63,18,40,8,45,33,24,40,20,20,20,56,4,0,21,48,0,43,27,0,0,0,0,0,0,0,0,0,0,0,0,0,0,0,0,0,0,0,0,0,0,0,0,0,0,0,0,0,0,0,0,0,0,0,0,0,0,0,0,0,0,0,0,0,0,0,0,0,0,0],"split_type":[0,0,0,0,0,0,0,0,0,0,0,0,0,0,0,0,0,0,0,0,0,0,0,0,0,0,0,0,0,0,0,0,0,0,0,0,0,0,0,0,0,0,0,0,0,0,0,0,0,0,0,0,0,0,0,0,0,0,0,0,0,0,0,0,0,0,0,0,0,0,0,0,0,0,0,0,0,0,0,0,0,0,0,0,0,0,0,0,0,0,0,0,0,0,0,0,0,0,0,0,0,0,0,0,0,0,0,0,0],"sum_hessian":[1.1345E4,9.3E3,2.045E3,3.426E3,5.874E3,1.558E3,4.87E2,1.366E3,2.06E3,2.491E3,3.383E3,8.42E2,7.16E2,3.62E2,1.25E2,1.059E3,3.07E2,7.4E2,1.32E3,1.068E3,1.423E3,1.858E3,1.525E3,3.45E2,4.97E2,4.03E2,3.13E2,2.55E2,1.07E2,6E1,6.5E1,9.11E2,1.48E2,2.47E2,6E1,6.79E2,6.1E1,5.11E2,8.09E2,6.1E1,1.007E3,3.91E2,1.032E3,4.18E2,1.44E3,5.93E2,9.32E2,2.67E2,7.8E1,4.05E2,9.2E1,9.7E1,3.06E2,2.19E2,9.4E1,1.2E1,2.43E2,1.06E2,1E0,4.55E2,4.56E2,5E0,1.43E2,1.18E2,1.29E2,4.23E2,2.56E2,8E0,5.3E1,3.36E2,1.75E2,6.59E2,1.5E2,4.8E1,1.3E1,9.63E2,4.4E1,3.87E2,4E0,1.004E3,2.8E1,6E0,4.12E2,1.439E3,1E0,4E0,5.89E2,9.3E2,2E0,3E0,2.64E2,7E0,7.1E1,1.7E1,3.88E2,6.8E1,2.4E1,9.6E1,1E0,3.05E2,1E0,2.18E2,1E0,8.9E1,5E0,1.35E2,1.08E2,9.9E1,7E0],"tree_param":{"num_deleted":"0","num_feature":"64","num_nodes":"109","size_leaf_vector":"1"}},{"base_weights":[5.9989805E-4,-9.106632E-2,4.1445023E-1,3.0548552E-2,-1.6400929E-1,3.2593828E-1,7.3333406E-1,-1.6680537E-2,1.0795575E-1,-1.0482851E-1,-2.041703E-1,2.5161844E-1,4.152609E-1,8.554716E-1,5.894774E-1,1.2856397E-2,-5.3403366E-2,7.371983E-2,1.5868841E-1,-8.190583E-2,-1.304187E-1,-1.748957E-1,-2.2642006E-1,2.2004654E-1,3.3009982E-1,3.6214897E-1,5.062172E-1,7.5911134E-1,9.6831626E-1,3.8906208E-1,6.148421E-1,5.3594165E-2,-0E0,-1.2170638E-1,-4.1022457E-2,7.9465196E-2,-0E0,1.2765194E-1,2.1529052E-1,-9.257581E-2,-5.262813E-2,-1.3104838E-1,-0E0,-1.8472964E-1,-1.5506853E-1,-2.0150984E-2,-1.9884802E-1,1.977596E-1,3.1575057E-1,3.361134E-1,3.9726184E-4,3.0582356E-1,4.468315E-1,5.663867E-1,3.9953598E-1,7.6220083E-1,-0E0,3.716015E-2,8.5576475E-2,-0E0,3.4427367E-2,6.168998E-1,-0E0,3.4094504E-3,8.969371E-3,-1.1486246E-3,1.8620118E-3,-0E0,-1.1346046E-2,-3.2436748E-3,-1.3089136E-2,7.5956946E-3,2.3068886E-3,1.3415047E-3,-2.8912174E-3,1.170946E-2,2.6234363E-3,2.1547068E-2,1.3598909E-2,-3.6611124E-3,-8.275087E-3,-0E0,-4.855982E-3,-0E0,-1.1386706E-2,-1.599794E-2,-0E0,-1.3509876E-2,-0E0,-1.7265776E-2,-0E0,1.3812702E-2,2.1299202E-2,4.251207E-2,2.3947295E-2,2.3244221E-3,2.9586017E-2,2.3407778E-3,2.7192563E-2,3.002254E-2,4.1484896E-2,4.6077922E-2,6.45184E-2,-0E0,3.4786407E-2,6.646553E-2,1.0786735E-2,-0E0,5.356146E-2],"categories":[],"categories_nodes":[],"categories_segments":[],"categories_sizes":[],"default_left":[0,0,0,0,0,0,0,0,0,0,0,0,0,0,0,0,0,0,0,0,0,0,0,0,0,0,0,0,0,0,0,0,0,0,0,0,0,0,0,0,0,0,0,0,0,0,0,0,0,0,0,0,0,0,0,0,0,0,0,0,0,0,0,0,0,0,0,0,0,0,0,0,0,0,0,0,0,0,0,0,0,0,0,0,0,0,0,0,0,0,0,0,0,0,0,0,0,0,0,0,0,0,0,0,0,0,0,0,0],"id":16,"left_children":[1,3,5,7,9,11,13,15,17,19,21,23,25,27,29,31,33,35,37,39,41,43,45,47,49,51,53,55,57,59,61,63,65,67,69,71,73,75,77,79,81,83,-1,85,87,-1,89,91,93,95,-1,97,99,101,103,105,-1,-1,-1,-1,-1,107,-1,-1,-1,-1,-1,-1,-1,-1,-1,-1,-1,-1,-1,-1,-1,-1,-1,-1,-1,-1,-1,-1,-1,-1,-1,-1,-1,-1,-1,-1,-1,-1,-1,-1,-1,-1,-1,-1,-1,-1,-1,-1,-1,-1,-1,-1,-1],"loss_changes":[4.3015045E2,8.237486E1,5.7443085E1,1.27546E1,1.3631378E1,1.0335144E1,6.957123E0,2.3580732E0,2.176466E0,1.2710304E0,2.0375824E0,1.894619E0,3.0334625E0,1.5147858E0,4.850464E-1,6.117483E-1,7.368591E-1,3.6526775E-1,7.466574E-1,3.176117E-1,1.2963104E-1,1.1601257E-1,1.1696625E-1,1.0822334E0,3.1707954E-1,1.801094E0,1.1504669E0,4.0893555E-2,3.4140778E-1,2.2109032E-2,7.8948975E-2,1.2792522E-1,2.604013E-1,1.6581392E-1,2.277757E-1,2.6792192E-1,3.4158763E-2,1.7439127E-1,1.4042377E-1,6.85544E-2,5.8946192E-2,7.89547E-2,0E0,6.42395E-3,9.162903E-2,0E0,1.8644333E-2,7.472973E-1,3.6932468E-1,2.4388313E-1,0E0,4.889965E-1,1.298523E-1,2.5447845E-1,2.8520584E-2,1.0620117E-2,0E0,0E0,0E0,0E0,0E0,5.202484E-2,0E0,0E0,0E0,0E0,0E0,0E0,0E0,0E0,0E0,0E0,0E0,0E0,0E0,0E0,0E0,0E0,0E0,0E0,0E0,0E0,0E0,0E0,0E0,0E0,0E0,0E0,0E0,0E0,0E0,0E0,0E0,0E0,0E0,0E0,0E0,0E0,0E0,0E0,0E0,0E0,0E0,0E0,0E0,0E0,0E0,0E0,0E0],"parents":[2147483647,0,0,1,1,2,2,3,3,4,4,5,5,6,6,7,7,8,8,9,9,10,10,11,11,12,12,13,13,14,14,15,15,16,16,17,17,18,18,19,19,20,20,21,21,22,22,23,23,24,24,25,25,26,26,27,27,28,28,29,29,30,30,31,31,32,32,33,33,34,34,35,35,36,36,37,37,38,38,39,39,40,40,41,41,43,43,44,44,46,46,47,47,48,48,49,49,51,51,52,52,53,53,54,54,55,55,61,61],"right_children":[2,4,6,8,10,12,14,16,18,20,22,24,26,28,30,32,34,36,38,40,42,44,46,48,50,52,54,56,58,60,62,64,66,68,70,72,74,76,78,80,82,84,-1,86,88,-1,90,92,94,96,-1,98,100,102,104,106,-1,-1,-1,-1,-1,108,-1,-1,-1,-1,-1,-1,-1,-1,-1,-1,-1,-1,-1,-1,-1,-1,-1,-1,-1,-1,-1,-1,-1,-1,-1,-1,-1,-1,-1,-1,-1,-1,-1,-1,-1,-1,-1,-1,-1,-1,-1,-1,-1,-1,-1,-1,-1],"split_conditions":[2.8957455E0,4.980975E-1,4.57219E-1,5.4926413E-1,3.4197694E-1,6.337296E-1,5.7612318E-3,-2.935814E-2,7.7519E-1,-1.5780927E-1,5.0306525E0,2.1489252E-1,2.853182E-1,-1.7209126E-1,-9.724773E-2,-2.4248439E-1,-2.5071517E-1,-9.387671E-2,-1.2366124E-3,3.3576843E-1,3.177394E-1,1.893209E-2,-2.2468539E-1,9.4766396E-1,1.1339601E0,1.9888166E0,-2.4992509E-2,2.7345204E0,-2.3584116E-1,3.610107E-1,2.155739E0,7.632844E-1,1.7293033E-1,-2.4681443E-1,1.4767331E0,-1.2413589E-1,5.5229515E-1,-1.124012E-1,4.1238704E-1,-7.55259E-2,9.80043E-2,-2.6146275E-1,-0E0,1.7817621E0,-9.917745E-4,-2.0150984E-2,1.0075787E-1,-6.505102E-2,-1.3113806E-1,3.2918647E-2,3.9726184E-4,-9.992565E-2,9.4174665E-1,2.4292295E-1,-2.7824485E-1,6.0696015E0,-0E0,3.716015E-2,8.5576475E-2,-0E0,3.4427367E-2,4.0662813E-1,-0E0,3.4094504E-3,8.969371E-3,-1.1486246E-3,1.8620118E-3,-0E0,-1.1346046E-2,-3.2436748E-3,-1.3089136E-2,7.5956946E-3,2.3068886E-3,1.3415047E-3,-2.8912174E-3,1.170946E-2,2.6234363E-3,2.1547068E-2,1.3598909E-2,-3.6611124E-3,-8.275087E-3,-0E0,-4.855982E-3,-0E0,-1.1386706E-2,-1.599794E-2,-0E0,-1.3509876E-2,-0E0,-1.7265776E-2,-0E0,1.3812702E-2,2.1299202E-2,4.251207E-2,2.3947295E-2,2.3244221E-3,2.9586017E-2,2.3407778E-3,2.7192563E-2,3.002254E-2,4.1484896E-2,4.6077922E-2,6.45184E-2,-0E0,3.4786407E-2,6.646553E-2,1.0786735E-2,-0E0,5.356146E-2],"split_indices":[32,24,39,11,21,61,18,36,54,21,57,40,58,4,58,36,20,3,24,20,54,52,20,12,34,54,44,49,21,2,10,12,10,41,57,55,54,38,44,7,48,29,0,58,35,0,38,20,47,5,0,54,40,56,55,11,0,0,0,0,0,11,0,0,0,0,0,0,0,0,0,0,0,0,0,0,0,0,0,0,0,0,0,0,0,0,0,0,0,0,0,0,0,0,0,0,0,0,0,0,0,0,0,0,0,0,0,0,0],"split_type":[0,0,0,0,0,0,0,0,0,0,0,0,0,0,0,0,0,0,0,0,0,0,0,0,0,0,0,0,0,0,0,0,0,0,0,0,0,0,0,0,0,0,0,0,0,0,0,0,0,0,0,0,0,0,0,0,0,0,0,0,0,0,0,0,0,0,0,0,0,0,0,0,0,0,0,0,0,0,0,0,0,0,0,0,0,0,0,0,0,0,0,0,0,0,0,0,0,0,0,0,0,0,0,0,0,0,0,0,0],"sum_hessian":[1.1334E4,9.278E3,2.056E3,3.476E3,5.802E3,1.611E3,4.45E2,2.155E3,1.321E3,2.351E3,3.451E3,8.83E2,7.28E2,2.38E2,2.07E2,1.187E3,9.68E2,7.95E2,5.26E2,1.251E3,1.1E3,1.501E3,1.95E3,6.35E2,2.48E2,4.64E2,2.64E2,1.32E2,1.06E2,2.6E1,1.81E2,2.81E2,9.06E2,1.42E2,8.26E2,7.42E2,5.3E1,3.46E2,1.8E2,9.04E2,3.47E2,1.097E3,3E0,9.85E2,5.16E2,1.566E3,3.84E2,5.2E2,1.15E2,2.42E2,6E0,2.83E2,1.81E2,1.65E2,9.9E1,1.31E2,1E0,5E0,1.01E2,1E0,2.5E1,1.8E2,1E0,2.27E2,5.4E1,5.55E2,3.51E2,1E1,1.32E2,8.05E2,2.1E1,6.33E2,1.09E2,2.9E1,2.4E1,3.16E2,3E1,1.08E2,7.2E1,6.1E1,8.43E2,2.3E1,3.24E2,4E0,1.093E3,9.84E2,1E0,5.13E2,3E0,3.82E2,2E0,2.97E2,2.23E2,1.8E1,9.7E1,6E0,2.36E2,1E1,2.73E2,4.9E1,1.32E2,1.42E2,2.3E1,1E0,9.8E1,1.29E2,2E0,1E0,1.79E2],"tree_param":{"num_deleted":"0","num_feature":"64","num_nodes":"109","size_leaf_vector":"1"}},{"base_weights":[2.5746697E-3,-6.989885E-2,4.3765238E-1,5.2724335E-2,-1.487466E-1,3.521293E-1,7.2767514E-1,1.196121E-1,-8.307658E-3,-1.0128927E-1,-1.8856475E-1,2.9028243E-1,4.4442147E-1,5.1065776E-2,8.0353177E-1,8.117991E-2,1.745774E-1,2.1757392E-2,-2.8910091E-2,-7.8301854E-2,-1.2291953E-1,-2.0342267E-1,-1.585345E-1,2.0400779E-1,3.0664665E-1,3.5528994E-1,4.8015657E-1,7.485044E-1,8.41837E-2,6.2513866E-2,1.3729091E-1,1.9786273E-1,1.033806E-1,3.855914E-2,-7.3021944E-3,-2.2684148E-2,-7.337541E-2,-8.7576084E-2,-5.1666033E-2,-1.4004855E-1,-1.0876835E-1,-2.1459211E-1,-1.8625973E-1,-1.5976933E-1,-2.4852594E-3,2.1119376E-1,-0E0,2.6743588E-1,3.405182E-1,